410 50
</s> 0.008005 0.008839 -0.007661 -0.006556 0.002733 0.006042 0.001882 0.000423 -0.007207 0.004437 -0.008713 0.002499 -0.001503 -0.001914 -0.006631 -0.003764 0.005159 0.006051 0.005938 0.003195 0.003090 -0.007605 -0.008192 0.009939 0.007603 0.006180 -0.001208 0.008031 -0.000990 0.001469 -0.000298 -0.005966 0.002625 -0.002675 -0.007651 0.009508 0.008759 -0.002190 -0.000452 0.001018 -0.007275 -0.008014 0.009109 0.000126 -0.005165 -0.006084 -0.006153 0.003394 0.000403 0.002662 
filename -0.863149 -0.190511 0.526357 0.102925 0.647369 -2.257213 0.694541 -0.329848 -0.693366 0.513057 -1.337899 -1.730755 1.894381 1.777689 -0.898325 -2.569028 0.945863 -1.068026 -2.243217 -1.020909 -0.926750 -0.153435 -0.969893 -1.231421 0.815512 2.450485 -1.951899 -2.523968 -1.237206 2.348451 -1.750295 1.537466 1.033408 1.425082 1.484125 2.121296 -0.086303 -0.031400 2.162979 0.749560 -0.431682 -0.113904 0.685061 -0.583995 -1.075987 -0.702329 -1.923856 0.738159 -0.279150 -0.222610 
parameter 0.674390 1.166812 -1.546280 1.339357 1.881218 -0.406137 0.377916 -0.563900 1.811024 -1.793339 1.763520 -0.050529 1.134348 1.346662 0.629065 -1.338251 -0.702000 1.302621 -0.245990 0.579732 -0.634707 0.527080 -1.238174 0.114906 -1.384180 -1.194511 -0.594710 -0.392814 0.078751 1.772405 -1.425415 0.900972 -0.252156 0.087975 0.264792 0.041864 -0.714076 1.516510 0.047352 -0.371994 1.166819 -0.164473 0.760778 -0.486888 -0.354206 -1.148686 -0.115139 -0.854283 -0.293322 -0.143004 
ls 1.225098 -0.300064 1.318689 0.650198 0.992705 -1.757983 -0.566116 0.432112 0.938977 -0.431340 0.017041 -0.236688 0.116840 -0.732828 -0.682494 0.200729 0.505473 -0.737916 -1.891903 -0.296529 -1.329728 -0.198435 -0.183647 -2.097232 -0.833301 -0.219983 0.188840 0.043503 0.579910 0.384916 0.598598 1.689335 -0.196563 -1.314031 -1.271849 0.455690 0.272173 0.023978 -0.179848 0.065988 1.329901 0.282353 0.229532 0.062462 -0.030263 2.099414 -0.700087 -0.974614 -0.578658 0.630245 
cd 0.879231 0.687110 -1.449158 -0.476960 0.133155 -0.877436 1.297363 0.378115 -0.096839 -0.247730 0.640422 0.152137 0.829766 -0.176635 0.680021 -2.144196 0.969224 -0.489318 0.305865 -0.757849 0.405906 -0.479491 -0.825333 -0.931210 0.165068 0.189483 -0.774274 0.233578 0.009297 0.119521 1.026079 0.555370 -0.734018 -1.301070 0.084359 -0.851087 -0.605041 -0.262955 -1.173616 -0.748684 -0.485338 0.320203 0.383904 0.132612 1.036463 0.277898 -1.678128 -0.293167 -0.636193 -0.633018 
emacs 0.302288 0.114038 1.540206 2.171165 0.027220 0.678478 -0.459924 -0.324878 -0.355964 -0.003658 0.745183 1.860578 0.267717 -0.071612 0.798605 -0.876326 1.189613 -0.349768 0.083416 -0.802455 0.998311 0.016537 0.759602 -0.764656 0.830030 -1.088603 -1.676003 -0.801823 -1.052667 0.071956 -0.023075 -0.396748 -0.099959 -1.155097 -1.684891 -0.875596 0.534582 0.243553 -0.364505 1.737167 0.025645 -1.774258 0.077310 0.900794 0.917541 -0.655335 -1.077925 0.839634 0.023718 -1.183394 
fg 0.273451 -0.183698 -0.276270 0.338626 1.780327 1.290497 0.123462 0.336342 0.081267 0.187343 0.020419 -0.239749 2.229369 0.870653 0.131759 -1.194037 0.918021 -0.540146 -0.077187 -1.160043 -1.362646 0.321190 0.575309 -0.384434 -0.450531 0.446985 -0.239974 -0.330872 -0.923297 0.570123 -0.636212 0.647486 0.579304 -0.047849 0.008499 1.003602 -0.196527 -0.801774 -0.796985 0.664967 0.747491 -1.892621 0.563931 -1.537814 0.044352 0.413205 -1.629028 -0.268029 1.030435 -1.688858 
rm 0.277492 0.152063 -0.692556 -0.538275 2.285139 -0.823658 0.072908 1.410691 -1.921178 -0.107685 1.350670 -0.292008 -0.065868 0.231115 0.140166 -0.124027 0.522971 -1.976854 -0.653343 -2.088680 1.775978 -0.501633 -0.996485 -0.517436 -0.995180 0.608964 -1.068193 -0.451376 1.397981 0.448214 -0.226005 1.340630 -2.294418 0.107669 0.350604 -1.355480 2.121709 -0.401048 -0.627169 0.901376 0.531488 0.122002 0.128984 -0.317743 0.325848 0.572040 -1.124123 0.268723 -0.088725 0.275223 
mail -0.956573 0.626434 0.027478 0.310748 0.333481 -1.455526 -0.086735 1.671857 1.648479 1.173821 0.618334 -0.099260 -1.348229 0.355090 -0.258212 -0.700256 -0.107362 0.962794 0.153430 -0.660454 0.571372 -0.189291 1.845643 -0.486885 0.144570 0.065266 -0.835018 -0.469861 -0.741095 0.822438 -0.321001 -0.532446 0.366408 -0.966473 -1.162966 0.642495 -1.406071 1.628801 0.695115 0.198231 0.315111 -0.909284 1.564046 -0.600428 -1.146580 0.293309 -0.524467 0.149273 -0.173169 1.033832 
more 1.007127 -0.539691 -0.536354 0.715267 1.770958 0.317770 0.392025 -0.521805 1.179853 -1.014517 1.111373 -0.004771 -0.344671 0.125757 -0.884717 -0.140890 0.784764 0.256964 -0.401477 0.880393 1.152989 0.714731 1.354157 0.464255 -0.845999 1.281078 -0.712369 -1.381078 1.099791 -0.741391 0.823020 -0.636999 -1.902740 0.983313 -0.038137 -0.876242 0.543261 0.786003 -0.012853 0.074289 -1.015838 0.117467 -0.522162 0.212449 -0.061803 -0.598268 0.435174 -0.272365 0.952872 0.367934 
lpq 0.160801 -0.933830 -1.301630 -0.082354 -0.619419 -0.664921 -0.995644 -0.927583 -1.204648 -0.995607 -0.072932 1.897373 1.287577 1.002259 0.095473 -0.053174 1.076898 0.123212 -0.856685 -0.304618 -0.048579 -0.053430 0.846933 -1.225719 0.903897 -0.361107 1.331092 -1.466260 -1.507226 -0.626767 1.359014 1.544051 -0.102540 0.507086 -0.572292 0.472227 -0.478688 -1.208992 -0.538139 -0.690609 0.078883 1.637622 1.274632 1.486462 0.590131 0.490412 0.013982 1.033910 1.693312 -0.626791 
ps -0.690972 -0.178974 -1.415525 0.916207 -0.849202 -2.903244 1.343845 0.716105 1.058501 2.949704 -1.527546 0.949922 -1.063170 0.428837 1.148999 -0.855538 1.169037 0.136474 1.373983 -0.210085 0.089271 0.544433 0.137291 0.876792 1.294260 1.255116 0.262382 -1.287244 0.414511 -0.136750 -1.123837 0.877289 -1.227678 0.438487 -0.120573 1.896246 -1.175135 -0.104228 -1.264071 1.648634 2.800010 -1.495971 0.690933 -0.390683 2.111620 0.605720 -1.689402 0.254317 0.243117 0.677659 
f -0.530432 0.469943 0.858125 -0.022667 0.110346 -3.506241 0.964893 -1.699057 -1.105016 -0.126715 -0.375929 -1.106349 -1.360146 -0.581761 -0.685795 1.023703 1.734217 1.037288 -0.728784 -0.370268 -0.694336 1.781766 1.544764 -1.193336 0.698750 -1.759116 0.514924 0.336004 0.198487 0.115988 -0.509303 -0.690531 0.173100 -0.828378 -0.901367 0.947444 0.844748 1.423773 -0.091068 -0.862395 -1.502591 -0.943483 -1.671953 -0.504970 1.208853 -1.216653 -0.924557 0.791208 -0.505107 0.769883 
rlogin 1.438304 -1.046686 2.882726 -1.025317 0.629514 -1.321501 -1.104144 -0.361634 0.922784 0.721571 1.463432 -0.079553 0.851342 -0.783647 0.125757 0.592421 0.630072 0.688233 0.024315 -0.799290 -0.170525 1.080067 0.081443 -0.366054 0.266831 -1.389549 0.073086 -0.207386 -1.685514 -0.895883 -3.257138 -0.276414 0.102295 -0.540468 0.331683 0.911255 0.342624 0.585537 -0.047694 -0.795798 2.947880 0.704834 0.765779 0.134143 0.511130 0.070752 -1.651928 -0.508267 -0.265880 0.890809 
cat 0.934461 1.367185 0.120898 -1.546762 0.992593 -1.459320 0.621617 -0.367442 -1.007084 -0.186159 1.270319 -0.232257 -2.269198 0.314100 2.520067 0.424273 0.959834 -0.221997 0.428460 2.134470 -0.578265 -0.125102 0.012788 -0.671542 0.444286 0.774569 0.068889 0.854587 0.961451 0.692474 1.051597 -0.131112 -0.853506 0.249979 1.021129 -1.597361 0.879438 0.393671 1.418784 -3.117322 -1.482330 -0.086469 1.050324 1.267713 1.886745 0.849928 1.435130 -1.497375 -0.595708 0.108239 
who -0.197972 -0.296896 0.973663 -0.416292 0.631998 -2.397818 -0.436990 -0.968040 1.065026 -0.538710 0.015707 -0.207163 -0.110010 1.218941 0.942528 -0.654019 1.928134 -0.700927 0.721712 0.699969 0.195121 -0.860828 0.339952 1.740395 0.224259 0.363735 0.017740 -1.017814 -1.052655 -1.277423 1.136382 -0.055713 0.794572 -0.376457 -1.334937 -0.324596 1.385262 -0.856040 -0.410669 0.374654 1.990806 -1.971795 -0.937845 -0.093889 1.723058 -1.060843 -1.501696 -1.638054 -0.343555 0.624144 
mv 1.766551 0.116646 -1.365137 0.110516 1.411739 0.264181 0.100643 1.335287 0.757758 0.708340 0.639229 0.084939 0.649088 -0.759062 0.066540 0.360902 0.146172 -0.128582 -0.970241 -1.156656 1.074974 0.952719 1.339992 -1.314890 -0.713283 3.082359 -2.043594 -0.593212 1.538646 -0.538136 -0.896919 -0.497340 -3.168271 0.154337 -0.714311 -1.457012 1.170459 -0.310447 -0.509852 -0.473375 -0.255562 0.982138 -2.377289 -1.185877 -0.696805 1.107540 0.044868 -0.876348 0.077613 -0.609040 
logout 2.226083 2.106403 0.185892 1.539018 1.275519 -0.781555 -0.435959 0.693215 0.384321 -0.649110 0.998138 2.046913 -1.109622 -1.084286 0.568034 2.031000 1.304363 0.369899 0.886661 1.881020 0.702994 -0.712315 0.176514 -0.073801 -1.570611 1.253159 -1.479310 0.318055 0.715887 0.946853 -0.074357 1.245902 0.559978 1.303517 -1.400144 0.565501 0.950122 0.125868 1.182490 -1.725471 -0.437808 -0.897199 -2.033851 0.607855 1.496520 -1.592477 -1.715803 0.971161 -0.409881 -0.171255 
page -0.384938 1.746624 -0.435203 -0.538355 2.266456 -0.378482 0.771939 -0.707186 0.146987 1.115236 0.709939 1.763008 0.791046 -0.275537 0.342307 -0.263139 1.963208 -0.899909 0.403987 0.353939 -0.449381 0.050462 2.182267 1.020044 -0.076636 -1.370204 0.197335 -1.531230 0.290636 -0.424500 0.533207 1.035351 0.462375 0.602544 -0.409855 1.640801 0.233686 2.398515 -0.404130 -0.355755 -0.252205 -0.216121 0.117688 -0.302995 -1.408054 0.359673 1.302509 0.254640 1.672357 -1.863917 
man 0.435535 -1.393298 -0.643861 -0.078619 -0.208741 -0.567268 0.077776 -1.844314 0.191077 -0.242551 -0.543598 -0.525774 1.648218 -0.663044 0.511201 0.918996 1.496058 0.486278 0.535407 0.337270 -0.340913 0.507022 -0.956642 -0.208367 0.877197 0.221435 -0.122899 0.055089 1.240216 0.421550 -0.621294 0.836200 -0.866398 -0.182593 -0.884562 -0.366495 -0.734243 -0.031483 0.608940 0.943142 0.357603 -1.631776 0.725335 0.501850 -1.683874 0.382395 -0.148670 -0.155718 -0.844050 1.237300 
fred -0.739192 1.505529 -2.654042 1.244367 1.845323 2.444015 0.511060 1.442821 1.647462 -1.907059 0.878517 1.171119 0.291961 -0.099906 -0.023971 -2.008334 2.953563 0.760770 0.422380 0.112465 0.034425 -0.498951 2.102365 0.080608 -0.435821 -0.534085 0.180387 -0.893795 -0.200596 1.176991 1.291528 -0.866206 -0.520139 -0.439627 -0.871810 -1.000883 -0.120811 0.899446 2.408935 0.960449 -0.329636 -0.752155 1.120826 -0.081219 -0.707689 0.119536 -1.426849 0.884501 -1.251750 2.010592 
cp 1.428727 -0.073407 1.887245 -1.019776 0.848219 -0.486104 -0.069163 -1.252823 3.536399 -1.274956 0.677405 -0.648787 -1.371237 0.764883 -0.504845 -0.606996 -0.339756 0.509536 -0.636552 2.207431 0.313570 -0.241264 -0.140592 -0.887898 -0.979741 3.199803 0.498680 -2.194358 1.497479 -1.558112 -1.404352 -0.627950 -0.580236 0.423586 1.303875 -0.036787 0.665560 -0.350579 1.058386 0.440847 -1.187219 0.464945 0.599205 -0.491869 -0.175364 -1.500240 -0.049641 -1.507682 0.524971 0.244162 
lpr -0.637742 -0.039191 -1.398643 1.167123 -0.929596 -0.266948 1.023618 -0.665327 0.567661 -0.241202 -0.391162 0.289530 -0.459313 0.976422 1.025855 0.011614 1.165533 -0.590254 -0.189278 1.327551 -0.117819 0.037008 0.255057 -0.573672 -0.235202 0.568699 2.280786 -1.541853 0.284309 -0.521092 0.701076 1.332542 -0.388995 0.740089 0.616210 -0.552919 -1.584056 0.004885 -0.242659 -1.506705 0.697528 0.816050 0.466626 0.679308 0.184709 1.093843 -0.684072 -0.625649 1.864274 -0.867141 
make 1.906585 -1.851150 1.657851 -0.751676 1.486284 1.020142 -1.296560 -1.144379 1.158804 0.966105 -1.703732 -3.344119 0.545333 -0.782313 -0.582295 0.017542 0.964655 -1.477225 -2.499065 0.699133 0.407922 0.781837 -0.675470 -0.408087 0.781935 1.534016 0.264414 -0.368354 -0.472308 1.862947 0.179688 0.958284 -1.925161 0.795540 1.288414 0.997572 -0.685506 -0.346870 0.649573 1.455967 -0.810106 -1.667347 -0.766034 -0.839484 -0.547592 -0.186767 1.653865 -0.083047 0.329187 -0.636008 
readnews 1.309062 -1.216243 -0.727067 -0.477603 0.843604 -1.910166 -2.010166 -1.085544 -0.420525 1.771748 0.808229 -1.359592 0.075543 -1.292243 0.046672 -0.264172 0.158160 0.587456 0.307261 -0.409346 0.858244 0.189625 0.418345 -0.374004 0.678146 1.282696 -0.124057 -0.124552 -1.769449 -0.250415 0.504907 -0.725023 -0.711725 0.971262 -0.558427 -0.563041 0.938030 -1.736848 0.595022 -0.240295 0.207459 -0.832007 -0.656872 0.276541 1.205999 -1.627703 -1.285054 -0.335656 -0.743320 0.170891 
pwd 0.509228 1.470064 0.651360 -1.937922 0.299042 -1.146130 1.014975 0.797328 -0.417844 -0.508351 0.249655 0.703974 1.581865 -0.363371 -0.383005 -0.682163 -0.662924 0.250197 0.570510 -0.391004 0.723338 1.061285 -0.295987 -0.721001 0.793757 -1.147028 -0.760287 0.525113 0.225299 0.259614 -0.454830 1.648673 0.669948 -0.288418 -0.532032 0.808201 -1.291990 0.107778 1.618913 -0.078291 0.573774 -0.334169 0.524155 0.614786 0.584363 0.524243 -0.418391 0.164510 0.522368 -1.620590 
jobs -0.907756 0.379340 -0.551212 0.301598 -0.090146 0.974512 1.060045 1.158864 -0.310223 -0.292375 0.241265 -0.120551 1.483914 -1.149748 -0.133548 -1.850453 0.723529 -1.497708 0.191517 -0.837577 0.392772 0.724794 1.496457 -0.344338 0.478473 -1.076363 2.496483 0.795217 0.746985 0.835053 -1.564492 0.592919 -0.212635 0.977200 -0.212287 0.245713 0.515338 -1.420503 -1.310587 -1.334807 0.778610 -1.684887 0.718131 2.272557 0.473497 0.918034 -0.057360 -0.055237 -2.356882 -1.263260 
ean -0.004135 1.389213 1.100273 -0.719659 0.537365 0.595112 -1.680755 -1.348616 -0.348701 0.954046 0.147647 -1.820017 -0.702170 -2.285531 0.345954 1.059538 0.164066 1.888793 0.391867 -1.771995 -0.095706 -1.468576 0.493669 0.761023 0.519215 0.151702 -0.386317 -1.262912 -0.457547 0.162592 -1.537302 2.982252 -0.430434 0.546357 -1.253308 -1.945150 -1.792405 2.361068 0.509809 -0.138847 0.094954 2.023328 1.514191 0.877507 1.404799 2.675992 0.055002 -0.122562 -1.078295 -1.338410 
grep 0.553522 2.924647 3.723409 0.876599 1.578124 1.127594 -2.564005 -0.722126 -0.487586 -2.025967 -2.956736 -1.033146 2.369146 -1.844238 0.893539 0.664258 0.900178 0.310436 -0.752580 -0.327070 -0.035798 -2.144382 0.639021 1.681182 0.505183 -0.609461 -0.221350 0.850709 -1.345337 0.693388 -0.616478 -0.074882 1.174632 0.184472 0.408734 0.411296 -0.496186 -0.049574 2.087551 -0.348497 0.043504 -1.526737 -1.583950 0.328559 0.100975 -0.894769 -0.205457 0.155724 1.023438 0.715288 
bg 2.100002 2.040813 -0.446265 0.469545 0.610221 -0.345621 -0.973020 -0.383068 -0.723717 -0.646763 -2.159469 -1.518078 0.515625 1.355750 -1.024716 -1.642720 0.625448 -1.033117 0.052244 0.088537 1.717496 0.311868 1.146957 -0.668456 -0.767112 -1.502208 1.131861 -2.002252 -1.796199 0.499331 -0.993021 1.835792 -1.886250 0.374082 0.217013 2.988958 0.260187 -0.170985 -0.222650 0.688932 0.943969 -0.343130 1.958646 -1.230136 1.109985 1.776025 1.237510 0.217184 0.263348 0.317329 
cc 0.840701 0.944472 -1.029071 0.561569 0.918016 1.768131 -2.133876 0.144062 0.302422 0.708129 2.337231 -0.990103 -1.958719 2.019004 0.081722 -0.284890 0.370387 1.673707 -0.600903 -1.773028 -1.780242 -1.711441 0.615589 0.339849 1.445355 0.138658 0.753615 0.974849 -0.476422 0.062640 -1.785449 1.366164 -1.837736 -1.141638 -2.614842 0.604891 0.878130 0.861304 1.348367 1.134741 1.036288 -1.926688 -0.349207 -1.387335 0.233179 -0.565605 1.484810 0.155225 0.173955 -2.086141 
ruptime 0.642974 -0.997294 1.287359 -0.800209 -0.059583 -3.648995 -0.591483 0.387203 1.117097 2.087039 -0.319417 -0.535276 -0.080394 -0.748580 -2.249705 -1.395084 0.781431 1.673718 -0.218445 -0.356978 2.796304 1.029101 2.255926 -0.083093 -0.022533 -0.319423 -1.146882 -1.714438 -0.995230 0.556199 0.848148 0.151511 0.737276 -0.733032 0.254762 0.790794 0.293537 -0.222741 0.015307 -1.179536 1.474843 0.457345 2.680011 0.672635 -0.139284 0.647412 -2.359625 0.239324 0.135802 2.413876 
rwho 0.735329 -0.355427 0.189264 -0.028236 0.899180 -2.214815 -0.835479 1.019647 0.904653 0.451664 -0.074232 0.456650 -1.620106 -0.095818 1.170137 0.304841 -0.605578 1.060633 -0.596635 1.840191 -1.448939 -1.046068 1.319558 -1.222019 0.744535 -0.252621 -0.606307 0.951188 -0.234797 0.686963 1.303359 0.765875 -1.161796 0.400293 -1.376724 0.727253 0.599376 0.320179 1.253387 -1.275385 -0.999232 -0.495155 0.771754 -0.217461 0.308604 -1.117828 -0.190024 -1.084201 1.237980 1.115048 
tip 0.711099 0.109862 0.961521 0.705149 -0.136382 -1.314490 1.249919 -0.657563 -1.829325 2.346181 -0.168564 2.513305 0.205105 0.333588 1.156932 0.872623 2.025146 0.844709 -2.174113 -0.795094 -0.271565 -1.960906 1.705035 -0.191669 -0.663619 -1.169254 -0.599769 1.075222 -0.139998 -1.679789 -0.408785 -0.360247 1.794448 0.237281 0.895953 0.242540 0.614735 0.816549 0.179673 0.225406 -1.752357 -1.700751 0.161774 1.020323 2.071450 -0.494250 0.194705 0.817406 -0.185139 2.388234 
kill -0.675062 0.925933 -0.374714 0.565829 -1.268341 0.176913 2.208081 1.286044 0.887706 1.368043 -0.175191 -0.432003 0.570666 -0.165690 1.822798 -0.611070 0.152439 1.328442 -1.177256 -0.261478 0.030494 1.053766 1.149939 -0.461020 -0.741053 -1.306719 -0.385374 -2.406020 -0.864667 -0.412601 -2.562983 -1.145560 -1.105514 1.259510 1.039496 0.644516 2.001092 -1.454002 0.763613 -0.137379 2.807718 0.905593 -0.318182 0.822875 1.405475 0.463990 -0.277941 0.989571 -0.831254 1.090723 
average -0.096725 -2.333465 2.463971 0.780467 -0.367637 0.751276 1.279554 -1.357892 -0.659867 -0.150512 0.687562 0.330007 0.464800 0.117756 -1.573757 -2.838591 4.722221 -0.203777 -0.103122 0.841212 0.889026 -1.306941 1.875744 -1.696008 1.943151 0.149177 1.632320 -0.020066 1.841119 0.704621 -0.530944 0.155439 -0.268233 0.247798 1.311917 1.530485 -0.908000 -0.307978 1.879780 0.144026 -0.444942 0.361332 1.012950 1.099231 0.965342 -1.763358 2.019240 -2.929075 -0.448262 0.030846 
set -0.358246 0.569049 0.719800 -0.023521 0.610810 -0.700216 2.057186 1.084822 -0.678097 -1.158611 1.397337 -0.050290 -0.979588 -0.753754 -1.258264 -1.297119 -0.119846 -0.217328 1.505174 -0.622308 -0.835976 1.430037 -1.024137 0.312213 0.507192 -0.871575 0.267549 -1.835044 -1.450492 -0.301397 -0.462308 -0.950826 1.612507 -1.458300 -0.240817 0.652251 0.163536 0.008781 0.379856 -0.118874 -0.272220 -0.579056 -0.926704 0.324575 0.564794 2.735555 -1.059034 -0.034949 -1.579284 -1.766415 
roff 1.709455 -0.916067 -1.082412 -0.945280 -3.551478 0.854484 2.966895 -0.594331 0.725799 -2.113843 1.094023 2.026854 -0.433372 -0.576741 1.643242 -0.200850 1.495680 2.793050 -2.125128 0.687766 -0.816891 1.364577 3.368054 0.324863 2.319600 -1.200676 -0.598387 0.824956 -1.760979 -2.322325 1.718356 0.519692 -0.164129 1.009868 1.484810 -2.769654 -0.733988 1.445271 0.930631 -0.280516 0.294707 -1.347673 1.158841 0.184850 0.953373 0.664025 0.138477 -0.360847 0.307275 -0.247294 
clear 0.344922 1.846638 0.621449 0.212709 -1.753442 -2.170226 0.732698 2.072335 -0.712943 0.446198 1.098658 -0.897193 0.351129 0.612808 -2.051275 0.573345 0.554793 1.487339 -3.276792 0.392004 1.758530 -0.322220 -0.689457 -1.054175 -0.255374 -0.867969 -1.017890 -0.000966 -1.159819 -0.032823 -0.520641 -1.638133 0.254257 -1.286629 1.040735 0.787462 -0.564339 0.211724 0.462953 0.812225 0.318521 -0.666124 1.484818 -0.970576 -2.528199 0.597039 -1.744504 0.626296 0.203799 -0.550765 
a.out -1.831103 0.383080 -2.240908 1.084224 -0.596543 0.308010 -0.136977 0.788757 0.657248 -0.057044 -1.943983 -2.502122 -2.960844 0.999816 -0.888981 1.086051 2.860367 0.953646 0.689121 -0.876995 0.394457 -2.320899 2.173534 -0.726268 1.482857 1.079808 1.370283 0.948190 -0.138268 -0.625489 -2.795470 -0.150057 -1.556378 -0.088637 0.478962 0.542537 -0.623509 1.573731 1.998780 0.186093 3.363197 0.631357 0.189873 -0.390765 -1.315311 -1.744775 -0.411429 1.224996 -2.079220 -0.187311 
du 0.607363 -0.437846 -1.012035 -1.978561 1.171689 -1.719635 1.167793 -0.171353 -2.606807 0.910786 0.495084 -1.585261 -3.393255 0.225250 -0.329825 0.397004 0.889933 -0.935539 -0.500853 -1.587950 2.491067 -1.190581 0.006524 0.455594 0.226594 -0.271112 0.324257 -0.254758 1.584255 0.178052 1.823382 -1.181674 1.404207 0.254355 -0.908699 -0.164689 1.053356 0.948473 1.075183 0.557424 1.254587 0.489950 -1.760659 -2.065976 1.435994 0.470820 1.922360 -0.129990 3.130634 0.965938 
vnews -1.350756 -0.390633 -0.332804 2.423190 1.428388 -0.397234 -1.414350 0.840373 -0.981857 2.144921 1.583269 -0.098599 -2.160782 0.409115 1.729191 3.498132 0.589858 -0.725144 0.549908 1.587269 -0.121975 -1.250878 -2.645454 -3.009880 -0.230305 4.017760 0.277305 -3.770207 -0.728343 0.386898 -0.286265 1.522964 0.093948 1.504601 -0.363285 1.108462 1.632559 0.127867 0.140964 -1.955980 0.373543 -1.195972 -0.980973 -0.291884 -1.245331 0.489281 0.086858 -0.198637 -0.701382 0.738916 
setenv -1.962926 -1.983276 1.168176 0.195691 2.525086 1.036988 -0.462550 -0.422957 -0.834944 -0.093133 3.430283 2.417627 -1.622312 -2.016693 1.915251 -0.916056 1.534358 0.375284 -0.829980 1.608956 -2.272882 -1.140003 -1.211063 -0.494051 2.164233 2.081854 0.382760 -0.813138 -0.626167 -0.697484 -0.605515 -1.288735 -0.033684 -0.976581 0.144106 0.803531 -0.654951 -0.575937 1.849633 0.494851 0.828468 -1.346950 0.727911 1.390134 -2.560102 0.692934 -0.089063 -1.139008 0.147230 2.309331 
ftp 1.736770 1.726015 0.180088 -0.071765 1.607870 -0.549725 -1.085857 0.827919 -0.485397 0.664130 0.676223 -0.088919 -0.325254 0.184221 0.866222 -1.984438 -0.017796 -0.431093 2.355715 -1.040058 0.907988 0.428075 -0.726964 1.407704 0.708686 0.253764 -1.374593 1.716289 -0.044374 1.998921 -0.309750 -0.853668 1.821667 -0.527007 -0.241720 1.391950 -0.217525 1.532705 0.193120 -1.259132 0.225708 0.260749 -0.291653 -0.974781 -0.428572 -1.879544 -1.628759 0.143960 -0.971383 2.041623 
date 0.233688 0.436447 -0.073407 0.628561 0.143668 -3.002305 1.386288 -0.585599 -2.496974 0.218138 0.197671 1.953082 0.477304 -0.297060 0.435571 -0.257866 1.147503 -0.597577 -1.210229 -1.027921 0.560070 0.324472 0.457457 -0.507955 -1.827051 -1.457355 0.090803 0.183361 -1.415678 -0.704957 2.363852 1.896564 0.458574 -0.306035 0.532258 1.266907 -0.101399 0.380761 -0.664921 0.269924 0.907676 0.495683 -0.064035 -1.269811 1.314411 0.414161 -1.593143 -0.971651 0.017848 -0.176544 
wc -1.612401 0.171545 -0.428410 1.428437 2.778574 -1.261953 1.006707 0.415073 1.456948 -0.092857 -0.001710 2.363457 -0.489826 0.966579 1.442494 -0.796327 1.986961 1.007012 -1.666561 -0.471019 -0.845818 2.236704 1.853718 2.146232 -2.237602 0.974716 1.919898 -2.062633 -0.217256 2.498065 -0.768219 1.240771 -1.151537 -0.385923 1.695596 -0.695338 -0.720330 -1.259219 -0.461410 0.613676 -0.855024 0.700057 0.944036 -1.899862 0.558642 0.306612 -0.579687 -0.041904 -0.791518 -1.190740 
life -1.373436 -0.197084 0.362051 0.691428 1.299160 -0.049033 0.130886 -0.544169 -0.558580 0.037426 0.617274 -0.029016 -0.190697 -1.184492 -0.108425 0.610008 -0.314938 0.639184 0.919841 0.249786 -0.945890 1.483963 0.180751 -1.487765 -1.207203 -0.693834 0.854374 1.108098 1.444971 0.139179 0.606827 0.369146 -0.623091 0.128470 0.404680 0.304919 0.838820 -0.348008 2.036779 -0.686328 0.243029 -0.211546 -0.286737 -0.680240 1.560719 -3.078760 -0.514393 -0.203470 1.375000 -0.144789 
tail -0.631652 1.212578 -0.371821 -2.118357 -0.192659 -0.855816 1.059682 0.264766 -0.308973 1.473727 -0.118317 0.324930 0.251130 -2.257536 1.415366 -0.987296 -0.465021 1.337191 0.293114 1.002164 -0.414663 -1.043174 0.471160 -0.754917 -2.304024 -0.134612 1.550926 1.411406 0.197753 0.376191 0.964365 -0.685152 0.862527 -0.543897 -1.953821 2.538704 -0.326457 0.480973 0.050257 1.040817 -0.597316 -0.365888 1.804703 -1.803279 0.065899 0.539657 -1.187133 -0.743631 2.688740 -1.158893 
\ìs -0.601245 -1.364660 -0.512181 0.164745 0.027599 2.347732 0.284979 -1.118907 0.139999 -0.074621 1.097465 -0.531036 0.059597 -1.615012 0.060398 0.989087 1.560300 0.683854 1.062315 -0.312808 -0.639443 -0.569525 -1.010045 -1.373916 0.074252 -1.315990 -0.452621 1.163973 2.790143 1.126486 0.700436 0.064389 -0.011436 0.049483 1.141052 -2.626833 1.206319 0.019991 0.322208 0.638325 -1.885405 0.178729 0.474592 0.186212 1.487796 1.167223 -0.206032 0.371857 1.960336 0.903823 
mkdir 0.891990 -0.189507 0.022132 2.231146 0.000431 -0.846976 2.249706 0.807956 -0.189735 1.112317 0.802594 -0.791283 -1.099023 0.888905 0.218184 -0.647942 -0.571540 -0.564830 -0.846051 -0.595372 0.051563 0.704637 -0.526793 -2.019705 -0.287090 1.084055 -0.038236 1.752551 -0.795611 0.553059 1.072031 -1.534111 0.376560 0.299700 -0.657090 -2.470480 0.982547 1.476426 -0.834817 -0.233222 -1.470364 -0.965662 1.250090 -0.950770 0.666462 1.002354 -0.762516 -2.581775 0.563950 -1.388127 
pix 1.132432 -0.823864 -0.420850 2.538147 -0.606849 -0.779898 -1.106717 1.482191 -1.018738 -0.876245 0.388934 2.219350 -1.663595 -0.887278 1.749828 0.692969 2.313583 -0.202406 0.383846 0.944883 0.905942 0.118478 -1.793923 -0.754379 0.905355 0.325994 -2.006621 0.846747 2.775245 -1.159401 -0.183202 1.814130 0.696639 0.363096 0.651586 -1.260162 0.913215 1.803689 0.686636 -0.018783 -0.117992 -2.283322 0.370731 -0.192471 -1.584850 0.407853 -0.671960 -2.172243 -0.464709 0.886612 
pushd 0.269737 1.496228 1.069045 -1.543581 1.710756 0.760731 -0.408212 -1.882125 1.664561 0.212969 0.875131 -1.957470 -0.556389 1.925393 -0.161464 1.210782 0.857514 0.195274 0.718789 -4.082582 -0.101384 1.084286 -0.931365 0.113723 -0.071029 1.168038 1.821936 0.888564 3.078231 0.777497 -0.081706 0.851979 1.664224 -1.403679 0.022353 0.556994 -0.028353 -1.131626 -1.121165 0.398656 -1.293089 -1.994707 1.352452 -1.193196 0.232075 1.022959 -0.313658 0.610696 -0.124251 -0.756906 
/usr/local/bin/emacs -0.018813 0.406654 -0.461195 1.997368 -0.745435 0.388421 0.415434 1.153309 2.168018 -0.612474 1.316654 -1.375676 0.277412 -0.729376 -0.114361 -0.976418 1.993428 0.698213 1.326524 1.397068 -0.390742 -0.027616 1.085759 -0.679534 1.504325 0.514653 -2.300178 0.223231 1.716181 -2.261170 1.074247 -1.024149 -0.962430 -1.622386 -1.043432 0.097750 1.530176 1.906380 1.635542 0.249378 2.389217 0.606092 -0.038432 0.672738 0.301364 1.511481 -1.501593 1.079427 1.308698 -0.593539 
spell 0.645983 -0.705561 -0.753710 -0.357332 -1.998509 -0.169247 -0.039603 -1.868397 -0.621269 -0.077321 -0.346759 1.739490 -0.802412 0.815802 1.621453 -1.282817 0.441715 0.918604 -0.193319 -1.290051 2.229195 -0.872790 -1.578972 0.155851 -1.285169 1.941795 -0.063369 1.423223 0.423695 1.760693 -0.869510 4.324960 1.291179 -1.395872 -0.917651 -0.840370 -1.389945 -0.479866 1.649160 -0.544369 0.366948 -2.374566 2.363629 -1.898797 1.045866 -2.582862 1.994283 -1.277127 1.926552 1.324506 
dbx 0.597503 -2.103775 -0.482036 -1.279323 3.266374 2.483543 0.134916 -2.479670 1.469829 3.949795 -3.027298 -0.904974 -3.491514 -0.222232 -0.195788 -0.104620 2.232414 -1.833136 -1.814025 2.092222 -1.860295 -0.308503 -2.037278 -2.568366 -0.323791 -0.041188 0.428366 1.388591 -2.085559 -0.367381 -0.523685 0.200756 -0.207980 -2.164039 -1.350033 1.830700 2.850566 1.536550 0.113713 0.922519 1.974718 -2.391171 -0.481059 -0.549248 -0.187324 -1.136561 -2.119751 1.549209 -1.658877 -1.928351 
w -0.149402 0.521662 -2.252039 0.747886 0.496723 -0.101595 -0.526403 -1.008693 -0.062838 -0.602290 0.756179 0.340185 0.278592 -2.424436 0.426856 -0.301973 0.209417 -1.944506 0.347539 -0.521418 1.459418 -0.373918 0.493725 0.589100 -0.751075 -2.796636 0.216244 -0.072816 0.231903 -0.734970 -0.416990 -1.226448 0.531506 -0.483216 -0.261897 0.063831 0.124638 0.032010 -0.228264 0.422217 -0.587017 0.592259 -0.394970 0.212450 -1.067098 0.821960 -0.458129 0.410491 0.722812 -0.382188 
dpic 2.795330 -1.571267 -1.716008 0.231783 1.088765 0.398269 -4.218493 -3.347621 -2.422844 -4.434093 -1.496910 0.560003 0.419921 1.106335 -1.954022 -0.794050 1.583315 1.512686 -2.739558 1.628423 -1.170291 -0.248356 0.302923 -2.499098 2.301000 -0.269701 -0.068678 0.708326 -2.866766 -0.347583 3.003583 1.192722 -1.810033 -1.733059 -3.407709 -1.077339 0.278677 0.405326 0.743520 -0.567947 -0.021244 1.231931 -1.623708 -0.105317 -0.457820 -0.716173 3.410271 0.854573 0.508816 1.221124 
quota -0.043719 2.049568 0.535712 1.095836 3.042732 0.188804 -0.667166 -0.391936 0.482875 -1.470516 1.113692 -0.949912 -0.801691 0.391264 -0.848636 -1.163705 -0.177065 -0.781661 -0.565056 -1.782577 1.033981 0.420525 -1.811020 -0.294068 -1.717047 -1.746642 -0.491122 -0.202308 -0.854245 0.081951 2.693337 -0.375137 1.547164 2.462907 -0.982291 0.398472 0.663045 1.033276 1.349141 -0.450583 0.599313 -1.834572 0.512434 1.011447 -0.595147 -0.955364 0.503217 -0.740523 1.369903 0.054322 
alias -0.074144 -1.506298 0.696824 1.093408 1.255680 1.242319 1.405994 0.672931 0.425474 3.180098 1.224114 0.116294 -4.772156 -1.329215 -1.906072 -1.170399 1.154275 0.332397 -0.174931 -1.082211 1.270909 0.077759 0.961948 -0.149802 0.122617 0.772367 0.072811 -0.017499 -0.972181 -0.083041 0.103255 0.373731 1.172267 0.750070 0.639481 1.156406 -0.109917 0.530898 -2.467885 -0.381307 0.165433 -1.401062 0.778977 1.003272 -1.751705 0.249201 0.976155 1.143773 0.384270 1.181943 
ar 3.757454 -0.295747 0.249494 -2.139360 1.963422 2.174463 0.108977 0.159750 -0.918151 0.214850 -2.222857 -0.012604 2.256137 0.364309 1.917469 -0.318425 2.358412 0.601178 -0.414967 0.078696 1.275255 -0.327506 -1.771724 1.852457 -1.400231 0.150888 0.010955 1.505872 0.232019 -2.208013 -0.883084 -1.557493 1.495542 1.643755 -0.360684 -1.653376 0.742379 2.861773 1.398293 2.434293 1.651542 1.236659 -0.489651 2.900280 1.939582 1.292381 0.257084 -0.576466 -1.311516 2.737263 
chmod -1.616704 2.360168 -0.028768 0.284403 1.569504 -0.435485 2.404158 -0.122182 -0.246319 -1.741730 -0.132954 -1.886012 -3.248985 -0.401325 -2.564080 -0.498967 -2.532251 1.806963 2.318091 -0.782114 -0.170549 1.757523 -0.928856 1.486311 2.339877 2.297393 -0.415228 0.926340 -0.732401 -0.670603 -1.925919 0.097493 -0.752000 -1.004504 -0.443776 0.777585 -0.485803 0.340583 1.937414 1.494114 -1.638856 -2.515375 1.102625 -0.213391 -0.821084 -0.304615 -1.765985 1.139016 2.155022 -0.148028 
/bin/rm 0.503566 -0.121276 1.054600 -0.859175 3.157114 0.151933 1.937337 -0.531720 -0.955362 2.147660 0.532173 -1.747895 -0.890786 1.992632 -0.194531 -1.228350 -0.416473 -1.657923 0.291712 -1.011451 2.186162 -2.110430 -1.379259 -0.255442 -0.454714 1.063769 2.447204 0.852550 1.469424 -0.385739 0.549093 -1.207094 -0.149883 -0.909026 -1.278019 0.178074 4.268737 1.653664 0.855949 1.621514 0.151377 -0.144033 -1.466077 1.353166 -0.157216 1.722371 0.456450 -0.461266 -0.189441 1.190076 
history 1.723773 -2.464946 0.200469 1.851281 -0.286164 -1.778835 -0.912215 -0.762832 0.539979 -1.109901 1.214346 1.633943 -0.106669 0.201598 0.682644 -1.972801 0.320987 -0.011491 -0.186940 -0.746982 0.623306 0.968228 2.566333 0.647719 -2.469392 -0.278280 -0.551093 -0.062547 -1.842573 -1.145831 -0.854753 0.198571 0.147509 0.679425 1.682158 0.519059 1.733753 0.269887 1.334305 -0.062732 -1.583336 -0.647706 -1.934322 -0.345301 -0.031898 -0.330373 1.102730 -1.444224 1.498002 -0.996125 
su -0.961070 1.320830 -0.961515 0.076918 -0.126002 -0.123144 0.534604 -1.044601 0.120626 0.135144 -0.634282 -0.541945 -0.392244 -1.673451 -0.239115 -0.291512 -0.931027 -1.934029 -1.319259 -0.210767 1.671436 -0.448925 0.699784 -0.490911 0.040048 -1.324410 0.430621 -0.125599 0.989943 0.949792 -0.690165 -1.276220 0.930313 -1.506761 -0.777083 2.003933 -0.910388 -0.804988 -0.313775 -1.720098 -0.379908 0.209660 1.706617 0.270472 0.908690 0.235434 0.713174 -0.077062 0.717299 0.018902 
limits -1.494516 1.035545 -0.093711 0.151687 0.826452 1.023104 -1.215856 -1.371339 -2.204460 -1.673245 3.478794 0.102764 -1.863078 -0.571312 0.013940 -1.618269 1.507777 -1.388343 0.075064 -0.044969 2.811309 2.191016 -0.734723 0.785223 0.674571 1.077376 -1.058385 -0.189650 1.732621 0.314178 -0.707880 0.324361 0.201378 2.650033 -0.543007 -0.953717 -0.176572 -0.483514 -0.849977 -1.531152 1.706286 -0.008700 -0.048805 -2.342819 -0.799568 0.134620 -1.726611 -2.296502 -1.664768 1.931178 
itroff 0.157513 -0.708941 0.222129 -2.000406 -1.934766 0.004078 -0.163039 -1.660785 0.312292 -1.706838 1.236303 1.125386 -1.771240 -0.987658 -0.261321 0.674374 0.539510 -0.058732 -1.449251 0.687610 2.456728 -0.794320 1.246313 0.662159 -1.677397 0.754737 1.723553 -0.791289 -1.471927 1.089789 1.017236 0.961110 -0.199559 1.412206 1.254505 0.077725 -1.701833 2.168985 2.792014 -0.960631 -0.290283 -0.586287 -1.030935 -0.899984 -0.200153 -2.719316 -0.923648 -2.780065 1.475626 1.359885 
pr -1.862738 1.477969 0.323064 0.147102 -0.707143 -1.787903 -0.968623 -1.162465 2.293664 0.931764 -0.639130 1.343322 3.794518 0.058705 -0.909020 0.703516 1.800393 1.236019 -2.068563 0.325707 0.634722 -1.669884 0.290397 2.397713 -0.895349 2.874497 -0.881541 0.468329 -1.085632 -0.389765 -0.259627 -1.023377 -0.680816 0.011776 0.567053 -0.301944 2.638389 1.288253 0.818158 -2.439796 1.184005 -0.793889 0.412278 0.623222 1.543278 2.889383 1.921369 -2.389157 0.308145 0.878026 
pi -1.354122 1.525646 0.156956 0.288051 1.102262 1.719843 -0.186329 0.583641 -0.292377 -1.990844 0.917223 2.683049 -1.415252 1.118997 1.281529 -2.442956 1.544571 1.516494 -0.559668 -0.364222 0.631611 -1.605097 0.507159 1.666897 2.723403 -0.122504 0.141377 -0.435780 2.215529 0.127174 -2.322826 1.135449 0.109185 1.843006 -0.475038 0.529445 -0.891060 -2.928634 0.688654 -0.140873 0.311484 1.559301 -2.012627 -0.678228 3.181639 1.647533 1.471280 -1.489938 1.790454 0.110940 
exit 0.354299 -0.355492 -1.757489 1.800006 1.514215 0.591565 -1.004250 -0.429564 -2.589219 -0.369779 0.603640 1.703430 0.898138 -0.398625 0.638270 0.507581 -0.248679 -0.723675 -0.118181 0.264934 0.767387 -0.940622 -1.203227 -2.753419 0.673658 1.632295 0.654701 -1.264068 -3.316640 -0.022739 1.726320 -2.092572 -1.509721 -0.100145 -0.972485 1.089269 0.722604 0.366974 1.817269 -0.128440 -1.778317 -0.388365 0.413865 1.603173 -0.057017 -0.048576 0.344225 -0.550163 -0.683289 -0.117361 
source 2.402612 -1.529981 2.063203 0.570839 -2.267400 -0.315751 0.540329 0.266388 -0.805541 0.335662 2.687385 0.012061 -0.934547 -2.154289 0.435937 -1.390166 -1.235354 1.901292 1.365526 1.521680 0.955337 0.316526 -0.833429 1.594365 1.718920 -0.322841 -2.360845 1.775914 1.294728 -0.096764 -1.711020 -2.237282 -0.187755 1.311512 -2.053441 -0.077851 0.698665 0.736893 -0.007655 0.371327 0.350260 -1.034562 1.179920 -1.835105 -1.425399 -1.331354 -1.198490 0.743609 -2.352642 -0.201951 
lprm -1.106654 0.296330 -3.223081 -0.821144 -1.141156 2.268039 2.784921 -0.104769 0.431287 1.157852 1.124857 0.890941 1.811304 0.119359 -0.189417 -0.292515 2.874435 -1.496451 -2.328026 -0.003062 -1.283042 -0.150514 0.695891 0.196225 -0.021369 -1.581177 5.255264 0.252548 -1.409753 -1.165588 0.731730 1.838992 1.042215 0.136287 -0.686471 1.959214 -1.839946 -0.138737 0.235153 -0.213834 0.822707 0.151372 1.587930 2.020529 0.143268 1.022060 0.735493 -0.341439 2.986882 -1.360193 
s 0.832895 0.253378 0.011503 -1.008693 1.609591 0.662967 -0.144335 -1.262808 -1.330323 1.060103 -0.419084 0.584717 -0.311355 -0.323765 -0.961017 0.768105 0.562376 -0.779487 -0.348867 -0.632685 1.742495 -2.232251 -0.594294 0.405840 1.349906 -0.801888 -0.214037 -0.525132 -0.212058 0.369725 0.343073 -1.985058 0.219948 -0.438372 1.749825 -0.638774 2.925566 0.340610 3.890147 0.044553 -0.610519 -1.313871 -1.260556 0.541454 1.417486 0.997446 -0.887780 1.771198 -1.326005 -0.893923 
kermit 0.467591 1.844308 -1.579374 0.495771 -0.558521 -1.011624 0.095486 -1.134755 -3.076064 2.071771 -0.556895 2.446544 2.641430 2.051209 0.323567 1.340892 4.079907 -0.783967 1.173422 -1.885157 0.909503 -0.241745 -0.331594 -1.511046 0.817544 -1.467545 0.762707 0.439393 1.129270 0.446754 -1.653966 0.967996 0.775413 -0.673069 1.137524 -0.455775 -1.740104 2.289385 -0.404441 -2.172344 -2.558409 -2.540193 0.703088 1.841306 -0.790454 -1.723139 0.196202 -0.873735 -0.152279 2.447071 
/usr/ucb/mail 2.356436 0.156036 -0.623112 -1.631603 -2.883006 -1.025534 0.093692 -1.049963 1.080645 0.670144 0.415535 -1.255947 0.053418 0.022220 -0.097648 0.579859 1.004550 0.871614 -0.683763 0.414102 -0.291745 -0.760473 1.691542 2.332455 0.419881 0.681949 -0.179810 -0.285806 1.551150 -0.906226 -1.324132 -0.900971 -3.986881 0.863273 1.242174 0.247977 -1.065414 0.472090 -0.146573 -0.290580 1.504920 -0.668983 -0.040068 0.859828 1.114011 -0.525333 -1.710890 -1.166691 -0.247670 -0.250123 
sim 1.533288 1.724327 0.917687 1.445863 -2.945928 0.871600 0.573686 -3.156436 -0.163043 -0.410896 -0.001927 0.155202 -0.516573 -0.030765 0.824042 -1.174626 2.034654 0.753978 0.803570 -0.337232 0.712099 0.591125 -0.283333 0.002640 0.318454 -0.256219 1.344388 -0.869556 0.376567 0.192082 0.124472 0.713722 -0.685066 -1.473312 -0.859665 2.020590 2.969447 -2.535439 -1.088796 -0.542884 0.805830 2.550762 -0.301601 -0.937938 -0.828992 -0.307809 -1.189695 -2.756925 -1.805356 -0.346223 
obj -0.529717 2.545002 -0.255874 -0.820165 0.547867 0.758305 -3.298212 -1.426799 -1.275808 -1.617046 1.092287 1.310024 -1.880780 0.232222 1.421182 -2.303524 0.398537 -0.652131 -1.079996 -0.187900 1.940292 0.659148 1.797286 0.661459 3.212095 -1.805995 -0.108735 1.225875 0.647543 1.044067 -2.700672 0.543444 0.348858 0.617965 0.634129 -1.083475 -0.633138 0.075937 -0.352627 -0.888972 -0.579477 1.522418 -2.008389 -1.263085 2.012693 1.882157 -0.381650 0.235274 -1.089549 1.452317 
hol 0.341513 0.099260 -0.397245 -0.885771 -1.082097 0.675046 0.490490 -0.777647 0.379367 -0.064787 2.091918 1.167815 1.338107 -0.031826 0.819598 -0.074849 0.492175 1.723975 -0.425459 0.189496 -0.731917 1.454028 0.863175 0.665045 1.020588 0.665225 -0.184692 -0.553587 0.826999 -0.345782 1.290620 0.188626 -1.376190 0.708863 0.605284 -0.107928 -0.469274 0.869810 -0.152759 -1.703303 -1.202497 0.834840 1.258502 -0.884126 1.069602 0.050690 -0.372774 -1.066432 -0.549511 0.264055 
yes -1.605136 1.696454 -1.303950 -0.523364 2.068030 -0.863440 0.884984 -2.312129 -1.943825 1.245743 1.624804 -1.561983 -1.360460 -1.285326 -0.859782 -0.142402 1.545283 -1.007024 0.511950 0.026291 1.582213 2.365832 0.088715 0.140165 0.558434 -1.339738 0.459555 -0.251047 0.411248 -0.449481 0.814099 0.536803 -2.285740 0.543486 1.525997 0.341360 1.071007 0.013405 -2.802490 0.416890 -0.329714 -0.663896 -2.411705 0.468134 0.170095 0.014807 -1.517162 -0.139704 0.908351 -0.034672 
pc 0.628994 2.058841 2.265713 -0.898869 -1.525158 3.567289 4.213357 -0.669718 -0.737163 -2.824711 1.618838 -1.410005 -4.140553 3.850938 1.697523 -1.251612 1.578201 -1.449021 0.523699 -1.429007 -0.385891 3.547188 -0.193341 -2.312241 2.125863 1.052245 2.868358 0.424108 1.008496 -0.111924 0.258288 -2.185640 -2.492605 0.382964 -1.341815 -0.913049 -2.120166 0.990839 2.830097 -2.004285 0.052625 -4.162977 -0.025668 1.267215 -0.571814 -2.190946 -3.584559 3.471217 3.998610 -2.120729 
ptroff 0.891396 -0.771236 -0.526317 -0.586199 -0.948844 -0.038194 0.329324 0.453148 -2.624974 0.937853 0.263341 0.322148 -0.844719 -1.396209 1.509134 -0.163250 2.724824 1.757834 1.104682 3.809697 1.871970 -0.450570 -0.205396 -0.829033 0.732296 0.612642 1.466197 0.944264 -0.742073 -1.622505 -0.155176 1.205427 -0.062691 1.648741 1.655256 -1.222463 -0.979284 0.574116 -0.606319 0.512078 0.920641 -0.609589 -0.352956 -0.721169 1.048607 -0.684563 1.506138 0.766810 0.063656 -0.556839 
rmdir 1.726853 -1.135618 -1.591668 1.421701 1.210787 0.979465 0.620954 -1.435620 0.686871 1.026002 1.131760 -3.797350 -0.995668 -1.649635 0.547520 -0.425093 -1.991354 -0.328544 -1.183725 -0.522744 2.939821 0.717923 0.559844 -0.773235 -0.890287 0.914088 -1.576742 1.179825 0.885333 -1.922507 3.631610 -1.492382 0.308244 3.727535 -0.034954 -2.823221 -0.655666 0.875894 0.684485 2.795805 0.936199 0.428765 -0.875957 -0.573535 -1.298259 1.596226 1.411750 -0.599151 2.694656 0.962545 
e 1.406677 1.950567 1.137030 1.209465 1.534624 0.331720 1.140387 -2.755177 -0.559987 1.410553 1.577617 0.991890 -0.186433 0.358702 -1.195748 0.011629 1.199108 1.256317 3.021999 -1.306216 -0.914472 -0.065189 0.276281 0.111078 2.624238 -0.132060 2.377808 0.316257 -0.503025 -1.642534 -1.092071 1.809005 -0.487128 2.024531 -1.381646 -0.208422 -1.136736 2.468228 -1.881974 -0.328893 1.858480 -1.178440 0.847358 -1.475998 1.256379 0.879190 0.073287 2.958845 -2.338539 0.381515 
~grant/bin/pdpas -0.396698 0.215170 -1.045780 -0.902366 0.484443 1.413625 0.750356 0.164981 0.204538 -0.778685 0.868288 -1.031926 0.621954 -2.285878 0.656000 0.213720 1.625898 1.076622 -0.430967 -0.505769 0.065036 -1.355440 -0.775320 -0.417334 -0.009229 0.832829 0.478967 -1.162135 -1.191648 -0.591613 -0.361098 -0.087297 -0.003670 0.879797 0.159856 1.576779 0.200769 0.277621 1.246679 -1.518556 -1.220276 1.903759 -1.141407 -0.512219 -1.597381 0.006215 -1.713586 -1.094034 1.476764 1.012630 
nroff -0.284435 -0.134808 -2.517953 -0.731888 -2.604536 -3.097177 -3.987077 1.055184 -0.127330 -1.885760 0.965189 -0.241699 -0.250549 -2.721510 1.127365 -1.775363 2.124632 1.462991 -2.405394 0.146475 0.836542 -0.734231 -0.568691 1.656979 0.017870 1.724750 -0.347688 0.462943 0.905479 2.251767 0.453639 1.697542 -2.402330 0.590697 -2.707586 2.565520 -0.998720 1.163785 -0.282703 -1.602170 -0.865646 2.813080 1.590886 2.185469 0.077900 1.999128 0.332541 4.692829 1.582551 0.745015 
enscript 0.320124 0.521644 1.027339 -2.407756 -0.961750 -0.854392 2.083172 -0.675659 1.622832 0.266455 -0.288846 -0.099997 0.174145 -2.259229 0.079516 -0.118750 0.100288 0.195288 0.439926 -0.751549 -1.088159 2.111621 2.014097 -2.207370 0.939061 1.355796 1.560247 0.145240 -1.739202 0.956136 0.273378 0.093983 0.475513 2.106762 -0.798282 -1.935460 -2.203166 0.174601 -0.851517 -1.092816 0.954813 -2.059915 1.536178 -1.462165 -0.797036 1.639435 0.658812 2.996859 0.074938 -0.740797 
popd -0.495566 -0.781419 3.160097 -0.076775 1.685310 1.710155 0.687044 -1.754245 -0.847192 -0.164789 -0.251904 -0.487696 0.108610 -2.813528 -1.435961 -2.962861 1.168220 -0.724472 1.622023 -2.074448 -0.397139 2.738053 -2.584744 -1.212286 -1.030485 1.159365 1.754336 -0.530528 -1.043564 -0.243498 0.705456 -0.339262 0.944871 -1.115899 1.630511 -2.471906 3.441012 -0.488570 -0.078704 -0.622626 1.132181 -1.330241 1.020697 0.714382 -0.073322 -1.193700 -1.584610 0.734868 3.028970 -0.541223 
shell -0.401663 0.281543 0.390542 0.772072 0.380243 0.078720 1.005965 1.003287 0.742080 0.319571 0.159999 -1.068407 -0.614631 0.259304 0.093575 0.564153 0.348705 2.442005 0.378329 -1.221137 0.263372 -0.485092 0.015841 1.036987 -0.598665 2.465813 0.329830 0.194119 -0.490841 -1.559076 -0.408459 -0.147415 -0.635425 -1.916663 1.851075 1.455561 1.228268 0.600859 0.855911 -0.647123 0.215105 -1.078221 0.237461 -0.340355 0.323518 0.366815 0.030119 -0.194555 -0.152310 -0.478903 
echo 1.889760 0.243635 -0.424833 0.980936 -0.470738 0.455343 0.242825 0.262945 0.041213 0.924629 -0.783397 0.453487 -0.893566 0.514240 -0.684189 -0.309421 3.261396 -0.587339 -1.790336 -2.807224 -2.218242 0.946448 -1.346800 -0.808464 -0.096508 -2.120920 -1.500847 0.718882 -0.390323 0.202536 -1.975103 -0.855909 1.235887 -0.078856 0.005570 -0.811712 -2.270876 -1.909715 0.599276 -0.526015 1.699378 -3.585741 0.945625 1.225799 -2.118116 1.485008 1.272023 -0.659429 -1.997499 -0.864195 
ac -0.127827 0.015061 -1.691477 2.985332 0.422090 -0.220789 -1.851878 1.514874 -1.414247 1.087159 -2.101952 1.580060 0.833297 -2.115005 1.148405 0.419224 1.951815 1.411604 0.489842 -0.461071 0.379400 -0.592912 0.924069 -0.269799 1.076661 0.738575 -1.510190 0.517576 0.450803 0.603811 0.102703 0.805532 -0.525960 0.294426 0.576509 -1.072513 0.735385 1.701470 -1.791071 0.329043 0.915003 -0.765933 0.123510 0.227870 -2.385592 1.148920 1.462935 -1.279227 1.787720 0.222201 
mesg 1.107257 -1.991279 -0.298924 1.493945 2.736016 -0.018776 0.090559 -0.863840 -0.165142 -1.503049 -0.897722 2.218537 0.031574 -1.764262 -0.226062 2.622518 0.335844 2.781229 1.284345 -0.015696 0.481645 -0.661060 0.093085 -1.608725 -0.331560 2.100474 -2.067055 -1.809684 0.187676 -1.288535 -1.222663 0.630737 -0.187259 0.726264 -0.335925 1.318585 1.615957 -2.513255 2.095006 -1.744978 -0.317572 -0.799328 1.528561 0.441253 1.388063 -1.863433 0.027921 0.215258 2.159212 -0.646762 
~grant/bin/pdpdb -0.574615 1.128486 0.265599 -1.036366 -0.277236 0.134518 2.060007 -1.108737 -0.689775 -0.020666 1.484737 0.493998 -1.939984 -2.899034 1.349720 -1.098594 1.709356 1.302403 -0.630902 -0.395492 -0.507433 1.290036 1.331069 -0.956136 1.846868 1.715344 -0.511061 0.284889 -0.217411 1.023087 1.429718 -1.618211 0.841873 -1.309404 1.196565 1.064973 -0.802856 -0.648401 1.527687 -1.509321 2.301585 1.282409 -1.175254 0.435236 0.202950 -0.243502 0.842553 -1.204607 -1.384994 -0.459930 
look 0.171499 1.410426 0.276646 -1.558299 -1.590398 1.388851 -0.846810 0.307809 1.697494 0.830271 -0.531793 3.630291 -1.106787 0.462123 -1.423623 0.305370 1.381995 1.341435 1.742638 1.119952 1.431522 -0.737951 -0.594657 2.068683 -1.223084 2.041555 1.725836 -1.077660 -1.407302 2.143640 -1.085801 0.703793 -1.480123 -0.905022 -0.506512 0.159179 -0.863937 1.740801 3.159889 0.352996 -0.882507 1.301865 1.370473 -0.147025 -1.176871 -0.776289 0.458616 -0.734183 2.173551 0.509299 
rasm 0.322206 -0.029703 0.171898 0.129270 0.164310 -0.673246 -1.275805 -2.258761 -0.240471 -1.024071 1.642731 -2.357859 -0.500704 -0.322463 -0.791552 0.959314 1.229579 1.652099 -1.334561 -2.925738 0.403939 -1.302920 -0.651914 2.238755 1.445782 -0.359617 0.668598 0.624566 -1.118732 -0.370194 -2.569788 -0.508221 -1.173823 -2.104346 0.072607 0.433469 -0.096552 1.603092 -0.300531 0.053832 1.261289 -0.754206 1.992185 -1.258112 0.913466 0.647761 -0.559898 -1.346161 1.149760 2.518395 
prolog -0.248553 1.910506 0.051709 0.945937 -1.697136 2.585576 0.943594 -2.332911 0.811905 0.062041 0.137487 0.922650 0.614099 1.356658 0.948840 1.735197 4.048675 1.675628 0.256377 -0.490041 -1.404341 -2.252787 0.318630 -1.894301 -0.609537 -0.827331 0.392289 -0.175575 0.784129 0.098389 0.550753 -1.066770 -0.321870 -0.216758 -0.297314 0.226943 0.096225 2.057954 -1.833635 -2.639019 -0.459741 -0.719318 1.717490 0.210257 1.279472 -1.726183 -1.395498 -1.829516 -0.966035 -1.659067 
( -0.048857 -1.569746 -2.062258 -0.420872 1.564409 -0.172475 1.547288 -0.807712 -0.430960 2.855834 0.075276 -1.545562 -1.872449 0.000185 2.429562 -1.015219 -1.598795 0.630414 0.582320 0.409673 -1.457537 -0.019783 0.846552 2.056990 0.512429 -0.413292 0.213534 -1.602504 -0.631167 1.896472 -0.555781 -0.522746 0.250797 -0.273023 -0.291317 1.109405 0.493495 -2.580711 -1.619244 -0.099711 0.430018 -0.888474 2.851978 -0.965969 -0.708114 1.508871 1.549187 -1.654837 -1.677409 -0.051119 
u 0.426225 0.832555 -0.791384 2.261725 2.307350 -0.536308 1.673710 0.107863 -0.889623 3.562155 -1.977107 1.331117 1.216301 -0.219110 -1.070174 -0.478268 0.927481 -0.038037 0.765994 2.859941 1.251049 -0.834794 -1.314887 -1.148747 0.112071 0.461908 1.428234 0.081461 1.960595 0.816031 -0.781725 1.133617 0.178884 -2.012721 1.534909 -3.913531 1.843008 1.049228 2.585213 -1.968058 2.682834 -1.851967 0.300510 -0.205823 -1.537570 -0.363873 -0.832539 1.060071 -1.233654 3.126561 
ditroff 0.514365 -0.783963 -0.488927 -0.145561 -2.533400 1.242919 -1.362556 1.226747 -1.700179 -1.487972 -0.000396 0.063527 -0.797215 -0.812901 0.495470 -2.558908 0.526111 1.168243 0.694925 0.731547 0.524798 -1.924000 -0.566980 -0.868048 -0.460034 1.372124 0.602574 0.448238 -0.762055 1.461972 1.238547 0.807217 -2.371418 1.248398 -1.546180 3.363015 -1.324254 -0.553771 0.635935 -2.060532 0.166037 -2.012526 -0.278239 0.969651 1.273801 0.218131 0.557265 1.685864 2.590360 0.598319 
diff -0.955905 1.430558 1.312497 1.446960 1.383693 -0.521716 3.246479 2.211650 -0.826577 1.691119 -1.239906 1.006517 0.060612 0.490843 0.939056 0.522059 0.968987 -2.157367 -0.432110 -1.160270 0.194362 -0.896968 2.926620 -1.118520 1.451814 2.924858 2.474871 -1.006217 1.520501 2.224019 -1.206657 -0.325153 1.597041 -0.779410 -0.154551 -1.989733 -2.217286 0.327543 -1.172342 -2.312683 2.588338 -0.444339 -2.238774 2.048363 0.527340 2.045406 4.165379 1.309139 1.693835 -1.430615 
cleanup -1.013863 0.870371 0.926563 -0.529943 1.164432 -1.669882 -1.273596 -0.163957 -0.160166 -0.275828 2.497289 -1.578467 0.515775 -2.389296 0.651934 -0.729988 0.485183 1.400098 -0.374103 1.463198 2.220973 1.901218 -2.121875 1.734445 -0.397041 -0.879018 1.012136 1.382286 -0.490895 1.014743 -1.606301 -2.520429 -1.609480 -1.285381 0.437945 -1.165403 0.829272 -0.324927 1.270838 0.570812 -1.998701 -1.930690 1.459424 -0.847354 -1.106728 2.514138 0.054649 -0.476499 0.165783 -0.001295 
fgrep 0.386524 1.564649 -0.845544 -1.646810 -0.032695 -1.172875 3.117254 -0.716183 -0.416587 -1.948291 -1.684223 0.475405 0.303183 -0.845171 0.200474 0.979172 -0.230640 0.876875 1.772977 -0.940453 0.807618 -0.896749 -1.071173 -3.166913 1.488193 -2.169887 1.229902 -0.684602 -0.802022 -1.050605 -1.269860 1.024433 1.063543 -1.009278 -0.528541 -1.239536 -0.464054 -0.210395 0.289648 -0.780733 -0.440339 -1.996597 -0.144868 -1.328096 -0.765367 1.801850 -1.168345 -1.539554 -0.823830 -0.941310 
talk -0.435933 -2.018775 3.881316 -2.312572 -1.136677 -1.333527 -1.067354 -1.451638 -0.493698 2.385401 0.080705 -1.319028 -2.679895 -3.108990 0.833657 0.463299 0.342208 3.875822 0.001397 0.857522 1.053850 -1.576455 -0.296544 -0.719981 -0.672564 -1.406166 -1.084460 -1.699713 0.325434 0.314314 1.968294 1.967071 1.548056 -0.574693 -1.231204 0.429043 -0.038801 2.730327 -1.347658 -0.619289 1.194492 -0.675411 0.178327 1.451968 0.761156 -0.870434 -1.460171 -0.766931 -0.143640 -1.372085 
tbl -1.013162 1.187201 0.678162 1.001493 -2.891170 1.281761 -0.525913 -2.442637 1.591586 -0.716358 -2.080767 0.142673 -0.898131 -0.046027 3.672993 -1.367176 -1.903662 1.905452 -0.708616 -0.194798 4.683617 -0.376346 1.592554 1.464552 2.239635 -2.273721 1.438934 -2.227608 -1.879293 0.339736 0.181868 -2.125618 0.454233 -1.871327 -0.548107 -1.301792 0.272818 1.908023 -0.643635 -1.478441 2.746326 -3.075889 -3.335351 0.536263 -0.677391 1.541051 -1.561981 0.579363 -0.787803 2.824130 
printenv 0.786373 -2.661501 -0.722459 1.785447 -0.197332 -2.314107 -0.893166 -0.294501 0.803610 2.330073 -0.147249 -2.310413 -2.119309 -3.087169 -1.267327 0.936965 -0.822502 1.725949 0.199539 0.479190 -0.365960 -1.904100 -1.164364 -0.199191 3.081844 0.235517 2.028597 -1.456682 1.600179 -1.712919 -4.725483 3.472141 2.613608 -0.677054 0.654849 -0.148950 2.262886 -0.014456 0.358428 0.856223 0.442535 -2.810204 0.541920 -0.025976 -0.963921 2.545480 -1.275441 -0.591183 -1.690342 1.968827 
finger 0.466930 0.053372 -0.945577 -1.196605 -0.377415 -3.733198 1.616342 -1.865494 -4.699412 1.225806 -0.960153 1.840148 -2.345688 -2.717996 1.591975 1.020190 1.004145 3.348256 1.483079 1.537171 -1.064797 2.129178 -0.935287 2.105125 -0.834513 1.879383 -3.202442 -0.891198 0.607110 1.108737 -0.434414 0.247793 -0.619482 -0.600741 1.044635 3.664976 3.730504 0.800846 -2.127789 -1.302904 -2.270587 -0.946487 -2.642910 -1.100396 -0.535776 -2.290266 -1.673692 -0.054063 0.176680 0.112556 
getim -0.004041 -0.006664 -0.009980 -0.001864 0.001703 -0.008758 -0.003797 -0.001057 -0.000972 0.001590 0.008499 -0.003902 0.008248 -0.001558 -0.000279 0.006162 -0.005325 0.000860 0.007681 -0.009300 0.008622 -0.007093 -0.004808 -0.003728 0.005400 0.003646 -0.009933 -0.005558 0.005323 0.007138 0.005117 0.001773 -0.006296 0.002447 -0.001845 -0.000174 0.000853 -0.006365 -0.008006 -0.004836 0.002085 0.009764 -0.005554 -0.000650 -0.002289 0.004897 -0.001675 0.008946 -0.006956 -0.001903 
which -1.912468 -0.893763 -0.387940 0.833269 1.528798 -1.524074 -1.251949 -3.515960 -0.300720 0.970596 -1.739534 -0.308433 1.031346 -0.965797 1.853501 -0.527204 -0.377895 0.742764 2.029807 1.136746 -0.192897 0.850138 -0.491225 -0.694098 -0.096772 1.199155 1.870531 0.976231 -0.308139 1.017317 -0.679074 0.367443 0.169589 -0.970577 0.696046 -4.999970 -0.898703 2.875894 0.800099 -0.384207 0.996261 -3.506558 1.468643 -2.741068 -2.417425 -0.930275 -1.130363 0.305295 -2.165813 -1.482079 
from -0.968901 0.643656 -0.771523 -1.920442 -0.616834 -1.395818 0.810316 -0.314643 -0.786262 -1.851427 4.518649 -2.135759 1.379007 -0.905666 -2.338137 0.839417 -0.684508 -0.290499 0.310265 0.185851 1.058538 -1.431650 0.644435 1.172944 0.657071 -0.219278 -1.735451 0.630771 -0.572597 -1.182043 -1.974742 -2.893274 -0.956108 -1.293907 -1.391687 -0.823530 0.304469 -1.030499 1.597330 -0.854716 1.147510 -1.805185 -1.453766 0.822124 1.409044 2.645311 1.502560 1.016490 3.027872 -0.490156 
dobis 4.024618 -1.949911 -2.976480 -0.535911 1.162827 -2.536161 1.284797 -2.729240 2.140645 2.329279 -3.270958 1.846417 -3.168813 0.894904 1.207079 0.964712 2.696304 -0.769172 1.288510 -1.006261 3.750446 -1.279300 1.557083 -2.899527 -1.252442 1.120851 0.565993 4.752169 3.388075 1.402809 -0.757405 2.393209 -1.026987 -2.529495 -2.073755 2.226621 0.233745 1.140143 3.402905 -0.769791 -0.474340 0.799891 1.622534 1.358517 -1.381300 2.993557 -1.649658 2.499264 -1.984172 -1.444655 
lisp 0.128907 -1.594869 1.105785 1.705039 -1.574960 0.311274 1.904598 0.296428 -0.485222 2.085795 0.723367 -0.910881 2.359967 1.248909 -0.030790 -1.157817 2.326055 1.288514 -0.092975 3.298662 -0.258031 0.454559 2.225205 1.948132 0.516637 1.798814 0.514954 -0.773851 1.806266 -0.630963 0.908206 0.590425 -1.263438 2.227924 -0.964669 0.519797 0.527972 0.027086 -0.309156 -2.008307 1.639336 1.130646 -1.458589 -0.085648 0.117983 -0.303650 -0.275022 -0.099612 1.001090 1.883348 
/user/others/freedman/bin/roff -0.697810 0.461216 -0.299691 0.818308 -1.434941 2.417988 -0.469071 1.782494 -1.175964 2.836666 -1.279052 -0.792922 0.563105 -1.489187 0.832916 -1.962973 0.401935 1.109076 0.715404 0.366049 -1.009792 1.306718 1.757957 1.513401 0.445490 1.097308 0.437226 -1.416749 0.001168 0.092036 1.804412 0.962503 0.251475 -1.778594 -0.030471 3.816213 -2.634138 0.199290 0.707390 -0.651111 -2.335333 -0.408226 0.749188 1.082520 1.840248 1.558723 1.440143 -0.936774 -0.758401 -0.115577 
~grant/bin/pdplk 1.418569 -0.133119 -1.335552 0.419834 -0.365539 1.295932 1.419389 0.018972 0.437968 -0.103575 -0.872257 0.076791 -1.612486 -2.763559 1.284963 1.649774 0.994265 -0.565088 -1.807528 -0.931847 0.227757 0.284340 -0.235564 1.068364 -0.687218 2.424633 -0.239409 -1.604428 0.394367 -0.470788 -1.672336 1.667052 -0.379226 -1.340988 0.863385 -0.301453 -0.708759 -0.606938 -0.281103 -2.118492 2.277196 -0.361232 0.532289 0.894388 1.015858 0.568321 1.253890 -0.463105 -0.371594 1.304289 
~grant/bin/pdp60 2.364146 -0.216058 -0.965284 -0.632970 0.431090 0.486993 -0.707445 0.536391 0.216561 -1.254344 0.728731 -0.386222 -0.175302 -2.620595 0.062421 -0.051010 2.024840 -0.036935 -0.733037 -0.703156 0.089487 0.363307 -0.356309 0.285259 0.061860 1.343245 -1.137621 -1.117512 0.207166 0.475116 -1.297534 1.060526 1.627570 -0.709376 -0.059773 0.628226 -0.047668 0.288545 -0.206494 -0.694027 1.443966 1.541022 -0.706719 1.529744 0.152770 -0.585966 0.524919 0.471547 0.785084 1.207265 
head 0.330945 0.007007 -3.092504 -0.914948 0.523586 1.228732 0.124076 1.010037 -2.873056 1.004336 -0.538494 -1.277125 0.772615 -0.416427 3.237955 0.146477 0.310991 -0.931565 -1.465192 0.099843 2.229295 1.974502 0.808093 -1.250016 -2.306615 0.453547 -0.780518 -0.032095 1.221748 0.856013 0.413239 -0.224431 1.349181 -2.435932 0.679388 0.272924 0.129975 0.651055 -1.094384 0.691375 1.223321 0.030979 -0.609557 0.773798 -0.772369 1.834862 -0.709072 1.967985 -0.416490 -1.590505 
lookbib 1.149856 -1.709161 0.374656 -0.138798 -1.217835 0.133078 2.294247 -1.148159 -0.356832 -2.105999 0.514374 -0.188190 1.700920 -3.253701 0.886754 1.041278 1.089618 0.239525 -0.156724 -0.470242 0.498950 0.961037 3.235715 -0.317149 0.591329 -0.023418 0.905288 -2.065313 0.191539 -0.040523 0.902841 1.999744 -1.221411 1.310632 2.173742 0.493365 -0.280716 0.911191 -0.068955 -1.275713 -0.189620 -2.451654 -0.350215 -3.032301 -1.117012 1.620546 0.084182 0.312191 -1.922541 1.097359 
df 2.188388 -0.838977 0.417886 0.061162 3.416256 -0.571865 1.817503 0.538965 1.288595 0.405627 -0.560781 -2.421136 1.344873 0.667789 -0.257624 -0.030049 1.535188 -1.102920 -0.765976 0.455837 0.258962 -2.377639 2.872412 -1.224187 -0.790147 -1.960834 0.723956 1.253827 2.064022 4.131474 0.378098 1.175169 2.397259 0.325209 -1.003784 0.586863 1.620354 -0.090098 -1.022437 1.458431 -0.852355 0.522591 0.814352 -1.946943 -1.481164 -1.488344 -1.026336 0.010345 1.616069 1.873107 
mc 0.426230 0.836019 -0.718693 0.917572 1.963547 -0.406891 -0.875984 1.252637 0.314123 -0.690572 -1.017429 0.150507 -0.331705 -2.963042 4.058978 -1.688950 2.409433 -1.290757 0.370327 -1.475268 -0.446313 0.734758 1.661648 0.146884 1.910301 -0.505350 0.250409 0.555307 -0.002891 -2.624778 -0.900746 0.981144 0.083825 2.197795 4.056828 -0.447870 0.890782 -0.411867 1.809318 -1.053080 -2.035478 -0.777342 -2.018600 1.559333 -1.294847 -0.650650 -1.234114 -0.087344 0.722214 -1.009125 
stty -2.115091 -4.750632 0.703791 0.540888 0.073429 0.444913 -2.097032 2.131841 0.807449 -0.513488 4.077178 1.012045 0.388599 1.332297 -0.280624 -0.007188 1.950855 1.074075 -0.231409 -0.191380 -0.327801 -1.752838 0.127839 0.536996 -1.382648 0.641865 -1.407835 -0.453721 -0.277338 -2.582358 1.736404 -1.605891 0.224867 -0.901641 -1.396527 0.047006 0.408098 0.744250 3.198467 0.641383 1.237215 -1.439504 -0.171673 0.249570 -1.623381 3.639293 -0.439112 1.650485 -0.227395 -2.462271 
tseq 0.109560 2.370792 -0.316121 -0.270303 -0.485362 1.505691 -0.832851 0.152170 0.675489 0.121458 0.169608 -0.619831 1.746100 -3.015737 1.656351 -0.261856 -0.865046 0.637030 0.601896 -0.118467 0.486932 -0.045079 -0.841148 -0.247465 0.270185 2.217484 -0.462517 2.155183 -2.587750 -0.020129 1.148518 -0.236796 -0.114651 0.887369 -0.604952 0.324738 0.408866 2.227215 0.921413 -0.977020 0.419199 -0.642767 0.272164 0.089097 -1.345578 0.596885 0.032308 -1.347663 0.913957 1.166134 
sun 0.509786 1.111623 -0.842752 -1.745333 -0.848993 1.648462 -0.254635 0.394476 -1.920694 0.556228 0.983704 -1.627718 -1.246342 -1.986171 -0.587087 -1.231469 -0.749877 2.020799 0.287124 -0.751913 -0.157539 0.371422 3.452909 -0.185394 -1.249868 -2.412555 0.579931 -0.901702 -1.438271 0.350787 -1.143266 -2.315412 -1.165625 -0.058932 0.529837 -1.211480 -0.067271 0.232501 2.147985 -2.199974 -0.497698 -0.092611 -0.689253 1.404926 -0.681711 -0.980152 -0.203771 -2.221433 -1.106786 -0.602471 
basic -2.536209 1.489978 3.620422 1.435046 0.479029 -0.243891 -0.429316 2.287875 -0.113094 -0.391529 0.470253 -0.255071 -0.786201 -1.301919 1.945442 -0.304778 2.186889 0.770890 3.322963 -0.403494 -0.695376 0.078977 1.763263 1.114394 0.754585 -0.507124 1.601436 -0.629039 2.788170 0.312731 -1.467944 -0.154321 0.887940 0.314086 -1.635704 -0.348684 1.300282 0.829465 0.885510 -0.843223 -0.938084 -1.239982 0.616058 2.024220 -2.294496 0.127694 -2.578195 -3.852453 -2.491210 -0.672237 
tar 0.855986 2.246955 -0.428395 -0.734344 1.180481 1.037635 1.199024 -0.533225 -2.732907 1.962608 -2.010846 -1.808559 -2.051769 0.906873 -1.152308 0.589644 0.637023 -0.810128 2.149109 -0.562662 1.495610 0.217759 -0.495817 -1.456835 -1.221798 0.596128 0.114322 1.210416 1.471268 -2.635131 2.715398 -1.970777 1.725009 -0.367397 -2.541280 -0.101571 -2.560422 0.463232 2.478793 -1.778810 -0.693735 1.858667 -0.316021 -1.925140 -0.724684 1.482092 1.370660 -1.224145 1.511733 1.725070 
uptime 0.568194 0.802813 -0.410977 -0.718965 -2.130212 2.199362 1.782429 -2.564114 -1.440795 1.564468 1.396965 2.687984 0.295674 1.256562 0.782064 -0.619369 -0.891084 3.387416 0.624899 -1.569752 -0.948499 1.771990 -0.241266 1.008768 -0.126584 0.349841 -2.532240 -1.259758 2.614059 1.090345 -0.444847 -0.985548 0.196459 1.692603 0.336965 1.821865 -0.928134 -0.117932 0.367239 -0.111354 0.224795 0.067369 -1.685424 -0.104290 0.918380 1.364154 -0.034817 1.201863 1.657853 1.823360 
clean 0.590926 3.159129 0.634657 1.131173 0.260986 2.893520 -0.216275 -0.660393 -0.221307 -0.926191 0.719172 -3.278459 -1.090177 1.011594 2.696646 1.737770 -1.192068 2.446661 -0.533632 0.915823 0.736015 -2.043299 -1.140889 -1.665111 0.675026 0.514650 1.022025 -1.747779 0.238319 0.817296 3.258172 0.610829 -0.949259 -1.384591 1.430315 0.112657 -1.483312 -0.189088 -0.314842 -1.176367 -3.662603 0.507087 -1.077002 2.657169 1.314895 3.195123 -0.342098 -1.291144 1.088058 0.016005 
imq -1.292438 -1.171554 -3.192684 -0.129391 0.694318 -1.604713 0.405120 -3.293789 -0.777398 1.095558 -0.931869 -0.514456 0.380563 -0.054519 0.982845 -2.700251 0.403215 -2.337131 -1.808133 -0.608605 0.784573 0.545895 -0.626086 -0.202952 -1.308621 -1.169774 1.460303 -0.618537 -0.287876 -0.237302 -0.277824 -0.341259 -0.189059 0.157648 1.723504 -0.984692 -0.542981 1.837827 -0.250788 -2.219377 0.002301 -0.163736 -2.273841 0.253498 2.107204 -0.924074 0.515899 0.747912 -0.248076 -0.340609 
script -1.321128 -3.090856 0.536210 -0.717123 1.042618 2.094933 -2.671483 0.038724 3.051394 0.420212 -0.980124 1.373963 -0.082514 -0.823146 2.588949 1.178869 2.740609 -1.129982 -3.444380 0.864606 -0.016692 -0.978961 0.401016 -0.375039 1.165357 0.694632 0.052291 2.293333 -0.259444 -1.779354 -1.708383 0.297603 1.210765 0.675977 -1.414009 0.658360 0.405070 -0.534147 5.257745 -1.321319 1.782244 0.427639 -1.548064 0.100080 2.244793 -0.195339 2.258768 1.432670 -0.503769 -2.393162 
js -2.290153 -1.087564 0.600580 -1.736710 2.260682 -1.041003 1.452615 -1.378774 -3.124142 1.500369 0.462467 -1.475215 -0.895112 -0.500038 -0.726482 -0.287916 2.648578 1.542789 -1.081046 -2.023878 0.652575 -2.511808 -0.635629 -2.143519 0.280980 -0.924001 0.991534 -0.652326 0.672097 1.489195 -0.964047 0.430726 -0.381796 -1.601737 -1.925360 -1.257994 1.359058 -2.404915 0.862370 -0.145717 2.621698 -0.302093 -0.748574 1.252172 0.586562 0.381484 0.490629 -0.406666 -0.485907 -3.269569 
'rm' -1.396218 1.953082 1.737378 1.044833 -3.409922 0.532760 0.774605 -0.830513 1.915728 2.454132 2.431403 -0.762304 0.835608 2.046964 1.128177 1.908394 2.121298 1.411985 -4.196889 1.988049 2.786262 3.797297 1.155294 -0.299748 -0.483168 1.193207 -0.584060 -0.202554 -1.638845 0.124914 0.626453 1.148290 4.693602 0.521873 -3.344841 -0.314308 0.939874 -3.591774 -1.268469 -1.989927 -1.720271 -3.389548 -4.294732 1.078068 2.527434 0.399270 -1.250939 1.995220 2.921994 2.171208 
steam -0.633052 -0.004574 0.131184 0.248498 0.498116 0.096571 -0.083122 0.140711 -0.169928 0.238658 0.172781 -0.159218 -0.169618 -0.668913 -0.019245 0.147821 -0.095561 0.197159 0.499115 0.231949 -0.478646 0.511904 0.070293 -0.692099 -0.686177 -0.403187 0.317883 0.402053 0.690959 0.102167 0.058595 0.045790 -0.168134 0.005906 0.215933 0.359505 0.424311 -0.130069 0.731556 -0.073816 0.179228 -0.002402 -0.050040 -0.387366 0.626509 -1.099429 -0.431142 -0.136834 0.560913 -0.162435 
life2 -0.282636 -0.035196 0.123454 0.248860 0.403609 -0.212649 0.493669 0.028188 -0.033616 0.145344 0.211872 0.146404 -0.223393 -0.696674 0.079480 0.134453 0.195492 0.371548 0.653824 0.252038 -0.490917 0.587396 0.267899 -0.911073 -0.512797 -0.464979 0.326274 0.590556 0.974503 -0.011483 0.005347 -0.142927 -0.425675 0.069689 0.203082 0.591697 0.521756 -0.081436 0.959747 -0.132560 0.200800 0.185489 -0.141252 -0.347985 0.883661 -0.915371 -0.593819 -0.269648 0.877030 -0.060588 
people 1.684037 1.324370 -0.589416 -1.647988 -0.283977 0.324887 0.889985 -0.505699 -1.911170 -0.735899 -1.018013 -0.346928 1.430011 -2.126027 0.453589 2.367293 0.546007 0.513318 0.581885 -1.731497 -0.444968 2.571620 2.078993 -1.291973 1.325621 0.795635 1.058264 -1.499730 -0.278030 1.949999 0.452055 0.852556 0.851727 -0.051635 1.317142 -1.097057 0.773163 -0.581476 -0.301332 -0.855505 -1.278444 -2.270976 2.799815 -1.275305 3.275379 1.569927 0.399797 -0.513989 -2.048833 -0.647391 
sort -3.052906 1.818891 -0.356407 0.479969 1.024984 -1.168466 1.060317 0.175548 0.991561 0.216522 -1.641756 0.674701 1.419526 0.430238 3.602888 -0.787017 2.165652 0.029842 -0.185214 0.508460 4.165435 -1.040287 -0.347725 2.200407 2.308780 3.778844 -0.384188 0.223271 0.658974 -0.566679 1.558141 1.069459 -1.510982 0.294524 1.536163 -2.572489 0.217750 -0.141423 0.997178 -3.083740 -0.490053 -0.673762 1.428973 0.842410 -0.050938 1.346936 1.085881 -1.024110 -1.253619 -0.609499 
psroff 0.690764 -1.575643 -2.798431 1.085904 -1.346799 -1.047816 -3.202000 -2.885454 -1.456405 1.577469 2.082299 -2.421269 0.662041 -3.271340 -1.975660 -4.042432 -1.205054 1.665698 -0.749363 1.283922 1.323084 -0.010874 -0.106155 -0.094688 2.929717 -2.102216 -0.067413 0.190329 1.574301 0.723050 1.094262 -1.255592 0.277843 -0.641681 -3.508834 0.093938 -0.306083 1.766319 1.369234 -2.310339 1.309340 1.456726 -1.494364 -2.772039 0.359506 -0.845768 2.181215 4.279565 1.520739 3.904102 
r.out 2.166222 0.077142 0.903236 -0.199473 -0.673522 -0.709749 -0.249344 0.828670 -0.287623 -1.686369 -0.037500 0.177543 -0.354752 1.954004 -0.748384 1.000218 -1.581023 -0.874344 -0.208416 -0.759287 0.189646 0.938179 0.890295 -0.082926 0.578439 -0.664963 0.501300 0.043832 -0.526755 -0.052659 0.603957 0.075401 -2.377901 0.667941 -0.048858 0.606525 -0.011936 0.330156 1.467895 -0.442531 -0.873850 -1.635648 -0.252990 0.977388 0.313882 -0.131459 -1.219480 0.399949 2.364158 0.440483 
/usera/others/freedman/bin/u 0.042327 1.353585 -1.024529 -0.288382 0.266235 -1.454385 0.797477 1.198573 0.341848 2.018681 1.294953 -0.235985 0.403352 0.098690 -1.056812 1.065014 0.816369 2.126351 1.579832 -2.688189 3.268805 -1.178404 -2.198165 -1.705900 4.018801 1.114501 1.446094 -1.388155 -0.567159 4.053059 0.130982 -1.047863 1.940002 -1.690933 -1.009221 0.301440 1.450271 0.137288 -0.285662 0.969398 0.155236 1.832053 -0.612129 -0.840845 -1.721088 0.789705 1.035241 -0.514781 1.535178 1.570014 
latex -0.552459 -0.699291 -0.997313 0.804925 -0.903817 -0.007509 -1.454862 -0.785191 -1.159458 -1.156645 2.796693 0.369777 0.042688 -2.632971 1.353985 -0.828979 2.961232 0.914129 -0.726026 1.105114 -0.038182 1.255258 1.836292 1.308723 -0.811201 -0.523054 -0.032651 1.623943 3.749602 -1.537676 0.205633 2.368620 2.499528 -2.116532 0.321916 1.983901 -1.411387 0.434659 2.753072 -0.551149 0.764002 -0.670732 1.168274 1.400673 0.242902 -1.813713 0.690486 3.283359 -1.905310 -1.429758 
vt 1.978323 -1.366096 -3.113233 1.221754 1.240587 0.342233 -0.327575 -0.785989 -0.975200 2.193901 -0.993946 -0.320019 1.065565 -2.382112 0.750570 -0.788474 1.576982 3.268342 1.738081 -0.978713 -0.245174 -1.603099 -0.596664 1.032606 -0.548797 0.593391 1.793389 2.116879 -1.790386 0.354675 -0.405761 0.202728 2.134772 0.726685 -0.737605 1.357710 1.626610 -0.649266 -0.559246 1.007740 1.920854 1.114134 -1.743737 0.995274 -0.144221 1.531357 1.652853 0.183411 -0.780792 -2.015062 
ed 0.606183 0.849019 -2.060351 -1.034119 -0.402336 1.289682 -1.450443 0.678185 -2.712921 1.064088 -0.656604 -0.346400 -1.435041 -1.381490 1.712228 0.807369 -0.733914 -0.468415 -1.991088 1.370101 1.190682 -1.632489 0.853144 -2.794164 1.609869 -0.634236 -1.163825 0.029694 0.522865 -2.324411 -4.620766 1.288638 -0.974606 -0.654493 0.066821 -1.494944 -0.975148 -3.475324 2.912997 -1.251656 -0.452750 -1.095742 0.104516 -3.663412 -3.490515 0.036318 -0.532832 -0.117733 3.586209 -0.043000 
test 0.807602 0.267166 -0.838268 -1.897063 4.332699 -0.255711 1.088423 -0.719801 1.218413 1.346667 3.581877 -2.345628 2.630355 -3.157817 3.311917 -2.696191 2.633098 -0.953950 -1.361196 1.641470 -1.489467 4.331655 -1.580049 -2.188864 0.563496 -4.061746 -0.741265 -0.806497 0.565737 -0.595431 0.156398 -2.238017 -3.192170 1.142005 2.283955 0.998965 -2.089085 -0.415537 0.417370 0.093431 -1.959967 1.612517 -2.127795 -0.608710 0.666151 -2.425859 1.502221 0.580028 -1.454836 2.948570 
actc -0.538583 1.094766 1.462018 0.552770 0.335769 -0.825579 1.342709 -0.431810 -0.854840 2.004566 1.303637 4.179070 -2.477825 -0.483752 0.306360 0.554386 -0.127452 -0.100769 0.805190 0.264395 1.002018 1.422782 -0.188516 -0.296326 1.325881 0.926005 2.228586 0.689859 -0.347524 1.614807 2.675305 4.661396 -1.495233 -2.096065 2.634652 -1.342189 2.804796 -0.559110 5.034626 -4.767368 3.099908 0.214270 -1.615532 -1.303715 -0.822862 1.262028 2.482952 0.559424 1.027577 1.734325 
Run -2.107856 0.929512 -3.042824 -0.758085 -1.554304 -1.028838 2.154910 -0.041017 -2.138735 1.010782 0.631408 -1.609007 0.566145 -1.699027 0.379812 0.573008 1.907737 -1.571495 0.338184 0.660778 -0.472321 1.911952 -0.278763 -0.002005 2.432849 -0.770345 0.553256 -0.165165 1.023208 0.722031 0.278030 -0.836208 -0.831616 -1.650654 0.984864 1.966023 1.034727 -0.110568 1.943296 -0.529216 0.065450 -1.361477 -4.899072 0.224323 2.412693 1.493202 -2.047900 -2.411562 2.774270 1.576508 
fref -1.798206 -0.963283 0.352156 0.694114 0.301015 2.252378 1.048671 -0.259640 1.470959 0.075603 -1.058732 0.709899 -1.837465 -0.788164 -2.073373 0.284512 2.113297 1.375183 -0.763168 1.383402 0.726502 -0.116727 -0.340412 2.631370 -0.852404 0.800606 0.905469 1.961965 -0.625521 0.178223 0.720162 -0.756017 0.393887 1.805246 0.940818 1.893705 3.050275 0.105369 1.004370 -1.428115 -1.208855 0.090817 0.709734 0.841582 -0.205062 4.162715 -0.098162 -0.273354 -3.699228 0.574035 
whereis 2.886873 2.613964 -4.034825 -1.065785 1.128384 2.030180 -2.171626 -2.471740 -1.905107 -2.188834 -1.114298 -0.028347 -3.248382 0.179045 -2.195407 2.043849 0.453188 1.773924 -2.443509 -0.936807 -0.114462 -0.295788 0.845938 0.742032 3.909188 0.546411 1.552644 0.129034 -3.809664 -0.088670 3.307550 -0.008447 -1.651749 3.620201 -2.393600 0.777907 0.775618 1.135391 0.113018 -1.504488 -2.568088 -3.352720 -0.949333 3.697256 -1.371342 -3.100111 3.859975 -4.282127 2.831510 1.240184 
checkeanmail -1.294077 1.293497 1.380614 -0.464096 1.394060 0.360874 0.920299 -2.501903 0.282879 0.634342 -3.195023 3.158480 1.408692 -0.738844 -0.808063 -0.171029 -0.369675 2.183827 0.970257 -0.373706 0.236733 -0.697170 2.670690 -3.121638 -0.805983 1.204360 0.777511 -0.376245 1.914001 -2.476089 0.256591 -1.256486 -0.497394 0.951661 0.799687 0.427618 -2.807806 -3.739809 -0.978285 -0.867043 1.604651 -0.597584 0.507406 2.849218 2.159503 0.198048 -2.500930 0.154570 2.293141 1.701208 
~grant/bin/dump 0.837893 0.467527 -0.501833 -0.424381 1.142010 0.145159 1.464225 -0.293706 0.554004 -1.843169 0.570277 -1.542097 -0.337341 -3.351629 -0.577422 -0.390570 1.076333 2.169885 -0.682208 -0.807945 -1.178326 1.337841 -0.197258 -0.494672 0.411280 1.657020 -0.712389 -1.856613 1.614151 -0.046567 0.468627 -0.013713 0.657697 -0.343025 0.941886 1.075431 -0.305321 -1.543283 0.829848 -2.775861 0.926603 1.174556 -1.305330 0.877278 -0.218449 -2.087555 0.691704 0.035448 0.757442 -0.030736 
"rm" -0.790203 2.071145 -1.054618 1.062116 -1.606560 -0.928305 2.392178 -1.043150 -0.125856 1.407690 0.941238 -0.442483 -0.173749 -1.055725 0.765477 0.257935 0.631333 -0.508664 -0.118216 -4.174264 1.588782 -1.360816 0.621129 1.144832 -0.263771 -0.601683 2.308237 0.156249 0.584232 -2.911040 1.412637 -0.903202 -0.637836 0.439045 0.313407 -1.576340 -1.665947 0.271871 1.989174 1.089875 -1.471449 0.292216 -2.453390 3.701725 -0.706338 -0.856291 1.272072 -1.190591 -0.224761 2.342528 
awk -0.333569 0.494097 -4.285878 -1.537150 -2.213980 -2.291865 0.729690 -2.357042 3.143452 0.587182 -1.960059 0.439960 -0.917393 2.306242 0.401535 -0.394246 0.416220 0.809660 -0.233045 0.517183 1.878016 0.243245 1.818668 1.508152 2.579854 1.698709 -4.092490 -0.372851 -0.977678 0.614698 1.173911 0.138798 0.832716 1.274431 -1.651819 -2.349037 -1.296595 -0.889459 0.200089 -3.860136 -2.717288 -0.350157 0.542641 -2.073254 -0.020665 2.314293 -1.771170 -2.074458 -0.513251 -4.015122 
dl 0.371232 1.353028 -0.481038 -0.302768 1.195140 3.230817 -0.001740 -1.869028 0.106673 -1.109157 -1.258363 1.570107 -5.248466 -2.597024 -3.790370 -0.559698 2.190782 -1.590272 1.266940 -0.637918 0.391283 4.436474 -0.055023 -0.873840 0.126347 -1.220354 2.064059 2.588784 0.352723 -1.101435 -0.796616 -0.681396 -1.678731 1.778183 -1.714920 -1.817010 0.286513 -1.715776 1.165235 -0.338108 -3.078001 1.291812 -2.388871 3.624763 -2.034039 2.209231 -0.125946 1.988056 2.008812 -0.669828 
f77 1.296178 1.397400 -0.498385 -1.601738 -0.365031 0.148640 -1.074563 -0.685037 -0.982492 -1.035136 4.162058 -1.201391 0.085270 1.806721 0.880193 2.296044 1.902697 -1.810563 -0.100289 0.873080 -1.489668 0.410245 1.601782 1.765279 -0.614465 0.695774 -0.467025 2.309905 -2.001941 -1.141232 -0.947117 -0.469949 0.380281 -0.166181 -0.119779 0.157271 -0.056898 -3.920613 2.443555 0.091170 -0.024170 -2.899549 -1.101045 -1.752352 1.028381 -0.265999 -1.691344 0.445103 0.371552 0.428310 
memo -0.654321 2.855659 1.032786 0.157994 2.452553 0.306857 -0.186746 1.428471 -2.795419 1.725309 0.303916 2.356603 -3.195187 0.481842 1.126404 -0.185974 0.471366 -0.180743 -0.218688 -1.305021 -0.410611 3.434142 0.372735 0.042370 0.398571 0.530337 0.435682 -1.528126 -2.023241 -2.797534 0.830384 1.124049 0.182700 -1.174114 -2.495600 0.131670 -0.107704 2.886725 2.959661 -3.517426 0.024795 1.066724 0.320408 -1.473981 -2.590954 -0.343344 3.116367 -2.592314 -0.691152 -0.702860 
lines -2.256048 -2.204999 -0.151623 1.698683 -0.613499 -0.582586 3.397087 1.935387 -1.615625 -2.054530 0.303081 1.963792 -0.410098 0.659159 1.691517 -2.386711 2.588409 2.660607 1.888752 -2.707163 0.493061 2.515864 -3.583731 2.085893 0.000424 0.706480 1.160702 -1.713892 -0.549205 0.385403 -0.526313 -1.730371 1.634312 1.306867 -2.857089 -0.282366 -1.606035 -1.961740 1.583840 1.382513 -2.532305 0.050243 -0.355011 -1.548239 0.338003 -0.846672 -0.709801 -0.174288 1.875872 -1.836440 
shell46 -1.150495 -2.580033 1.913513 1.285478 -0.535867 0.194502 -0.609506 -1.099141 -1.179632 -0.334529 1.093544 -0.058200 -1.572874 -0.173969 1.557340 0.623619 -0.585954 -1.865424 1.245856 -1.479798 1.938852 0.727988 0.228864 -1.481629 0.788271 0.376570 0.301546 0.545289 -0.830401 -0.599465 -1.379051 0.550119 0.309925 -1.325181 -1.956781 3.000608 -0.721858 2.709409 0.068640 -1.102535 -0.415193 1.673483 0.042125 0.106178 -0.235631 -1.426019 -1.432264 -0.861942 -0.154178 0.112481 
chrecc -1.891873 -0.696742 -0.062364 -0.281191 -0.412985 1.185799 0.532594 1.414333 1.660174 1.931662 -0.635169 0.668258 1.114350 -0.069225 -1.018778 -1.760958 2.174465 2.584382 0.642605 -0.337363 1.577834 -1.441674 -0.197730 -0.246532 0.775751 -0.502043 -1.196172 1.250795 0.312374 -0.279379 -0.159329 1.637353 -0.286000 2.165476 -0.126529 0.451419 -1.893158 -1.273817 1.347315 -1.010478 -1.306839 1.867487 -3.502361 -1.226144 0.627165 1.377838 1.238737 -0.660133 0.666344 -0.217291 
clock -1.218116 -1.099527 0.563834 1.614614 1.427832 1.083655 -1.066997 -3.736009 -0.012699 -0.299889 -2.223871 1.332399 0.612013 -1.176809 -0.397951 -1.606823 0.366626 -0.222041 1.884497 0.963088 -0.071540 1.204021 3.478760 -1.894293 2.145795 -1.620846 1.084937 3.413085 -1.886763 -2.652263 0.770451 1.289968 0.513254 -1.150062 0.419799 0.340020 1.902047 2.339484 -0.913986 0.396442 3.501038 -1.214490 -1.521271 2.980966 -1.932613 0.446147 0.203079 -0.288351 -0.844011 -2.502028 
ht -1.760514 1.198740 -0.096953 2.533495 0.691578 0.188957 -0.883883 0.427384 -1.245014 1.628657 -0.994454 -0.998245 -1.197160 -0.738304 2.708417 1.023993 2.814051 -0.004742 0.725792 -1.072966 0.149080 -0.705469 0.399285 0.035120 -1.254431 0.664772 0.648407 1.621337 -0.955227 -0.117409 -0.984507 1.089728 2.088416 2.195184 1.190796 -0.947995 0.696913 -0.828934 -0.556809 1.430827 -0.621065 -1.213197 0.230006 -1.600053 1.246920 1.458425 0.177429 -2.615903 2.243027 -0.130827 
last 2.549011 0.876337 -0.839146 -2.778503 1.340283 -1.428745 -0.253445 -0.038765 -1.288282 0.025747 -0.806477 -1.757862 0.258176 1.106133 0.324234 -0.278750 -0.349272 2.143858 0.893753 -2.093976 -0.120567 -0.465990 2.169421 -3.034675 -4.431622 1.443746 -0.216505 -4.028206 -0.655321 1.064744 -0.256711 -3.230706 -0.819838 1.035429 -0.468295 1.220374 1.097330 -0.017545 -0.317686 -0.484839 1.029006 0.085262 -1.540233 -0.294609 -1.823887 -1.259346 4.280962 0.246127 1.374333 -2.123066 
emacs_old -1.145446 -1.920351 -0.824985 -2.790473 2.553904 0.016693 0.224679 0.250308 2.383290 2.744574 1.208209 1.410301 3.144828 -2.109833 0.584465 -1.067663 1.976962 4.690385 -2.757001 1.509343 -3.614249 1.357207 -0.237352 0.279244 1.995772 5.433431 -0.311417 -3.646620 1.840695 0.844658 -0.965459 -1.234113 -0.514550 -0.957525 0.204580 0.987221 -0.748967 1.262571 -3.297514 -2.505394 -0.246387 -0.694967 2.687758 -3.044640 -0.200671 -0.187038 -0.211014 0.830285 1.750325 -0.100166 
refer 2.725375 -1.664796 0.499222 -0.489972 -0.265950 0.239857 -1.517433 -1.473642 -1.852804 -0.808473 -1.010342 0.367499 -1.122481 0.132810 -0.193392 -3.022954 0.261495 0.006367 0.548556 2.075737 -0.531024 -0.278521 1.452251 -0.796210 1.395662 2.931450 1.157728 -1.535928 0.146614 -1.146767 0.020124 1.194534 -1.410790 -2.662556 -1.642553 1.148544 -0.830673 -0.052156 -0.747027 -1.131027 -1.334148 -1.014837 -2.179025 1.837195 -0.294591 0.777488 -1.163368 1.743606 1.270991 -0.156885 
ln -3.912750 1.649763 1.219722 1.902216 -1.036615 1.844189 0.067440 -0.804161 1.170353 2.199470 -0.909265 0.942295 -0.192289 -0.234067 1.142401 -4.449961 1.574107 -0.113073 0.323119 -0.110869 -0.541295 -2.241839 -2.324046 -0.362450 1.255606 -1.988063 2.448788 -1.697246 1.240807 -5.072354 -0.069033 -1.445862 -1.099879 -1.916007 0.813079 0.644651 -3.803252 1.927820 4.669766 0.828819 -0.688619 0.444579 1.749390 -3.263401 -3.305002 -1.491198 -0.908068 2.693081 -2.172685 -0.089150 
CC -1.966236 3.834506 -1.422665 -1.279267 1.071677 -1.474475 0.745392 -0.941642 -1.108501 1.979102 3.433326 -0.335901 0.135804 -1.728964 0.099912 4.410737 1.417810 -1.014580 1.884218 1.268996 -1.291718 0.465327 -0.715257 -0.557953 -1.170657 2.832704 -2.982223 -1.414137 -0.188391 1.669433 0.962542 -1.695947 -4.106989 -0.045812 -1.582187 1.497206 -1.700460 -0.073922 2.552887 2.118670 0.953661 -1.757892 -0.613338 -0.828472 1.317535 -2.733314 1.340003 -0.142192 -0.678712 -0.809215 
iris -1.013799 -0.153399 0.992652 -2.817077 -0.574493 1.583377 -0.582926 2.557567 -1.981366 0.903567 0.903141 -0.134898 0.502568 -2.089076 0.057619 0.874706 0.703385 -2.066071 1.575349 0.104894 0.710448 -0.506827 1.953500 -0.145271 -2.178893 -0.874940 -1.604510 0.702988 0.326182 1.050378 0.952845 -0.242433 -0.484787 1.718660 2.495662 1.038458 -0.181813 1.549023 2.113846 -0.514857 1.584755 -0.695635 -0.636873 -0.025641 0.378056 1.510274 -1.793460 -3.727493 -0.366274 -1.109864 
sc -3.154822 1.178692 -2.006898 -0.874736 -1.167533 3.644365 -0.480052 -0.856451 -1.691570 0.304634 3.789629 0.919580 -0.458014 -0.096056 0.712163 1.580025 0.823585 1.298938 -1.249851 0.642653 -0.159415 0.316091 -0.769341 1.834721 0.633413 -1.380654 0.756957 1.931121 -1.755499 1.069426 -2.165927 -1.396317 -1.504744 2.032709 -2.265774 0.132645 -1.399374 0.665817 2.641161 2.702665 1.202579 -1.168461 -2.491411 -0.564251 2.318657 -2.198824 -0.328014 0.240847 2.935770 -1.913707 
touch 1.077342 2.925781 2.190560 2.435488 1.037071 4.199767 1.698004 -3.331264 -0.852410 -1.310699 -1.415145 -0.947182 -0.223748 -2.017493 0.444467 2.339376 0.428893 0.681315 -1.213473 0.587787 1.920655 2.076768 0.949377 0.349427 -1.391230 0.101962 1.565825 4.469367 0.985641 -2.483703 0.580473 1.840896 -1.882344 -0.339626 -1.923219 0.589977 0.705103 -1.685678 0.444264 -0.398565 -2.982708 1.741898 -0.007337 1.104290 1.083695 0.371796 0.778939 -1.428031 -0.189412 0.543071 
addbib 0.769651 -1.993237 -1.322994 0.108650 -0.554137 1.861950 0.955112 0.173902 -0.371430 -1.719373 0.163952 -1.013649 2.597941 -0.878165 0.493037 0.271472 2.308371 0.400976 -1.704934 0.813707 1.139574 -0.046620 0.310633 1.019740 0.400991 1.498203 2.757793 -2.155138 0.186290 0.419818 0.548202 0.172060 -4.658632 -0.567796 -0.816724 0.667390 -0.560558 -0.350057 -2.019462 -0.987934 -0.222861 -1.761792 -0.251207 2.003299 0.206996 0.639361 -1.257363 -0.377036 -1.075272 0.971570 
~grant/bin/nm11 2.928282 -0.175658 1.491006 0.349429 0.702696 0.955021 -1.536192 -0.005174 1.445642 -0.390059 1.669848 1.441171 1.569683 -0.704747 1.687770 1.466244 1.470937 -1.923345 2.099465 -0.530046 2.514528 0.904643 1.452179 -1.332140 1.330700 1.823343 -0.294804 0.650417 -0.146197 3.264752 -2.213428 -1.858898 2.689634 -0.363856 -1.197028 1.382218 -0.706726 1.681729 0.815918 0.515774 -0.168154 2.920751 0.210773 0.964714 0.951260 -0.223048 -1.305501 -0.832187 -0.701389 0.990314 
cal -2.523181 -0.815412 -2.182233 -1.043986 1.663013 3.182094 0.760719 2.801157 -0.544535 0.966546 1.000550 -0.299619 1.886039 1.372886 -0.669817 0.603142 -0.367458 0.158070 0.837544 -2.048531 -2.177148 -0.462202 1.597854 -1.400434 0.622725 2.116780 0.696607 -0.290254 -0.872010 -0.159754 -2.358290 -0.129672 -1.796849 2.401773 -0.492408 -0.554120 1.646985 0.109517 -0.818949 -0.997822 1.338533 -0.599796 2.982978 -0.116026 4.273713 -3.112762 -2.125648 -2.216970 2.499014 -1.739157 
compact 1.888109 3.709101 -0.982190 -1.378892 5.374290 1.457847 0.413348 0.920275 1.776698 3.060031 -2.267785 -2.503320 -1.215569 2.213874 0.782158 -2.428348 0.991589 1.104426 2.406905 -2.108157 1.986354 0.916148 -0.546154 1.343215 -1.657149 0.002268 -2.956600 -1.608154 -1.205739 0.904132 2.608956 -2.505824 -2.901253 3.625530 3.577336 0.010612 1.677076 -4.470016 2.227395 0.940105 0.124915 -2.280510 -1.629823 -0.433251 -0.518530 -1.490059 2.080682 -0.404985 3.313242 2.080653 
krill -0.398163 2.643468 -1.241075 1.688417 -1.498069 -0.460959 1.596349 -1.725106 -2.097756 1.772814 -0.391793 1.055626 1.020715 -0.020721 0.859289 -0.785161 -2.613430 0.976459 -1.482892 -1.605571 -1.427912 0.662912 -0.599123 0.812346 -1.124900 -0.551830 0.681001 0.105555 -0.151912 -0.771473 1.670563 0.629219 -3.353427 -0.114514 0.707418 -0.183822 2.505016 0.137350 0.565428 -1.727278 0.423929 -0.781386 -2.907910 0.398704 -0.547186 -1.599814 0.163472 1.008973 1.210525 -1.809131 
lex -0.742018 0.251830 -2.037558 1.144928 2.505096 -1.104431 1.430172 -0.991241 1.362484 0.288241 1.124771 -1.316818 0.534066 0.379661 -0.271000 -0.274171 1.328252 1.126457 1.369173 0.652699 -2.741215 -0.596781 2.608053 -0.875225 0.203435 1.495728 1.163458 2.477956 2.140735 -0.351536 2.298017 -1.440870 0.243104 0.981948 -1.649864 0.710321 0.097635 0.634541 2.319925 1.023947 0.219841 0.823323 -1.537048 2.130845 1.313294 -2.232021 -1.298815 2.041630 -1.343813 0.252694 
error_count -0.901147 -0.067259 0.128464 2.969375 0.207304 0.737785 -2.464954 0.917188 -2.731669 1.361882 -2.106746 -3.620841 0.737313 0.203098 1.047057 -0.275062 2.688131 0.324265 -3.677399 -0.262204 2.519522 3.494815 2.950635 -0.166141 -0.624430 2.156377 2.205303 -1.568494 0.757482 1.371297 -0.122611 0.309085 -0.319518 -2.939736 1.738973 1.628580 -0.743669 -1.355812 0.913389 1.307136 1.007985 1.910206 0.305883 -0.040103 -2.869184 -1.518894 1.449822 0.549522 1.286044 0.668973 
postnews -0.014277 0.782242 -3.261390 -1.914516 -0.155749 1.312303 0.513491 1.484851 -1.477141 1.096402 -0.622138 -1.020368 0.630752 -2.417189 1.404580 -0.622518 -1.061092 1.155899 -0.735539 -0.118666 0.115980 -0.224592 2.191673 -0.526558 -1.271566 0.744356 -3.226605 -2.403162 -2.375917 2.781821 -0.148631 0.110304 -2.541788 0.578506 -3.704468 2.576778 -2.014541 1.632129 -0.633369 -1.126677 0.951523 -1.830434 0.099644 1.472198 -0.806692 -2.547172 1.147186 3.617160 -0.666472 1.204908 
dirs 0.034098 -0.095715 1.417850 1.788299 2.214158 2.266886 -0.622863 -3.440173 -1.245737 -0.938013 1.128802 -0.364650 0.971841 2.734789 -1.670482 1.777612 0.872272 -0.235596 -1.882457 -1.084029 2.695526 4.207173 2.797811 -3.725588 3.090693 1.144445 2.693663 -0.918625 3.082642 -0.555665 3.736241 0.093138 0.269405 0.295864 1.124841 0.909157 0.389499 0.583973 -0.050623 0.825935 1.169459 -3.099162 -0.972235 -4.236832 -1.427036 3.184975 1.633341 1.740281 0.953862 -0.493869 
verbose -0.682480 1.745853 -2.031522 0.450115 3.121994 -1.919049 -0.494823 1.074458 -6.108508 -0.892108 -2.403208 -2.199540 1.193729 -0.385902 -1.748185 -1.423500 3.156653 4.248216 -2.536117 -0.330897 1.763312 2.611909 2.837381 1.687464 -0.355552 3.216307 -0.325990 -0.404853 0.228034 -2.132200 1.671996 -1.012632 -0.228151 -0.783600 0.646024 0.892706 0.147030 -1.389297 1.660585 2.284486 2.517975 2.349806 -0.415918 -0.772981 -0.983677 -0.008291 2.383348 1.821596 -0.423396 -0.111737 
$NEWSREADER -0.969490 2.066080 -2.510942 -0.735642 2.850302 -0.120712 1.478855 2.389657 1.888672 0.433293 0.460353 2.523420 -0.018466 -0.972514 0.853303 -1.923168 -1.111539 1.737378 -1.294487 -1.637178 -1.772877 0.979861 0.974351 -1.476455 1.820129 1.236784 1.995963 -0.226036 -0.106689 -0.426457 2.964723 -1.944931 0.305314 -0.582700 -2.072446 0.880535 3.545949 0.773594 -0.786800 2.288140 -1.181109 -0.116201 1.580559 3.458281 -2.053647 1.071943 0.967015 0.613903 1.767186 0.915358 
examples_vax 3.190037 -2.342522 -1.420156 1.445922 1.102109 1.921001 -2.397699 -1.512437 -0.669426 -1.145307 -1.470626 -1.369538 -0.203477 2.669517 0.381569 -0.526090 2.086232 -0.349693 0.382748 0.176599 1.052235 2.950891 1.342267 -3.630413 2.013149 0.054913 -0.187137 2.417897 0.661854 -0.577201 -0.876056 -0.606326 1.915953 0.981392 0.604514 0.193707 1.285267 1.681424 0.185163 0.854530 -1.329827 -0.469407 0.692202 -2.134027 2.848404 0.260324 -0.099531 -0.663775 -0.430553 -4.313811 
dpq -1.699829 1.181817 -1.221162 2.199937 0.379469 -0.378487 1.402343 -3.481442 -1.130097 1.870237 -0.135367 -0.123487 -1.270961 1.661118 -2.389829 -0.297247 1.618677 -0.316223 -0.619868 -1.167233 1.603899 0.166276 -1.037667 0.863076 -0.627230 0.106496 0.715028 -1.340921 1.423921 -0.962199 1.984833 -3.491740 1.848752 0.486557 1.461822 2.185796 -0.144735 1.226830 -0.849786 -3.203814 1.412688 1.422328 -0.444697 2.509467 0.731603 0.554488 0.320723 -0.515841 3.538198 -0.802175 
vista -1.519299 1.837649 -0.142786 -0.605138 0.180411 3.418915 1.282005 -1.427704 -0.201093 -2.458835 -1.165307 1.096837 -2.986423 0.142607 -0.296962 -0.699583 -0.910033 -0.184590 -3.413093 0.190803 1.273326 -3.509936 1.009887 -0.385551 1.133964 -0.901553 0.331723 0.355712 0.733009 1.107837 -1.586156 2.090881 -0.545703 -2.509567 -0.909477 0.530313 1.466279 -0.449389 0.227554 0.639487 1.398255 1.395842 -0.540406 -1.662243 2.011492 0.541264 1.879801 0.902049 -0.068045 1.304234 
test_comm1 -0.104132 0.746805 -2.773036 0.329857 -1.168198 1.842195 1.192377 -2.352844 1.402099 -0.475383 -2.254529 0.666354 -0.871385 -0.874334 1.150583 -1.614903 -1.152889 -1.840100 -0.922143 -0.192899 0.951769 0.024752 1.477993 0.202281 0.404686 -0.324883 0.888086 -0.233758 1.366168 -0.114267 -2.158963 1.137982 -0.504995 -0.972824 -1.764712 0.370768 4.770641 1.381871 2.515180 -0.518811 -0.431929 0.506728 -0.396215 1.284080 0.093563 -1.242304 0.431714 -0.180820 0.374086 0.449892 
eqn -0.832795 0.720392 -1.746441 -4.627107 0.438442 -1.067994 -0.639843 -3.417405 -1.665433 -1.310628 0.107496 0.343809 -3.909492 -0.883370 0.396434 -2.932165 1.333284 1.155928 -2.318308 2.308213 0.665583 1.406666 -0.065230 -1.637533 0.458650 -0.737034 -1.572064 0.418898 -1.154330 -0.267282 -2.165586 0.442848 -1.051996 0.016050 -1.233684 -0.420138 -1.086655 2.255520 -0.977048 -0.920158 -0.543661 0.849234 -2.772684 -4.471414 1.110591 -1.239996 1.807668 1.237623 -2.260913 2.093493 
sh -1.397627 -5.569541 -2.887466 1.927417 -1.208946 -4.696577 -1.932083 -3.431914 1.363456 2.054323 0.311813 0.515368 0.259997 -5.728794 2.143907 -1.343875 2.521456 2.875362 0.809640 -0.323834 3.847820 0.929926 -2.542706 -0.024950 -1.457259 -0.854244 -1.327268 -1.563663 2.569856 0.458242 -0.152576 -0.248444 -1.577902 -0.992504 1.975496 -4.473953 -2.162935 -0.979682 2.879852 -1.817030 -1.024100 2.942403 -0.929429 1.057401 -1.708416 0.092355 0.054960 -0.013318 -1.745150 -2.328663 
c -1.072522 -0.660422 -0.310821 0.535526 2.919460 -0.031554 1.220225 -2.312168 1.134990 -1.683267 -1.873127 0.210648 -0.790951 -1.660658 -0.633998 -1.074266 -2.619436 1.036692 1.222337 -0.936588 -0.672833 0.970394 0.857386 0.165627 -0.093958 2.811018 1.558865 1.467019 2.010296 0.018202 -1.725025 1.022822 0.974090 0.407190 -0.500222 0.987364 -1.991540 0.774026 0.562406 2.217439 -1.251665 -2.521449 -3.463610 -1.751500 0.038538 2.394387 -1.271544 -2.239099 1.497040 -0.229228 
write 0.399281 -0.935446 0.769295 -1.249183 0.951749 2.282611 -1.571685 3.685346 1.316265 0.899442 -0.610038 -2.241560 0.038427 -2.643874 0.573046 0.933919 -0.789573 0.530191 -2.035966 1.077904 0.917309 0.016108 4.060014 -2.478181 1.302991 -2.340206 0.774899 -0.887806 -0.102423 -2.973838 3.457430 1.016428 0.509666 -0.931285 -0.460261 2.954127 2.459141 -1.151169 0.733984 -3.527481 -1.211834 0.905027 0.951765 -0.337551 -1.000523 0.169040 -1.644413 -0.226171 0.162644 -1.620918 
sfn 0.007171 -0.008668 0.008795 -0.001949 -0.002857 0.005147 0.003972 -0.005780 0.003853 -0.006566 0.006669 0.000017 -0.009886 0.002757 -0.007803 0.004505 0.003738 0.004677 0.000870 0.001748 -0.002462 -0.004243 -0.002000 -0.009193 0.009327 -0.002440 -0.006100 -0.004256 0.001916 -0.003352 0.003882 0.005623 0.003118 0.004584 0.008258 -0.005493 0.005746 -0.002070 -0.007659 0.001456 0.007613 -0.001751 0.006444 -0.009466 -0.008470 -0.007898 0.005879 -0.009196 0.005311 -0.008946 
fonted 2.208868 2.282378 -1.186879 3.394646 2.030719 -0.746676 0.113049 -0.048653 0.139278 1.769950 0.862761 1.467883 0.870755 -2.132205 -2.142149 1.103387 2.620035 -2.605088 2.354731 -0.859364 0.894865 -0.744220 3.808650 -1.141863 0.566171 0.218966 -1.139965 -1.377381 -0.810041 -2.804179 -2.451262 -2.944350 -0.939804 3.418194 -0.203786 -0.012025 1.247321 -1.228246 1.113092 -0.018682 -0.275468 1.489522 1.095367 0.801506 -0.460451 0.423237 1.981952 0.271109 0.732978 4.125448 
sortbib -0.618860 -1.800827 -1.466550 1.790994 -1.233857 2.262425 1.114111 -0.874174 -2.530313 -1.718259 -1.443492 1.173243 0.463955 0.179010 0.994521 -0.775493 0.874080 -0.509350 -0.547549 0.002387 -0.378784 -0.491499 0.090382 -1.402031 -0.481288 0.589956 1.950400 -1.743891 -2.573031 -0.819359 -1.590352 0.903924 -1.152117 -1.112186 -1.633753 -0.249644 0.434119 0.013439 -0.398906 -1.102624 -0.291556 0.015715 0.291075 0.310169 -0.861240 1.706636 -0.160775 0.870041 0.927563 1.346006 
users 0.299502 1.604222 -3.400758 -0.022025 0.146333 0.284658 3.111603 -0.575437 -3.369104 -0.730850 -2.284867 5.122090 1.391572 -0.855466 -1.122431 2.975475 1.413511 1.962186 -0.667383 -0.650213 0.718202 -0.276826 0.844865 -0.851836 0.066252 0.994386 -1.681085 -0.617634 -0.582650 -0.919932 0.817508 -2.356527 2.708381 0.207143 3.094512 5.012844 -0.142987 1.943222 -1.396837 2.460971 -0.860098 1.978501 0.133229 -3.815597 -0.748549 0.634415 -4.861271 -4.355421 -0.396808 1.451789 
time -0.120812 0.633050 -1.459266 3.018154 0.650876 -0.808464 0.074068 0.587480 -1.280479 0.281258 -1.509938 1.029928 -2.661380 0.697682 -0.994150 1.554463 1.236174 0.775036 -0.430913 -2.105320 0.402761 -1.933937 -1.269673 -1.436298 1.489850 -1.171700 1.043459 -1.006705 -0.268856 -1.913639 2.857496 2.727266 0.540544 3.238252 -2.637028 -2.005207 4.464696 1.392706 1.875115 0.719347 -0.859919 -0.625001 0.303443 -0.622304 -0.513413 -4.964803 -1.835339 -0.987203 0.296264 -0.219971 
test_pause -3.104155 -1.311865 -1.718921 1.087880 -2.754240 -1.049044 1.143655 1.197650 0.497057 0.768881 0.970379 -0.747844 -0.808460 0.611579 0.339455 0.605690 3.442769 1.465709 -0.293340 -1.179361 2.029880 1.885423 2.252700 -2.773907 1.587121 0.328905 0.234170 -0.175713 2.217592 -2.126312 -2.020344 1.299255 0.224022 1.613161 -1.417158 4.420261 0.729321 0.135548 1.277811 -0.220273 2.009273 0.333812 0.824515 0.345181 1.552189 0.993782 -0.498507 0.214787 -2.095234 0.233344 
cwc 0.879979 0.148569 0.466310 0.200896 0.262056 1.544868 -1.910143 -1.223247 -1.180322 1.252923 3.022279 0.185936 -2.304466 0.107580 0.771437 -1.419763 -1.097313 -1.453202 -1.211191 -0.772904 -0.559461 -0.268024 3.369689 0.100991 0.104582 0.998500 2.712985 -2.390633 2.299109 0.446899 0.098359 -2.005316 -1.929181 -1.070973 1.771531 -1.237699 -0.385601 2.580376 -0.384746 -0.753988 0.650335 -2.120258 1.808935 -0.284038 2.920236 -0.812231 -3.017391 1.896206 1.927591 -1.985528 
lint -1.410317 2.556568 -1.429016 1.586668 0.241363 -0.130870 1.397379 1.580946 1.509179 -0.781890 0.777410 -0.821312 -1.362835 2.456227 2.262915 0.560243 -0.372352 -1.459690 1.697925 -0.996676 -1.571998 0.860604 4.137527 -0.375947 2.831466 -0.788821 -1.067563 2.171364 0.591666 1.257476 3.607698 1.024594 -1.747437 -0.528748 1.542889 -0.020180 2.455789 -0.205992 3.620156 1.867626 2.565874 -1.282933 -0.864474 0.483916 -0.291584 -1.230408 1.899777 -0.724211 -2.926893 -1.785742 
del 1.762661 -0.559710 1.240476 -0.006140 0.357395 -0.113285 0.194229 -0.034344 -0.370596 0.920851 0.354249 0.724216 -0.137672 1.417781 -2.277579 -0.915757 -0.442454 1.092536 -1.998959 1.837630 2.626406 0.645723 0.288402 -1.726176 -1.008346 4.624117 0.036713 1.168944 -0.550918 -1.520398 -0.754598 -0.822050 0.957548 -2.043698 1.658951 -0.318657 -0.752795 1.480084 -0.513377 -1.245108 0.091270 0.109684 -2.727989 2.167382 2.032700 3.557141 -0.862091 -0.238586 1.887442 0.276760 
gprof -6.181054 0.514907 -0.342435 0.906186 0.109777 -1.457784 2.662322 -0.595204 1.519434 0.624115 0.762224 -2.572999 0.175593 -2.291640 0.610267 -2.208706 2.463148 -1.144491 2.596779 -0.523046 0.481642 1.372598 -0.472164 2.564351 -2.143424 0.596036 2.458504 2.740459 1.396752 -0.445656 5.255933 -2.464354 -1.400141 2.299739 -0.200725 -1.719907 1.188250 -0.947903 2.617891 1.509043 0.423046 2.367344 -4.047818 1.965820 2.027442 4.584053 -2.405762 -5.024464 2.027426 -0.714257 
email -1.397269 0.703404 -0.496596 -0.110732 0.236464 5.127215 1.398983 -0.052682 0.817107 0.924357 -0.804269 -0.090784 3.273693 0.298643 -4.376664 -0.092944 0.695345 2.032426 -2.249484 1.988351 0.030554 2.875397 1.101206 -1.928875 4.753449 2.069232 -1.535431 1.936072 -1.811074 -2.532715 -1.016236 5.646458 0.758142 -1.545277 2.914940 -1.133001 -3.273629 2.309561 -0.860473 -1.207350 1.773928 -1.269325 0.355557 1.571372 2.362146 0.568942 -1.279665 -2.216332 0.761366 -0.871340 
yacc -0.748247 1.207499 -1.777946 0.076674 -0.658714 -0.525344 1.374236 -1.295329 1.279195 -0.092343 0.884165 0.981688 1.660290 -0.518353 1.451946 0.399219 1.705474 -1.115707 2.628687 -1.233340 -2.566636 -1.928871 3.003516 1.435738 0.740486 -0.229270 -0.533747 2.051893 -0.794634 -1.031626 0.883101 1.945271 0.376359 -0.963946 -0.640623 1.521746 0.187271 0.047169 1.646616 0.239893 -0.053155 -1.116509 -3.880627 -1.555864 -0.951714 -0.314621 -1.697106 3.112905 -0.250479 -0.778805 
gr -0.943820 0.743373 2.526035 1.276390 1.305007 -1.445145 -1.077512 -2.380387 0.726383 0.505010 -0.942514 -0.806462 -0.878925 -3.388499 -0.418339 -2.430851 1.039781 -2.044976 -0.102372 -0.493335 -2.158697 0.804861 0.730274 -0.336412 -1.772557 -0.070109 1.484649 -1.399742 2.152234 -0.748222 -1.782555 -0.264149 -2.861088 -0.709476 1.393539 2.103051 0.259419 1.901948 1.481251 -0.761893 -1.429809 0.105029 -0.712441 -0.265361 1.071345 1.735659 -0.089294 3.552250 2.988618 0.186267 
tty 0.747033 -0.521532 -0.719128 2.721336 -3.897184 -0.992851 -1.262586 1.965195 3.070755 2.031451 -2.148717 0.261594 0.344847 -2.603704 -2.246390 0.444052 0.676748 0.926283 -3.032681 -4.177430 -0.019860 0.266722 1.123119 -3.495115 2.677018 1.097527 3.965879 -1.602433 0.307425 -0.564527 -3.959693 -0.037548 3.733366 1.670821 -0.728848 1.473098 1.927687 0.680095 0.110746 -0.666847 -0.312422 0.116613 -0.017504 -1.967169 3.965572 -1.767081 -0.420857 2.230323 -0.940544 -2.564451 
control 0.442873 0.187648 1.653269 0.755635 -0.753733 0.478014 1.900161 1.219012 0.142062 -0.505789 -2.524032 -1.683862 -0.994987 1.041172 0.198024 -2.801192 0.881394 1.539527 1.839383 0.084536 0.309564 1.773870 1.762093 -2.568517 0.453360 -0.530166 0.337613 1.263178 1.200525 1.346607 1.102541 0.796919 0.091858 1.252698 0.751825 2.662743 1.351586 -0.929157 0.751328 -1.260038 1.851912 2.967181 -1.926733 1.134015 -0.425102 1.700687 0.646728 2.133722 -2.036767 -0.452593 
indxbib 0.078003 -0.829496 -0.149908 0.842562 0.428466 2.602064 2.057261 -2.458258 -2.194650 -2.807862 2.072341 -2.680205 0.934879 -1.463630 2.648965 2.266320 -1.030072 -2.395993 -1.248413 -0.563710 -0.861384 -0.896304 1.566978 -2.492079 -1.447257 1.142335 0.157406 0.103439 1.095842 -0.840843 -0.066967 -3.026862 -2.561399 0.198699 -2.004925 -0.462159 1.156607 -2.929130 1.011307 3.076716 -0.018311 -0.231105 0.879667 0.528806 0.829111 0.888263 0.911877 -2.312313 -2.272040 1.952005 
while 5.068509 -4.490130 0.127570 0.322466 -0.056199 -1.822911 0.211025 2.297449 -0.858078 -1.888876 2.371591 0.350249 -2.036830 1.116262 3.695416 2.620255 0.513242 2.154136 -0.355944 -0.532463 0.502376 0.608723 -0.707847 0.510197 2.343341 0.691855 0.191804 0.675452 -0.726924 -1.735286 -2.813927 -1.070891 -0.328542 0.172334 -0.242318 0.851160 2.839599 -0.332427 0.291794 -1.529104 -2.834897 3.521910 -1.784280 -1.258833 1.759446 0.021197 -1.868851 0.521174 -1.191028 -1.834045 
hello -0.090084 3.178575 -0.920894 -0.810882 -0.909808 -1.717909 -0.580098 1.420004 -0.145454 3.311034 0.620229 -0.218354 -2.571801 -1.997074 1.682934 0.421275 0.167443 0.631269 -0.346388 -1.697481 3.285786 0.618948 3.048950 -1.217529 2.017920 -0.220431 -1.495167 -1.103169 -0.702388 1.650979 -2.596120 -1.376932 2.235644 -2.772944 0.402585 -1.032232 1.273007 0.907308 -0.774709 -0.071271 -1.330164 -1.523141 -3.442661 1.554035 1.009304 -2.361192 1.993116 2.188568 -0.220646 -0.381283 
find -2.447558 0.563914 -1.917920 0.489523 -2.996606 -3.108113 3.058850 0.029184 -1.952225 1.340702 2.799358 -0.229501 0.265232 -4.381394 -2.652938 1.955165 0.307115 -1.592680 2.972493 -1.020191 1.510918 -1.153939 1.133404 0.950369 -2.168474 -0.720955 -1.062939 -1.714969 3.720578 0.174983 -0.371282 0.590706 -2.511945 -0.328125 -2.394170 -2.818869 -1.589771 2.252275 1.937666 -3.279808 -1.304142 1.185891 -0.359862 -1.364776 -0.047179 -0.146485 4.399324 0.792164 -2.469445 -3.576293 
em 0.506867 2.531399 0.004208 0.591655 0.211572 1.219375 0.852875 0.733466 -0.295113 2.713077 1.505681 -2.616565 0.371896 -2.882122 -0.312857 2.446324 -2.263867 1.819375 0.857191 2.197893 1.750230 -0.659886 4.114798 -0.703367 -1.427987 -0.894507 0.751753 -0.951750 1.931529 2.379234 1.633573 1.078415 0.054659 1.499808 0.457577 0.834339 2.229241 1.571475 2.267735 0.912900 -3.084527 0.917661 1.735954 -1.737927 2.485779 -1.438486 -0.417979 -1.816764 -0.665564 1.370746 
tidy -2.466608 1.208587 -2.380240 0.743263 0.948770 -0.427068 1.998958 0.923254 -0.703329 -2.349369 0.625726 -1.646241 -3.270541 1.858191 3.228374 -1.105470 0.608302 -0.274725 2.255339 1.808385 0.699653 3.124873 3.151318 -0.602556 2.441931 1.206833 1.133133 -2.545183 0.285407 -2.725028 0.301234 -2.187130 -1.362119 0.564100 -1.490767 0.431941 0.287495 2.482927 -2.438700 -0.653864 -0.831353 -0.748790 -0.494665 -1.484730 -2.353145 0.548533 2.984105 2.630192 -2.247853 -2.312640 
trace -0.706193 1.466084 -0.701362 -0.122286 4.629578 3.743829 3.202348 1.140181 -1.029260 -2.210577 -0.765287 -1.110900 -1.098841 -1.885405 -0.879467 0.502163 -2.544093 0.684404 -2.033241 0.650068 1.109196 -1.028580 -0.062127 1.564535 1.464598 2.615270 -0.297015 3.017898 3.907527 -2.004916 -0.136115 2.210673 2.349799 0.522535 -0.289299 1.023561 1.083619 2.508206 -1.831518 0.434851 -1.502318 0.110058 -1.394688 -0.510076 0.394177 -0.264928 -1.390563 1.135120 0.071185 3.296087 
ld 1.522531 -1.296541 -0.119217 0.981232 0.576436 1.216566 2.812126 -1.436093 -2.085359 0.597287 0.333138 3.191711 -0.014185 0.598469 2.411091 1.206428 0.454975 3.082350 -0.270793 4.250713 1.550395 1.153422 -0.154737 0.251451 -0.555428 -3.466266 -0.213269 1.179237 0.658837 -2.558239 0.001078 1.527969 0.583116 1.677249 -0.013292 1.858691 1.824278 0.305479 2.096231 0.193880 0.386187 1.032650 -1.997088 3.333384 -5.036811 -0.629067 0.644036 -1.132992 3.298608 0.286141 
"pr" 0.079585 0.006463 0.040963 0.082571 0.030653 -0.230512 0.685414 -0.483080 -0.131747 -0.167956 0.658906 0.319515 -0.150342 -0.335966 0.266723 -0.024588 0.576281 0.544463 0.268682 -0.038504 -0.063587 0.381519 0.782829 -0.678019 0.107898 -0.003110 0.124577 0.506978 0.331678 -0.065838 0.286569 -0.083485 -0.642558 0.054984 0.064122 0.420751 0.335271 -0.006205 0.913529 -0.596179 0.005115 0.067362 -0.233340 -0.088553 0.729086 -0.541374 -0.438917 -0.332284 0.724287 0.003770 
rehash -0.163791 4.172641 0.830654 3.121737 2.531627 4.236412 -0.529260 -0.918096 0.804351 0.478485 -0.038030 -0.834106 -1.755280 -0.030281 -2.338900 0.707056 -0.722645 0.640413 -2.043464 1.070865 0.854453 2.645724 -0.852341 -0.111626 3.064363 -0.535453 1.559204 -3.327370 3.592068 -3.043010 0.475221 3.175068 2.737511 -6.394397 0.399245 2.667927 -2.736766 0.638258 1.222930 -4.489165 1.352934 -2.269304 -1.371325 0.395704 -0.698120 2.204746 1.043412 1.846870 -4.804491 -1.424210 
prune 2.724924 3.510341 4.606803 0.896842 -0.464594 2.489614 0.909532 0.094540 -2.958566 2.451945 -5.425206 0.011604 0.035818 0.033354 0.615373 0.417828 1.119380 2.404325 0.358000 -1.221653 3.652619 0.499260 -0.656296 2.241447 2.164222 1.103862 1.591605 0.121904 -0.383739 -1.219939 2.832923 1.094064 0.554588 -2.670356 0.095750 1.207551 0.699683 1.414900 1.044254 -1.635391 0.540590 0.407885 -1.681672 5.034901 -0.758472 -1.226691 -0.773542 0.023455 0.954007 0.197517 
