filename 0.522591 0.442327 -0.378328 0.313245 0.348805 0.866425 -0.677874 -1.620768 -0.405240 0.630628 -0.703840 -0.836425 0.020571 -1.007676 0.876604 0.308623 0.617123 -1.263570 -1.108735 0.748824 0.034112 1.278668 0.118905 -0.451658 -2.258588 -1.095235 2.122878 0.050027 1.278934 -1.480003 1.125058 -1.040181 -0.411416 -0.259967 1.928768 0.842687 0.625442 -1.081081 0.047962 -1.160451 0.233285 -1.341338 0.998833 0.958043 -0.683600 -0.328509 0.358895 0.215114 -0.639929 1.039774
parameter 0.776904 -0.097930 0.624116 0.421807 0.611572 1.525358 -2.451773 -1.780491 -1.467157 2.183886 -0.446829 -0.210583 0.549641 0.933227 -0.112157 0.796635 -0.260941 0.212455 -0.671173 -0.328672 -0.327741 1.584900 0.593148 -1.069762 -0.475837 -0.375193 0.937766 -1.100441 1.592375 -0.413186 0.238911 -1.152477 -0.533833 -0.759316 2.044133 0.984745 0.392996 0.677176 -0.085077 0.395815 0.286483 -1.214840 -0.248186 -0.913460 0.797972 0.350067 -0.349955 0.725301 -0.023122 1.171863
ls 1.427159 -0.813035 -0.084375 1.822984 0.792789 -0.107956 -0.615578 -1.958744 -0.220132 1.406903 -0.358179 0.532025 -0.230406 -0.853062 0.065744 -0.296909 0.035894 -0.628735 -1.166754 -1.053412 0.003409 0.537346 1.101661 -0.008613 -1.165063 -0.375507 0.721516 -1.222052 2.024985 0.013109 0.386995 -1.478650 -0.808363 0.894059 1.734092 0.299258 0.196516 1.115880 -1.212316 -0.645187 0.135183 -0.253140 0.114844 0.645382 -0.382917 -0.348017 -0.209097 0.321818 -0.480918 1.210431
cd 1.316713 -0.434980 -0.782173 0.949692 0.646400 0.970052 -0.452160 -0.697002 -1.061406 2.039536 0.266378 0.653400 -0.293916 -0.383089 -0.136472 0.806612 -0.827150 -0.607988 -1.071447 -1.189967 -0.116387 0.945871 0.260923 1.075539 -2.053094 -0.564044 0.585581 0.193672 0.983478 -0.243651 1.375546 -0.615693 -1.127948 0.208167 1.754354 -0.261989 0.500457 -0.249820 -0.617485 -1.296271 -0.577023 -0.640528 0.284385 -0.355972 -0.677919 -0.300113 0.104287 0.125840 -1.194969 0.908837
emacs 0.635807 0.062588 -0.204787 0.465061 0.956463 1.207643 0.231021 0.083434 -1.088540 2.043081 -0.713279 -0.138781 0.081029 0.315549 0.885596 0.694897 -0.229853 0.774581 -0.060232 0.456924 1.420648 0.684387 0.440151 1.109423 -1.314643 -1.466681 1.267153 -0.384179 1.228671 -0.565420 1.952537 -1.661279 -0.206377 0.593061 1.887430 0.691289 -1.489184 0.120786 0.435690 -0.107463 0.816496 -0.485123 0.112949 1.142156 -1.048367 -0.991520 0.202617 1.282599 0.033230 1.455683
fg 0.102690 -0.391477 -1.044507 0.955609 0.491984 0.482671 -0.056318 -1.506991 -0.392429 0.666812 -0.863308 0.364544 -0.069432 -0.101167 1.125331 0.598567 -1.694387 0.161109 -1.431775 -0.274618 0.147454 1.307024 0.859987 0.033410 -1.159173 -0.182296 2.051711 0.855687 0.173279 0.595698 0.158981 -0.888426 -0.422232 -0.648444 1.654403 -1.103449 -1.520216 0.317846 -0.193983 0.145168 0.256910 -1.655811 0.360568 0.869146 0.767264 0.317265 -0.424255 0.656923 0.871077 0.101266
rm 0.341199 -0.426719 0.157399 -0.436701 0.640945 1.032880 -0.703515 -0.522182 0.991100 0.840102 -1.480802 -0.028448 0.403692 -0.089175 -0.669347 -0.773309 -0.123711 0.249357 -0.238306 -1.277975 0.047190 0.723479 1.235686 0.431218 -0.700335 -1.081566 0.481298 0.093499 1.278067 -1.320990 0.703252 -1.212161 -0.803211 0.900681 1.797278 0.305430 -0.995037 -0.483500 -0.326705 -0.001179 -0.024886 -1.016558 0.908247 0.007076 -0.858172 -0.338315 0.089072 -0.509437 -0.826255 1.525140
mail 1.367493 -0.866750 -1.197590 0.738264 -0.347126 0.965949 -0.956708 -0.435820 -0.125640 1.051929 -0.680369 0.577641 -0.542506 0.622387 0.609315 0.180241 -0.139634 0.036921 -0.973885 -0.043705 1.593966 0.386122 1.012892 0.581065 -1.492169 0.025386 1.227568 -1.371179 1.206911 -0.478976 0.280856 -0.301216 -1.709526 -0.624836 0.610071 0.833262 -0.849006 0.344561 0.094044 -0.719208 -0.210972 -1.734194 0.517376 0.265265 0.431681 -0.615439 -0.776979 0.080714 -0.410385 0.399103
more 0.324222 -0.033728 0.789733 1.025984 1.026850 0.482277 0.947419 0.280182 0.785940 1.414495 -0.622250 0.668743 0.568713 -0.415802 0.407514 -0.275310 0.280934 -0.059072 0.174668 -0.707782 -0.805766 1.077134 0.007392 0.160483 -1.251788 0.585670 1.135210 -0.813195 0.943263 -0.586131 0.778841 -1.485911 -1.129000 -0.228693 1.272230 0.792760 0.307748 0.401259 -0.662219 0.465376 0.166227 -0.875721 0.855281 -0.835523 0.017715 -0.288951 -0.104565 1.016450 -0.327802 0.643690
lpq -0.102200 -0.699548 0.655937 0.930368 1.235617 -0.543294 -0.977573 0.136379 -1.107213 0.796774 0.343291 -0.010500 1.292395 1.207297 0.936590 -0.664639 -1.069370 -1.118144 -1.238327 -0.439871 0.185590 0.148285 1.447601 0.235013 -0.860926 -0.535394 0.407601 -0.360157 1.016153 -0.532641 0.495453 -0.731484 -0.930100 -1.529322 1.146535 0.342666 0.209645 -0.415488 -0.071939 0.502203 0.824676 -0.834377 0.523297 -0.366309 0.109649 0.186341 -0.781005 0.192403 -0.065645 1.203307
ps 0.476433 0.545870 0.525593 0.714198 0.045787 0.103774 -0.918092 -0.269743 0.436179 0.904718 -0.455778 0.629860 0.894419 -0.371627 0.474554 1.400994 -1.448621 0.476060 -0.889698 -0.494730 -0.253151 0.913911 0.565370 -0.544465 -0.141510 -0.549764 0.747831 0.218031 0.922443 -0.828710 -0.310078 -0.476969 -0.686543 -1.218423 0.735193 0.038217 -1.052122 0.219559 0.142342 -0.769737 0.047389 -0.630255 0.936208 0.228274 -0.332210 0.137780 -0.535633 0.843341 0.689385 1.702758
f 0.220091 -0.459027 -0.684798 2.053340 -0.456940 -0.202246 -0.213778 -0.291939 -0.047410 0.977787 -0.300424 0.573563 0.816989 0.448510 0.623218 0.522731 -0.922648 0.154679 -1.759585 -0.107976 0.582665 0.337600 -0.338401 -0.263195 -0.584881 -0.050169 1.435990 -1.697734 0.279643 0.203261 0.736868 -1.283752 -1.129571 -1.410156 0.711007 -0.269047 -1.114101 0.092288 0.250745 0.267612 0.674078 -1.139474 1.099575 -0.711732 -0.306371 -0.109496 0.182100 -0.448413 0.730423 0.961386
rlogin 0.531710 -0.527218 -0.235117 1.123040 -0.205088 -0.306611 -0.341699 0.455122 -0.624593 0.705491 -0.529020 1.802884 0.261477 -0.140519 0.583663 -0.011463 -0.216291 -0.419734 -1.518685 -0.029663 1.008499 0.455210 0.321855 -0.974659 0.430484 -0.280476 0.884364 -0.003801 1.056027 -0.718360 0.577120 -0.598240 -0.849235 -0.659054 0.886909 0.434080 0.599390 0.642374 0.429231 -0.589580 -0.394860 -2.076571 1.135505 0.654714 -0.735415 -1.030993 -0.971268 -0.404382 0.119528 1.223868
cat 0.429171 0.088042 0.218040 0.050037 -0.202634 -1.014127 0.077660 -0.450935 0.022960 0.540284 -0.282688 -0.591970 -0.583507 0.652048 0.109467 0.500244 -0.596273 0.274492 -0.547564 -0.614366 0.323437 -0.148011 1.564025 0.658755 -1.128334 -0.274987 1.482738 0.193398 1.585746 -1.916338 -0.209018 -1.353929 0.007784 -1.058624 0.984689 -0.177667 -0.440679 -0.048192 -0.311150 0.033894 0.366584 -0.505647 1.493690 -0.962336 -0.505974 -0.449211 0.350842 0.147439 -0.170651 1.237954
who 1.131079 -0.469599 -0.212546 1.044935 0.331170 -0.089054 -0.663051 -0.151743 -0.142663 1.525269 -0.736472 0.857340 0.817301 -0.379035 0.022828 0.504143 -0.291446 -0.440456 0.013042 0.095383 1.113562 0.111812 0.475596 0.556430 -0.279092 0.766412 1.053539 0.465015 0.917594 -0.745815 1.451621 -1.175655 -0.692409 -0.720533 -0.862634 -0.085758 -0.235305 -0.208947 -0.325359 -0.384785 0.743549 -1.591066 0.709587 0.095909 -0.509192 -1.569057 -0.843119 -0.642191 0.071485 0.830169
mv 0.631998 0.331822 -0.379187 0.325034 0.468581 0.783334 -0.462493 -1.129571 0.172121 0.363000 0.363992 -0.667941 0.127640 -0.707180 -0.025945 -0.137307 0.193842 0.153819 -0.806380 -2.062317 -0.330924 1.419114 0.226418 0.566299 -0.735329 0.569259 0.486767 -0.512898 0.061408 -0.847062 0.823358 -1.519434 -0.205672 0.034689 2.087459 -0.378047 -0.591443 -0.061902 -0.171397 -0.305285 -0.582117 -0.985806 0.233981 -0.474532 -1.125572 -0.594530 0.334948 1.079277 0.774275 0.562144
logout 0.895917 -0.112658 -0.351955 1.498027 0.601961 0.161062 0.024010 0.315220 -0.232781 0.793741 -0.734712 0.835062 -0.069928 1.692317 0.798002 0.843557 0.133076 0.200105 -0.170269 -0.340012 0.592645 0.794041 0.841246 -0.073029 -0.272424 0.691755 0.714638 -0.374053 1.518336 -0.396126 0.994033 0.093333 -1.315663 -0.576692 0.708546 0.400296 -0.595412 -0.857110 0.536753 0.041212 -0.520674 -1.220638 1.084907 -0.035700 -0.411283 -0.728672 0.558111 -1.709310 0.363475 0.722249
page 0.660499 0.565903 0.100562 0.514066 -0.443323 1.507564 -0.483824 -0.588924 0.230168 1.138410 0.303755 -0.167123 0.749410 0.124400 0.243511 -0.322944 -1.334749 -0.103593 -1.387353 -0.117085 0.733813 0.282439 1.355551 -0.202581 -0.189659 -0.293106 1.513712 0.281369 0.358908 -0.832085 -0.174752 -1.003180 0.181108 0.101883 1.383045 -0.533949 -0.165763 1.182443 -0.389231 -0.078482 0.415800 -1.162990 -0.271419 1.012353 -0.209596 -0.027195 0.145780 -0.348905 -0.338525 0.522205
man -0.739971 -1.198489 -0.717230 1.260240 0.942814 0.712504 -0.503886 0.359463 -0.004994 1.552768 -0.362803 0.065099 -0.769246 -1.076266 0.425694 0.010174 -1.041669 -0.647794 -0.452595 0.730964 -0.762288 1.132876 0.796875 0.173679 0.458054 0.729904 0.781523 -0.170920 0.656027 -1.089206 0.142041 -1.456860 -1.052185 -0.952003 1.007942 0.683165 0.016155 0.243475 0.380820 0.563932 -0.362741 0.031244 0.123710 0.593968 -0.206999 -0.183064 -0.339689 -0.199097 -0.152558 1.131488
fred -0.222525 -0.030434 -0.087461 0.933684 1.618484 0.438976 0.836370 0.014142 -0.324831 0.840766 -0.039303 -0.616602 0.019943 0.364003 -0.204546 0.307015 0.346901 -0.492256 0.216384 -0.542140 -0.284949 1.472902 0.336915 -0.948720 -0.960792 -1.543461 0.005451 -1.512327 0.499594 -0.354331 -0.692320 -0.096949 -0.520700 0.346551 0.804141 0.690298 -0.485155 -1.550099 1.012622 0.180696 -0.624338 -0.368509 1.687163 -0.524870 1.046058 0.414438 0.857349 -0.032198 0.242690 -0.107287
cp 0.586531 -0.323561 0.965057 -0.376532 1.156940 0.617617 0.010303 -0.372143 -0.002951 1.880882 -0.401169 -0.496940 0.691375 0.099144 -0.569397 -0.641354 0.741450 0.065328 -0.411038 -0.684790 0.475976 -0.265628 0.616191 0.297008 -0.635353 0.161204 1.213139 -0.589102 0.811807 -1.231865 1.208792 -0.828989 -0.261092 -0.166482 1.415979 0.283438 -0.693207 -0.077314 -0.025832 -0.451132 -0.169129 -0.951917 0.621417 -0.294264 0.562875 -1.044144 0.953765 0.699489 0.228030 1.058057
lpr 0.968879 0.633399 0.188601 0.770503 1.195598 0.187108 -0.717044 -0.086621 -0.645765 1.093575 -0.343977 0.006884 0.328271 0.555106 1.067990 -1.410597 -0.571553 0.010515 0.095217 -0.534616 0.472109 0.392700 1.370142 0.435024 -0.661562 -0.802197 0.744766 -0.155233 0.478270 0.170614 0.223453 -0.928321 -0.154662 -0.346993 1.276636 0.039571 0.042089 -0.031509 1.518146 0.026220 0.128904 -1.360116 0.831967 -0.818805 -0.785837 0.682368 -0.727672 0.112448 -0.446485 0.678289
make -0.281420 -0.864883 0.150761 0.437726 0.129852 0.837136 0.140768 0.886595 -0.085861 0.343328 0.963564 -0.297128 0.792953 -0.629670 -0.633629 1.395707 -0.743883 0.137176 0.315558 -0.250807 -0.828385 -0.286939 1.452185 0.122981 -1.679628 -0.734135 0.939405 0.305825 0.266181 0.093905 -0.201841 -1.412712 -0.163066 0.622042 1.282064 0.803274 -0.173728 -0.387411 -0.457395 1.077499 -0.147033 -0.152196 0.934053 0.507521 -0.964278 -0.659967 -0.568283 0.576465 0.831179 0.778017
readnews 0.397868 -0.666841 -0.617222 1.025596 -1.057874 -0.023198 0.167485 -0.376494 -0.380674 0.813686 -0.633284 0.848161 1.187134 0.306302 -0.187675 0.254807 -0.954660 -0.164016 -0.992521 -0.639599 0.139141 1.527391 0.115409 0.873631 -1.135891 -0.220299 -0.259982 -0.791644 1.137874 -1.109380 0.344728 0.168039 -1.097909 -0.782334 0.069172 0.831223 -0.669081 -0.134298 -0.294270 -0.389517 -0.583809 -1.003759 -0.598163 1.102319 -0.084376 -1.254800 -1.487241 0.233027 -0.494759 0.791075
pwd 0.805254 -0.526411 -0.980113 0.003978 -0.597601 -0.350482 -0.359618 -0.479619 -0.676866 1.036080 0.238767 0.545191 -0.029674 -0.289109 -0.253702 0.268731 -0.885458 -0.092940 -0.788590 -0.425058 -0.529544 -0.226944 0.688383 0.463368 -0.718874 0.434434 0.756102 0.145790 0.297689 -0.277273 1.417468 -0.107594 -1.297256 -0.328873 2.081537 0.374600 0.211586 0.520046 0.095139 -0.774957 -0.140434 -0.945931 0.901085 -0.483103 0.012859 -1.239310 -0.788095 0.578576 -0.390216 0.693972
jobs -0.524655 -0.043124 0.445588 0.160925 -0.215335 -0.102838 0.033780 0.053868 0.866601 -0.551704 -0.734543 0.788984 0.303161 0.687381 0.077302 0.690040 -1.041181 -0.191863 -0.692378 0.125404 -0.059867 -0.024442 1.267940 0.423386 -0.597936 -0.424660 1.029062 -0.265819 -0.228954 -0.429047 0.367853 -0.887450 -0.952858 -0.658275 1.226233 -0.646087 -0.511272 -0.290104 -0.538998 -0.682098 -0.896866 -0.810349 1.034812 0.123588 1.538715 0.017391 -0.425795 1.485321 0.151952 1.672415
ean 0.797501 -0.138614 -0.278158 -0.028846 -0.613944 0.689094 -0.156950 -0.350185 0.154922 1.867091 0.263860 0.986097 0.384637 0.094627 0.243697 0.509881 -1.001742 1.158790 0.232433 0.683375 1.301780 -0.371883 0.575815 0.907678 -0.737960 0.047386 0.869820 -0.180956 0.040995 0.076047 0.690402 -0.896109 -0.593330 -0.415538 0.434722 0.633790 -0.306549 -0.298335 -0.082090 -1.006880 -1.388276 -1.554089 0.267113 -0.572802 0.532173 -0.311273 -0.811542 0.129760 -1.581986 0.753737
grep 0.635572 -0.398982 0.204901 0.366435 -0.805288 0.776031 0.521782 -0.232296 -0.369196 0.203861 -0.751854 -0.335195 0.721413 -0.625898 -0.448213 1.332379 -1.464574 -0.864177 -0.228829 -0.498504 0.530021 1.625788 1.044731 0.337099 -1.099850 0.398275 1.052586 -0.643280 -0.282387 -0.394827 0.046640 -0.516967 -0.558884 0.275338 1.258101 -0.450266 0.106565 0.166020 -0.013279 0.047529 0.290753 -1.663620 -0.233145 0.695213 0.499520 -0.900394 0.237937 -1.046085 0.195593 -0.034660
bg -0.197025 0.457471 0.418293 -0.317939 -0.071619 0.373148 0.398700 0.168590 0.951462 1.155419 -0.604003 -0.271367 0.303664 -0.098668 -0.824717 -0.119105 -1.847207 0.273944 0.027746 -0.544087 0.125180 0.769916 1.265451 -0.129364 -0.120658 -1.475420 0.447394 -0.199368 0.382561 -0.587380 -1.207762 -0.176046 -1.139875 -0.309028 0.954056 -1.348192 -0.532817 0.281672 -0.546740 -0.536470 -0.364238 -0.829777 0.351869 1.052207 0.941065 -0.063572 -0.789036 0.260889 0.660633 1.369175
cc 0.775773 -0.704952 -0.543179 0.232034 0.931454 0.557285 -0.222962 -0.406792 0.047340 0.517329 -0.564069 -1.019331 -0.757316 -0.627100 0.389519 1.259772 -0.700173 -1.598478 1.337857 -1.087181 -0.339482 1.504175 -0.112041 -0.460271 0.362829 -0.388877 0.149756 0.754201 -0.653576 -0.599724 -0.367033 -0.334579 0.843449 0.078744 0.614807 0.524885 -0.522536 0.025219 0.641234 0.914787 -0.647741 -0.731688 1.482720 -1.208511 0.599891 -1.344036 -0.932752 0.442807 0.980121 0.013830
ruptime 1.139684 -0.385076 0.636792 1.125241 -0.157509 -0.156898 -0.228102 0.074666 -1.153395 0.997518 -0.970449 1.026606 0.360236 1.112921 0.472833 -0.176163 0.109445 -0.025169 -0.947073 -0.019124 -0.386099 0.203731 0.731662 -0.157190 -0.587679 0.777535 0.478717 0.376314 0.759120 -0.228619 1.010704 0.406714 -0.988390 -0.856677 0.635891 0.072545 1.116043 0.406313 0.787459 -0.449410 -0.260234 -1.730414 -0.127585 1.049881 -0.205175 -0.763013 -0.919451 0.511058 -0.213085 1.071442
rwho 1.352116 -0.368435 0.174586 1.025048 -0.964869 -0.123199 -0.994403 0.171333 -0.420373 0.362630 -1.573333 0.720849 -0.083569 0.910882 0.738406 0.669261 -0.039227 -0.580402 -0.159185 0.070648 0.053537 0.243929 0.567443 0.952039 -1.048523 0.493232 1.409769 -0.320021 0.619613 -0.143639 0.830336 -0.539086 -0.788836 -1.099233 0.040912 -0.235604 0.754688 0.310695 0.314833 -0.008835 0.341124 -1.274936 0.065750 -0.344065 -0.566141 -0.317202 -0.981521 -0.020892 -0.706528 1.140936
tip 0.846433 0.083095 -0.238874 0.955408 -0.857710 -0.494967 -0.964429 -0.072552 0.188399 0.288351 -0.794345 0.512385 0.225900 0.805133 1.110517 1.780369 -0.354614 -0.905437 -0.994072 -0.128124 0.590828 0.600494 0.229294 0.240777 0.416474 1.007476 1.032718 -0.323653 0.487230 -1.057318 0.700789 -0.172069 -0.636558 -1.608316 0.049974 0.089898 -0.445476 -0.210907 0.748398 0.353592 0.971342 -0.914090 1.028924 -0.317584 -0.575960 -1.048906 -0.121713 -0.865429 0.768182 0.747829
kill 0.593029 0.395797 0.605366 0.713575 0.365144 0.840573 -1.034678 0.000601 0.747033 0.214173 -0.215736 0.687590 0.147049 0.139972 0.464583 1.815337 -1.005576 0.376368 -0.591641 -0.194773 0.010991 0.876908 1.090446 -0.356013 0.338020 -0.109156 -0.022170 0.643472 0.150007 -1.125485 -0.069467 -0.963119 0.394771 -0.551217 0.391304 0.659889 -0.491520 -0.322242 0.361537 -0.623095 -1.042025 -0.650858 0.916694 -0.268969 0.185208 -0.204632 -0.359444 1.226978 0.358462 1.419441
average 0.218452 -0.438802 0.040282 -0.284634 -0.853768 0.140233 -0.077129 0.127926 -0.387646 -0.583703 -0.515343 0.636677 -0.645049 0.705240 -0.175499 0.205806 1.293008 0.365212 0.564856 0.788114 0.183447 -0.469444 -0.477430 0.274754 0.131288 -0.120876 -0.349864 -0.489115 0.157746 1.250401 -0.417477 0.890058 -0.312480 0.825426 -0.591191 0.126041 0.717512 0.517486 -0.255172 0.189666 -0.062941 0.619185 -1.280695 0.709399 -0.050814 0.411617 -0.031095 -0.347725 -0.552044 -0.155187
set 0.135120 -1.231309 -0.456913 0.900432 0.037987 0.760741 0.852399 0.285314 -0.296992 -0.721688 -0.110140 0.518981 -0.253245 0.079623 0.365751 -0.162372 -0.981576 0.570923 0.262076 0.370754 1.343981 0.500340 0.314117 -1.264260 -0.904916 -0.016211 0.710220 -0.138559 0.446585 -0.822880 1.192744 -0.642555 -0.198530 -1.301012 0.733872 0.631128 0.790193 0.728503 -0.231476 -0.813914 -0.570124 -1.181586 0.193171 -0.103093 0.797252 0.206180 0.416357 -0.337050 -0.585691 0.210122
roff 0.356790 0.257169 0.741547 -0.781466 0.336238 0.572336 -0.864148 0.076014 -0.635465 1.712871 0.910833 -0.538569 0.737536 0.015072 -0.287874 0.475039 -1.332107 0.362919 -0.185166 -0.090497 1.441519 0.021690 0.857876 0.376539 -0.328139 -0.629523 -0.453545 -0.789523 0.502659 -1.122472 0.382927 -0.615283 -0.391627 -0.030079 0.514378 0.625171 -0.522795 -0.498073 -0.362694 -1.416167 0.126806 -0.660919 -0.206723 -0.132112 0.267741 -0.296123 -0.713990 0.519517 -0.853312 1.091373
clear 1.604884 -0.949385 0.237544 1.277279 -0.534383 0.209909 -0.397977 0.031991 -0.030354 -0.293722 -1.578507 0.194601 -0.532245 0.923071 0.496815 -0.500568 -0.231178 -0.937144 -0.388426 -0.746583 -0.449579 0.550073 0.649136 0.615616 -0.872004 0.557481 0.375049 -0.252333 0.087658 -0.621125 0.802962 -0.047155 -0.564698 -1.095870 0.473726 -0.240311 0.824034 1.038396 0.670066 0.188185 0.715404 -1.076855 -0.151514 -0.274601 -0.264999 -0.308643 -0.786581 0.305620 -0.294006 0.915633
a.out 0.813879 -0.568402 0.062323 -0.175732 0.805335 0.094576 0.710168 -1.045910 0.767010 0.723884 -1.242685 -0.876729 -0.685707 0.054690 0.317834 -0.036989 -0.418466 -1.134575 0.657131 -0.189054 0.582052 0.743460 -0.462688 -0.491579 0.683658 -1.584424 -0.131487 0.888678 0.009585 -0.909850 -0.328729 -0.237607 0.597398 0.431325 0.565045 -0.112714 -0.418872 0.372347 0.176065 -0.016827 -1.167659 -0.879002 1.285474 -0.376309 0.760073 -1.210077 -0.106157 0.382686 0.605671 1.062081
du -0.454102 -0.605015 -0.574087 -0.155786 -0.533676 0.363089 -0.826903 -0.583348 -0.273639 0.685529 -0.590690 0.428928 0.358870 0.061382 -0.825597 -0.153417 0.323520 0.026462 -0.686673 -1.242799 -1.570323 0.953696 -0.343116 -0.349498 -0.746013 -0.586952 1.272899 -0.354224 1.415189 0.191857 0.769681 -0.360111 -1.534628 0.085532 1.508998 -0.736261 -0.458100 0.552321 -1.929506 0.223346 -0.013519 -0.218167 0.068860 0.000538 -0.853078 0.095056 0.397646 -0.547371 0.151507 1.129741
vnews 0.584538 -0.059898 -0.450463 1.586247 -0.669461 0.240958 0.779186 -0.360868 -0.131511 0.554647 -0.331326 0.536985 -0.051280 0.728059 0.557319 1.051957 0.097313 1.513034 -0.588956 -0.079403 -0.878935 0.785912 0.154585 0.597312 -1.138124 0.812040 1.142141 -0.555720 0.881794 0.296641 0.109432 -0.552174 -0.656605 -1.423023 0.342811 -0.566477 -0.336154 -0.219074 -0.242806 0.548212 -0.332207 -0.272676 -0.250842 0.863384 -0.733964 0.030553 0.712410 -0.407752 0.769686 0.597727
setenv 0.556193 -0.183210 -0.317024 0.353227 -0.119234 0.437621 0.410327 -0.072943 -0.290433 -0.674840 -0.516605 0.886265 0.176190 0.315595 0.738359 -1.063259 0.308331 0.926437 -0.255082 -0.759470 0.942994 1.421209 0.261133 -0.025864 -0.700186 -0.466021 0.404540 0.061496 1.145115 -0.841362 0.629922 -0.667749 0.468985 -1.615144 0.542097 0.216012 0.877183 0.209547 0.174799 0.050854 -0.856765 -1.243440 -0.524930 0.427921 -0.874411 0.131584 0.040802 -0.416217 -0.176240 0.209877
ftp 0.085045 -0.107913 0.284036 -0.117383 0.274307 0.021434 -0.520662 0.075865 -0.441810 0.543294 -0.323065 0.726794 -0.466267 0.514523 -0.361505 -0.855884 0.321159 -0.114430 -0.983563 -0.647693 0.414589 0.421472 1.200301 -0.569561 0.459732 -0.190579 0.316224 0.507007 0.985781 -0.597498 0.027148 0.026852 -0.976098 0.668021 1.756501 0.547220 0.262586 0.424036 0.257312 -0.351777 -0.825739 -1.429259 0.999825 0.210399 -0.862913 -1.105878 -0.900287 0.171665 0.462865 0.817327
date 0.694005 -0.469336 0.300722 1.030277 -0.513297 0.441121 -0.350052 -0.175984 -0.148451 1.785871 0.005369 0.065353 0.485219 0.226347 0.451267 0.302839 -0.572882 0.919423 -0.333855 -0.011291 -0.421073 -0.111958 0.103166 0.271042 -0.787279 0.232021 0.886818 -0.514843 0.288461 0.135674 0.545218 -0.863361 -0.799427 -1.254103 0.065293 -0.300682 -0.175296 -0.267617 -0.563812 -0.245477 0.381511 -0.579127 0.396066 -0.202842 -0.718900 0.270766 -0.591459 -0.263322 -0.722601 1.310913
wc 0.339706 0.329775 -0.011217 0.563592 1.496889 0.345264 -0.388835 -0.719041 -0.653463 1.402139 -0.369126 -0.580692 0.796794 -0.116486 -0.443886 -0.181581 -0.111843 -0.699338 -0.934884 -0.231279 -0.283243 0.215048 1.357756 0.859995 -0.704182 0.943155 0.836008 0.606037 0.715740 -0.602653 0.103624 -0.434876 -0.310908 0.151000 0.191735 -0.900222 -1.396484 -0.541023 -0.064363 -0.005190 1.405862 -0.324179 0.476738 0.826671 0.633553 -0.407495 0.407666 0.362918 0.631121 -0.397988
life -0.459048 -0.182234 -0.162140 -0.726294 -0.239362 1.032539 -0.072307 -0.142902 0.159082 -0.145789 -0.605435 -0.031270 1.648313 -0.531045 -0.893752 -0.213940 -1.086198 -0.466641 -0.277421 -0.539972 0.358752 1.051482 0.837908 0.544052 -1.158813 -1.033650 0.482152 0.181127 0.086238 -0.614360 -0.785822 0.704223 -0.446966 0.492177 0.357536 -0.216308 -1.641222 -0.355732 -0.663486 -0.429419 -0.340742 -0.642175 -0.435921 1.712118 1.132575 -0.213636 -0.794066 0.439764 -0.139105 -0.375065
tail 0.240631 0.225043 -0.329015 0.189357 -0.323593 0.579425 -0.054685 -0.037204 0.304433 0.672681 -0.886313 -0.820108 -0.248202 -0.592039 -0.465403 0.132055 -1.544730 0.336503 0.236264 -0.131633 -0.433986 0.904904 1.533679 0.066327 -1.190814 0.242161 0.998000 -0.562265 0.642735 -0.427524 -0.545526 -0.198992 -1.361876 -0.857888 0.966965 -1.189939 -0.130556 0.344550 0.038668 -0.510600 1.135997 -0.483512 -0.068003 1.044329 0.661237 0.552309 -0.006817 -0.156089 0.451155 0.290296
\ìs 0.263537 -0.083478 -0.145720 -0.546593 0.059820 0.733958 -0.238549 -0.551628 -0.192825 1.506266 1.182865 0.120265 0.650816 -0.485910 -0.357261 -0.623618 0.272972 0.514823 0.310781 -0.329168 -0.274452 -0.853395 -0.236277 0.621365 -0.896959 -0.134692 1.052641 0.112277 -0.300677 1.182466 0.569542 -0.862585 0.269394 0.655069 1.295307 0.318813 0.251415 0.200031 -0.503378 0.418343 -0.634510 -0.281697 0.244608 -1.537691 -0.009777 0.137950 0.339824 0.307133 -1.094690 -0.286414
mkdir 0.419895 -0.324073 -0.322736 0.201358 -0.080336 0.455127 -0.740136 -0.488838 -0.147217 0.916952 0.129621 0.155209 0.011499 -0.075904 -0.292786 -0.290748 0.770672 0.043006 -1.168735 -1.319469 -0.331757 0.218377 0.462643 0.859899 -0.815994 0.901011 1.012915 -0.495253 0.781707 -0.524375 1.060222 -0.668905 -0.665626 -0.189571 2.154198 0.278532 -0.151181 -0.020228 -0.288799 -0.259357 -1.230196 -0.466671 -0.109832 -0.302602 -0.645572 -0.916513 0.542499 0.247032 -0.065002 0.565949
pix 0.592812 0.750564 0.838858 -0.282230 0.514156 0.268001 0.258058 0.196724 0.166667 0.696940 0.118162 -0.644089 0.664911 0.157299 0.717718 -0.290418 1.246594 0.569526 1.066086 0.229313 0.822133 -0.126102 -0.043234 0.665496 -0.416992 -0.087876 0.896141 -0.445274 0.906677 -0.458840 0.672144 -1.523821 0.999981 0.742753 0.039116 0.987910 -0.673689 0.020892 -0.626627 1.115074 0.785699 0.141795 0.095442 -0.129223 -1.221895 -0.776991 0.202989 0.181811 0.011948 0.016567
pushd 0.242666 -0.962848 -0.352908 0.151702 -0.571102 0.148591 0.957205 -0.487880 -0.673063 0.929496 0.475491 0.668178 0.897988 -0.434341 -0.393702 -0.357848 -0.076639 0.477165 -1.162245 -0.187260 -0.650062 -0.220648 0.040225 0.228837 -0.581733 -0.384415 1.613038 0.370304 -0.025195 0.363622 -0.001419 -0.662073 0.107258 -0.030598 1.643607 0.080894 -0.203957 1.303503 -0.549101 0.886245 -1.022827 -1.169698 0.463580 0.231141 0.666804 -1.023424 0.614187 0.597852 0.248128 0.040414
/usr/local/bin/emacs 0.919985 -0.284522 1.341402 0.559231 0.913924 0.199763 -0.069054 -0.288220 -0.980992 0.724557 -0.762540 -0.066575 -0.336964 0.377037 0.668939 -0.367292 0.621903 -1.271878 0.544387 -0.392596 0.268111 0.741636 -0.635832 0.062188 -0.124472 -0.161035 -0.116960 0.256836 0.293683 -0.311553 0.760318 -0.334963 1.187369 -0.272278 -0.255964 0.182250 1.641057 0.755619 0.001788 0.426802 0.106337 -0.545559 -0.425250 -1.186059 -0.341968 0.087227 -0.497450 0.403231 -0.779503 0.252159
spell 0.273416 -0.044671 0.743101 0.187018 1.331954 -1.373443 0.479929 -0.391232 -0.592216 1.651496 0.502416 -0.602337 0.919469 0.284327 -0.632926 -0.165479 0.366505 -0.684856 -0.754127 0.115399 0.013864 -0.668069 0.164533 -0.147129 -0.195256 -0.359170 -0.163612 -0.434550 0.631355 -1.055046 0.530966 -0.284587 -0.286698 -0.376770 -0.410781 0.056427 -0.697656 -1.235176 0.308901 -0.482867 0.786509 0.040563 1.357805 -0.027929 0.836031 -1.041537 0.662708 0.591302 0.444608 0.716976
dbx -0.599815 -0.946790 -0.691907 -0.464394 0.050289 0.901359 -0.567451 -0.191769 -0.073152 0.318774 -0.990436 -0.110453 0.757572 -0.773078 -0.371218 0.497865 -0.584021 -0.861974 0.384925 -0.329905 -0.324719 1.137662 0.129723 0.041669 -0.991608 -1.307288 0.791477 0.262097 0.711951 -0.269117 -0.998384 0.563047 -0.487663 0.668823 0.431816 0.505606 -1.931607 -0.351464 -0.779760 0.207262 -0.570075 0.148562 0.242748 1.368414 0.515799 -0.302950 -0.748165 0.234810 -0.123263 -0.322933
w 1.133548 0.375068 -0.619841 0.215667 -0.471221 -0.327624 -1.688194 0.249521 -0.014920 0.624816 -0.764172 0.603284 0.005049 -0.132121 0.759392 -0.398799 -0.939553 -0.326072 -0.107854 -0.265486 -0.310233 -0.615651 0.995553 0.861341 -0.565625 0.423189 0.982359 0.683749 -0.018351 0.361474 0.072127 0.108498 -1.048361 -0.734281 -0.065105 -0.770317 0.184174 0.602874 0.769655 -0.336928 1.078643 -0.957617 0.448045 0.128805 -0.410645 0.240933 -1.744985 0.214807 -0.486339 0.280470
dpic -1.212697 -0.434421 0.152379 0.617652 2.534763 0.104826 0.234090 -0.504510 -0.889628 0.362841 -0.141315 -0.667297 0.594877 0.514273 0.779179 -0.542615 -0.295336 -1.084298 -0.461351 -0.218136 -1.270065 0.746517 0.620147 0.233205 -0.871657 0.044147 0.075268 0.857089 0.468269 0.671460 0.613005 0.155167 -0.570252 0.055948 1.097487 -0.749025 -0.115489 -1.279520 -0.164005 0.942153 1.475378 0.265215 -0.216323 0.492661 0.366307 1.178553 0.292251 -0.342397 0.105680 -0.318087
quota 0.156566 -1.036494 -0.509225 0.144887 -0.681334 0.338900 -0.375530 -0.730400 -0.533433 1.383149 -0.173527 0.475524 0.348085 0.345360 -1.301332 0.196408 -0.028038 0.266320 -0.819534 -0.284134 -0.543159 -0.041271 -0.112032 -0.123333 -0.066627 -1.029571 0.671404 0.100124 0.755333 0.374200 0.400887 -0.120063 -0.963500 0.153479 0.646605 -0.779111 -0.174006 0.310155 -1.387951 -0.043026 -0.273994 -0.687091 0.336845 0.466002 -0.084290 -0.908042 -0.141063 -0.220381 0.755134 1.587205
alias -0.321693 -0.120281 0.302800 0.329494 0.781407 -0.834488 1.021961 -0.105828 0.143029 -0.933871 -0.437449 -0.627410 -0.268956 0.082331 0.046207 -0.095885 -1.655511 0.040281 -0.232061 -0.659905 0.342721 0.716756 0.782779 -1.048887 -0.357275 -0.012349 -0.232513 -0.194551 0.575850 -0.924907 0.570215 -0.673856 -0.601676 -0.380812 1.765650 -0.123223 0.099147 0.307209 0.807222 -0.298436 0.700011 -0.704274 0.842039 -1.100521 0.117937 0.099515 0.777546 -0.465063 0.559040 0.832444
ar -0.372700 -0.736919 0.815751 -0.621212 1.297378 0.253104 -0.440948 -0.418159 0.279636 1.477240 -0.258836 -0.438516 0.352742 -0.901901 -1.314124 -1.231433 1.035688 -0.992533 -0.476770 -0.323328 -1.223511 0.004063 0.076892 -0.472698 0.186787 0.075933 -0.479316 -0.175320 0.959069 -1.380856 0.920844 -0.714187 -0.563336 0.536786 0.777606 0.957618 0.378895 -0.517243 -0.405879 -0.163043 0.029333 0.253671 0.471696 -0.529092 -0.170381 -0.317155 0.407505 0.175543 -0.550336 1.059329
chmod -0.259140 -0.646469 -0.766103 0.085299 0.410558 0.124101 -0.573256 -0.419051 0.138165 -0.157361 0.291801 -0.782467 -1.111785 -0.473144 0.093291 -0.301066 -0.440206 0.467244 -0.251637 -0.608600 0.116575 -0.421326 0.852745 0.108711 -0.065458 1.553074 0.163367 -0.034554 0.213138 -1.071102 0.954726 -0.893375 -0.255127 -0.020645 1.739455 0.149989 -0.221243 1.090919 -0.201247 -0.489002 -0.601914 0.020010 -0.006687 -0.635797 0.213075 -0.574670 0.194396 0.491203 0.174101 0.480973
/bin/rm -0.350683 -0.482683 -0.525013 0.019760 -0.534242 0.673266 -0.808237 -0.887233 -0.469593 0.588414 0.491160 0.098923 0.108027 -0.405779 -0.563697 0.000405 0.163033 0.560824 -0.789823 -0.584071 -1.242642 0.630908 -0.523429 -1.077445 -0.352441 -0.487112 0.996367 -0.339741 0.752244 0.274825 0.535966 -0.727409 -0.563580 -0.187679 1.526934 -0.218436 0.415652 0.624328 -1.379017 0.143607 -0.273570 0.003435 0.058996 -0.213739 -0.750436 0.427176 0.623235 0.094468 0.357303 0.886700
history 1.048715 -0.234003 0.478331 0.039027 1.377114 -0.333309 0.096184 -0.388041 -0.756857 1.300544 0.040087 -0.393125 0.656829 0.388319 -0.128815 -0.570360 0.166212 -0.710968 -0.089948 -0.207050 0.252848 -0.132730 0.512234 0.045044 -0.072704 0.585770 0.410601 0.834468 0.553374 -0.745319 1.304517 -0.827753 -0.148797 -0.267298 0.425088 -0.540463 -0.058340 0.178625 -0.040963 0.236520 1.395071 -0.783218 0.575470 0.211271 0.530896 -1.501197 0.222708 0.599776 0.837361 0.565764
su 0.955620 0.391362 -0.964023 0.024227 -0.536552 -0.144435 -1.650560 0.403351 -0.102177 0.382835 -0.282994 0.381725 -0.489572 0.067871 0.698928 -0.535234 -0.728112 -0.209601 -0.431432 -0.369282 -0.471979 -0.967621 0.888883 0.274991 -0.528549 0.188217 0.901632 -0.158270 -0.058432 0.375221 0.840869 0.346077 -1.433030 -0.371385 1.238940 -0.612167 0.401521 0.900865 0.855153 -0.836610 0.916688 -0.467184 0.657488 -0.250734 -0.350738 0.272855 -0.777542 0.206877 -0.369671 0.556240
limits -0.518894 0.025610 0.007953 -0.191797 0.563299 0.283247 -0.526018 0.196095 0.178685 0.608782 -0.669526 1.103407 1.164137 -0.188405 -0.519046 -0.784774 -0.305706 0.018926 -0.189088 -1.229493 -0.244713 0.765968 0.516930 -0.378079 -0.283046 -0.148030 1.038986 0.390015 1.089758 0.585612 0.447257 0.284372 -1.346016 0.592438 1.274853 -0.584244 -1.073249 0.272743 -1.020943 -0.376344 -0.528269 -0.907886 0.097327 0.740669 -0.200133 -0.041540 -0.200771 -0.876798 0.081025 0.080249
itroff 0.240117 -0.467104 0.440401 0.397007 1.886806 -0.051429 -0.323296 -0.098884 -1.087426 2.126888 0.232332 -0.112390 0.764894 0.705444 -0.347996 -0.494288 0.484011 -0.692101 -0.295170 0.198728 0.049589 -0.438370 0.404091 0.207026 -0.005341 -0.205116 -0.209091 -0.151657 0.575292 -0.182399 0.438521 0.009621 -0.748989 -0.104542 -0.231755 0.281532 -0.513453 -0.808780 0.521113 0.254565 0.565954 -0.401298 0.680879 -0.123309 0.912240 -0.671786 0.044659 0.469949 0.268305 0.312849
pr -0.434086 -0.031251 0.258875 -0.041624 1.111640 0.285484 -0.606206 -0.583697 -0.746883 0.036149 -0.301132 0.656712 -0.047610 1.063549 1.056328 -0.169054 0.697922 -1.199541 -1.255615 -0.943945 0.847384 1.498529 0.324517 1.264472 -0.038790 0.287176 0.188634 -0.068374 0.635383 -0.445753 0.207175 -0.249898 -0.063649 -0.675070 0.526830 -0.231312 0.017003 -0.076310 -0.328633 1.141523 0.564458 -0.409955 -0.715051 -0.147815 0.005742 0.086833 0.083659 -0.129344 0.078503 -0.450622
pi 0.637005 1.418428 0.307060 0.717902 0.957218 -0.181623 0.046558 -0.529023 -0.467633 0.106528 0.515527 -0.972240 -0.425102 0.170650 -0.552212 -0.508297 0.909568 0.401036 -0.769835 -0.167188 -0.188513 0.145002 0.727762 -0.535764 -0.602712 -0.134191 0.008325 -0.338667 0.316717 -0.943173 -0.349763 -0.250331 1.094015 0.313490 -0.303637 -0.330419 -0.539640 -1.355731 1.125748 -1.016597 0.157377 0.322211 0.906296 -0.293577 -0.328942 0.735957 1.886502 0.489290 0.010041 -0.472298
exit 0.185459 -0.740608 0.123628 0.449738 -0.494215 0.048059 -0.479295 0.619696 0.017723 -0.685127 -0.426324 0.570400 0.413488 0.730417 0.390865 0.089223 0.051813 -0.005920 -0.581911 -0.722878 -0.087665 0.609174 0.806526 1.161987 -1.124753 -0.323227 -0.805350 -0.530486 1.194801 -0.815604 0.132393 -0.221171 -0.312038 -0.592842 -0.037436 1.186094 0.052929 -0.518863 -0.322086 0.435086 -0.481672 -0.011455 -0.860053 0.764019 -0.964916 -0.508087 -1.260941 0.664589 -0.337683 0.892632
source -0.751901 -0.234691 -0.256713 0.128503 0.239135 -0.594394 0.697230 0.434413 -0.378580 -0.914919 0.384992 0.480020 -0.147935 0.043493 0.099867 -0.014664 -1.102662 0.602465 -0.208364 -0.319595 0.361768 0.359412 0.077659 -0.887380 -0.905987 0.253765 0.005720 0.506780 1.151684 -0.656499 1.613948 -0.587415 -0.623491 -0.391447 1.252369 0.316425 0.425286 0.425471 -0.623471 -0.673283 -0.090037 -0.221907 0.035794 -0.669295 -1.028199 -0.114539 0.251315 -0.503584 -0.054864 0.875799
lprm -0.232133 0.408773 0.524097 1.199098 1.379261 -0.110943 -0.910062 0.156713 -0.584070 1.307701 0.754411 -0.153724 0.523197 1.236261 0.860668 -0.322894 -1.580410 -0.387585 -1.057920 0.221156 -0.615251 -0.298201 1.862956 -0.010882 0.034023 -0.047844 0.173370 0.318143 0.336617 -0.062441 -0.315893 -0.380969 -0.493641 -0.735299 0.841229 0.033651 -0.097572 -0.607188 0.480867 0.284616 0.355971 -0.391821 0.788235 -0.310896 0.244510 0.942074 -0.833006 0.240061 -0.173749 0.859518
s -0.288261 -0.174215 -0.088351 -0.049062 -0.118495 0.344823 -0.148746 -0.438657 -0.889771 -0.107142 0.254349 0.895972 0.594014 0.057526 -0.135238 -1.379467 0.518638 -0.258704 -1.438243 -0.274093 0.164853 0.288830 -0.249015 -1.172372 0.311403 -0.441959 0.560400 0.168319 0.264929 0.092541 0.015866 0.129963 0.326835 -0.115686 0.550297 -0.280515 0.755273 0.994600 -0.437837 0.029183 -0.274864 -0.829864 -0.477993 0.621379 0.287248 0.422132 0.512071 -0.309600 -0.200180 -0.520231
kermit 0.256363 0.239715 -0.326936 -0.382758 -0.717226 0.376904 -0.480368 -0.474328 0.372482 0.719100 -0.347517 1.444293 -1.092987 0.135954 0.663715 1.088183 1.051067 -0.378416 -1.169630 -0.569678 1.379387 0.343688 -0.178729 0.720591 0.884351 0.891846 0.715901 -0.263298 0.467383 -0.503270 -0.054722 -0.109088 -0.797196 0.074894 0.728971 0.231485 0.224541 0.585235 0.052666 0.161682 -0.356682 -0.622589 -0.051464 -0.118700 -0.882442 -0.734740 0.048437 -0.548666 -0.017809 0.190548
/usr/ucb/mail 0.797407 0.134490 0.454745 0.731222 0.038798 -0.057073 -1.021026 0.472719 0.579870 1.515088 -0.092245 1.335416 0.231256 -1.218050 0.212253 0.303343 -0.012335 -0.169297 0.792608 0.679038 -0.011771 -0.595214 -0.424305 0.291434 0.568315 0.220615 0.270253 0.432875 0.153567 0.208092 0.757451 -1.353329 0.123396 0.040024 -1.317669 0.390473 0.807339 0.294392 -0.190626 -0.480689 -0.011064 -0.155620 0.565281 -0.504875 -1.297174 -0.082779 -1.384439 0.124211 -0.991131 1.082666
sim 0.506459 0.363980 -0.117927 1.045149 1.195526 0.587985 0.200362 0.388072 0.126301 0.426541 0.064629 0.262530 0.223116 -0.821728 0.387496 1.139799 -0.133538 0.757406 1.180760 -0.099654 -0.611694 0.422925 0.352604 0.061160 -0.282943 -0.091600 0.194489 0.943557 0.131919 1.039616 0.043481 -0.583953 0.415017 0.894837 -0.217067 0.602005 -0.733689 -0.464936 0.532934 0.582674 -0.002218 0.053291 0.496192 0.475509 -1.343889 -0.133583 -0.413810 0.250712 0.957214 -0.300771
obj 0.725206 1.187636 -0.013130 1.026175 0.901472 0.360121 0.178291 -0.768398 -0.416288 -0.170200 -0.039005 -0.463219 -0.557084 0.341118 -0.347434 -0.259697 0.376459 0.165742 -1.167426 -0.165662 -0.052728 0.555351 1.285279 -0.351391 -0.486813 0.122640 0.346176 -0.161710 -0.033628 -0.742605 -0.415447 -0.182498 1.026286 0.265522 0.137430 -0.747085 -0.681916 -0.903158 1.132220 -1.048300 -0.212006 -0.308740 0.681982 0.164114 0.717621 0.646179 1.695058 0.680350 0.143960 -0.648098
hol 0.330264 0.477260 0.136001 -0.920340 -0.706359 1.177713 -0.698832 0.164435 0.930379 0.400513 -0.186365 -0.210466 0.384170 -0.241351 -0.352179 -0.011459 -0.118341 0.959830 0.305893 -0.155391 0.712415 -0.272729 0.293321 0.354355 -0.220462 -1.603737 0.127575 0.087201 0.199696 -0.454973 -0.245961 -0.420947 0.154672 0.772019 0.069825 0.358925 -0.989717 -0.479367 -0.214162 -0.390250 -0.538458 0.054156 0.209891 0.570683 -1.085054 0.171624 -0.201690 -0.259058 -0.825324 0.814083
pc -0.278573 0.261564 1.242130 -1.499356 -0.463777 0.076451 -0.546147 -0.276096 1.285538 -0.225014 -0.663418 -0.614694 0.517869 -0.128640 -0.458303 -0.004520 0.123702 0.533836 0.235571 0.260793 0.954338 -0.995110 0.598013 0.093202 0.395361 -1.189228 0.238007 -0.201511 0.326659 -1.120915 -0.447399 -0.571968 0.177940 0.235207 0.306970 0.353594 -0.733867 -0.155477 -0.301062 -0.685494 -0.198406 0.079408 0.303273 0.571483 0.073125 -0.298386 -0.168580 0.797187 -0.022635 1.561527
yes 0.079823 0.012704 -0.477108 0.829953 -0.617765 0.818935 -0.779857 -1.009423 0.153774 0.503725 0.203024 -0.238895 -0.006059 -0.289198 -0.068718 0.976898 0.549257 0.532507 -0.749669 -0.712740 -1.253126 0.849786 -0.718894 -0.164731 -0.505543 0.096377 0.868153 -1.289004 0.132663 0.449487 0.142048 -0.836358 -0.531720 0.027266 0.990956 -0.107892 -0.683353 0.290674 -0.973297 0.390625 -0.265677 0.291297 -0.214190 -0.199520 -0.750680 0.191288 0.484108 0.979029 0.890851 0.699520
ptroff 0.368571 0.546383 1.227349 0.299025 0.799929 -0.035035 0.033690 -0.142118 0.361452 0.658939 -0.601106 -0.157693 -0.074127 1.156172 -0.262019 0.200913 1.779563 -0.138661 0.122176 -0.144198 -0.157025 0.334726 0.235512 -0.778193 0.077948 0.494651 0.045777 -1.638403 0.973221 -0.584626 -0.666189 0.444653 -0.492411 -0.089376 -0.254301 0.927228 0.037281 -0.771364 0.400327 -0.126337 -0.094952 -0.121839 0.763175 -0.735003 0.926276 0.048185 1.082015 -0.278480 -0.026316 -0.033599
rmdir -0.005766 -0.462023 -0.796636 -0.353694 -0.420931 0.640053 -1.164286 -0.613073 0.235603 0.666209 -0.040854 -0.244485 -0.507129 -0.729326 -1.399347 -0.579908 0.710814 -0.380137 -0.681784 -1.336155 -1.347319 0.213531 -0.148322 0.323211 -0.351616 0.180529 0.021707 -0.327799 0.235596 -0.276566 0.870708 -0.049203 -0.798848 0.841210 1.720562 -0.129076 0.446635 -0.017811 -0.589377 -0.337384 -0.909755 0.340854 -0.133259 -0.427540 -0.867063 -0.339522 0.309830 -0.234547 -0.644192 0.750509
e 0.391349 0.111127 0.409122 0.122653 -0.438753 -0.303573 -0.486322 -0.535915 -0.949054 -0.422040 0.034044 0.356572 0.008198 0.470867 -0.051163 -0.038764 -0.351728 -0.234027 -1.500833 -0.905196 -0.653874 1.033243 0.232533 -0.010075 0.115880 0.062814 -1.098719 0.760457 0.319024 -0.888713 0.234236 0.894114 0.144369 -0.296247 0.946111 0.587006 0.561892 0.502475 0.517271 -0.609212 -0.428422 -0.273876 -0.763567 0.261952 -0.837295 -0.413555 -1.096720 1.157707 -0.053538 0.637932
~grant/bin/pdpas -0.357637 0.524837 0.682098 -0.612933 1.325204 0.845919 -0.280380 0.011506 -0.466867 0.366715 -0.168728 -0.809311 0.540924 0.384961 0.439221 -1.103461 0.270824 0.020647 0.625252 0.168411 0.612263 0.535549 0.196094 -0.287846 0.196516 -1.305048 -0.064067 -0.086130 0.168001 -0.175210 -0.089817 -0.486889 0.879756 0.354523 0.363982 0.332021 -0.210599 -0.302206 0.591211 0.775141 0.488945 -0.058708 -0.297377 0.176362 0.204769 0.601673 0.278139 0.268991 -0.030030 -0.037099
nroff 0.077540 0.375386 1.423398 -0.060104 1.118478 0.670746 0.196785 0.610488 0.057229 1.183596 -0.548720 -0.051816 -0.157616 0.334605 0.528691 -0.620159 -0.286921 -0.490575 0.419036 0.168760 0.708062 0.149027 0.783484 0.576689 -0.353343 -0.300126 0.556864 -0.415413 0.001523 -0.800337 -0.015833 -0.862545 0.121915 0.190854 0.516091 0.176872 0.744915 0.568826 0.030641 -0.068511 0.519148 -0.622703 0.375889 -0.757053 0.808759 0.419538 -0.243369 1.090659 -0.873941 0.410864
enscript 0.205998 -0.150413 0.158597 0.023332 0.521229 -0.596003 -0.830780 -0.504852 -0.942836 0.257953 1.139897 -0.769535 0.765185 0.211666 -0.294061 -0.680905 -0.962080 0.154785 -0.906846 -0.824108 -0.202021 -0.075144 1.083397 0.462718 -0.343459 0.131628 -1.193678 -0.339741 0.251269 -0.410668 0.518716 0.041754 -0.437968 0.088401 1.349077 1.077605 -0.289210 -0.394524 0.623172 -0.399649 0.096426 -0.244689 -0.311070 -0.336421 -0.323506 -0.362343 -1.002633 0.796700 -0.293798 0.552921
popd 0.061506 -0.396029 -0.160021 0.469393 -0.605602 0.052625 0.534761 -0.520415 -0.474962 0.643199 0.161978 0.617348 0.888507 -0.179063 -0.271829 -0.064694 0.159175 0.099756 -1.310580 -0.294364 -0.848033 0.208506 -0.308616 0.235663 -0.467608 -0.014764 1.226068 -0.651982 -0.127517 0.418325 0.409898 -0.446988 -0.395019 -0.367808 1.252504 -0.334950 -0.092451 0.769622 -0.665320 0.448686 -0.152089 -0.866159 0.282719 0.078594 0.605282 -0.505515 0.381218 0.581879 0.597670 0.225228
shell 0.890946 0.030654 0.500201 -0.303476 0.093593 0.141105 -0.089809 0.170307 -0.332380 0.403411 -0.839586 0.010612 -0.736243 0.145101 0.154861 -0.166677 1.464981 -0.647087 0.898583 -0.053205 0.468822 -0.291196 -0.686567 0.479070 -0.360037 -0.164285 -0.218638 0.120739 0.357681 -0.412474 0.892253 0.200513 0.598442 0.539179 -0.672464 0.312399 1.217545 0.062744 0.023599 -0.363728 -0.415385 -0.091843 -0.242385 -0.332525 -0.762660 -0.377155 -0.130059 0.110101 -1.080163 0.118165
ac -0.053102 0.163634 0.035771 -0.914458 -0.406531 0.727734 0.648145 -0.395479 0.109376 -0.899316 -0.508856 0.418705 0.294101 -0.271236 -0.023921 -0.038101 0.165316 0.360642 0.328495 -0.947043 0.971723 1.678139 -0.605724 0.110452 -0.541580 -0.947951 -0.140406 0.033564 0.445731 -0.546740 0.225740 -0.039600 0.670586 -0.055553 0.602875 0.081998 0.280101 -0.117220 -0.476005 -0.047620 -0.898051 -0.614717 -0.777419 0.492123 -0.561961 -0.124123 0.173005 -0.604490 -0.196730 -0.192662
echo 0.999123 -0.117008 0.078268 1.153996 0.080547 0.066186 0.433849 -0.005896 0.039573 -0.650898 -0.156425 -0.127602 -0.327127 -0.622116 -0.246294 0.710385 -1.002805 0.929641 -0.021629 -0.284889 -0.449166 0.423751 1.122524 -0.563505 -0.488385 0.811593 0.158659 0.872805 0.301997 -0.596188 0.449393 -0.331686 -0.066444 -0.256558 0.531829 0.731948 0.577171 0.315392 0.744148 -0.736195 0.009961 -0.792268 0.409997 0.056255 -0.992917 -0.224942 -0.104405 0.085151 0.198071 0.063377
mesg 0.630449 -0.452485 -1.119337 0.574413 -1.033708 -0.403470 -0.187314 -0.513367 0.069184 0.056001 -0.180112 1.203206 0.912290 -0.080748 0.331367 0.014232 -0.572934 0.504619 -0.812538 -0.300077 0.691302 0.451268 -0.541433 0.693406 -0.589981 -0.037125 -0.246737 -0.110469 0.336787 -0.393198 0.644855 -0.172132 -0.199495 -1.423501 -0.751154 0.500593 -0.316524 -0.447752 -0.060526 -0.469029 -0.825572 -1.106336 -0.090014 0.073299 -0.237818 -0.723604 -1.127442 0.069191 -0.453495 0.378303
~grant/bin/pdpdb -0.187096 0.341338 -0.067070 -0.456461 0.343198 0.507137 0.211537 0.254933 -0.566513 -0.117070 0.100862 -0.847885 -0.050863 0.075527 0.576759 0.288346 0.355393 -0.191055 0.724334 1.109063 0.529401 -0.004027 -0.516900 0.020375 -0.112410 -0.367513 0.122938 0.080706 -0.652453 0.014104 0.173368 0.144688 0.778588 0.201955 -0.520739 0.362411 -0.245067 -0.646572 0.771226 0.305602 0.442266 0.219275 -0.244940 0.401231 0.442169 -0.022051 0.509319 0.260579 0.085002 -0.796571
look 0.030822 0.343967 0.980662 -0.482515 1.282943 -0.523658 0.921714 -0.265446 -0.420346 0.577981 0.477454 -0.897650 0.573237 -0.260827 -0.069861 -0.607229 1.107554 -0.433812 0.169888 0.496796 0.306686 -0.544317 -0.609494 -0.295303 -0.149624 -0.309519 0.030799 0.039834 -0.024211 -0.374690 0.686465 -0.310894 0.808249 0.435313 -0.429713 -0.029028 -0.094928 -0.561272 0.083574 -0.157542 0.891972 0.517843 0.207548 0.453685 0.363820 -0.495572 1.260968 0.569498 0.347604 -0.253989
prolog 0.368118 -0.220484 -0.113349 -0.289282 0.382823 0.664207 0.882281 0.202691 -0.446273 1.475326 0.245829 0.416561 0.652901 0.093977 0.012657 0.611980 0.604161 0.187741 0.377280 0.461684 0.352920 -0.286254 -0.364695 0.693543 -0.486545 -0.623163 1.171463 0.846169 -0.069857 0.448890 -0.090112 -0.395833 0.273587 0.561251 -0.015664 0.222381 -0.631547 -0.305598 -0.225781 0.903083 -0.497206 -0.831224 0.845496 -0.020112 0.338088 -0.964752 0.506505 -0.240740 -0.039692 -0.508237
rasm 0.417965 0.436886 1.163967 0.030501 0.597441 0.283750 -0.057082 0.510879 -0.521297 0.464278 -0.503631 -0.196507 0.085870 0.260796 0.287932 -0.275960 1.257316 -0.573026 0.853399 0.168916 0.150164 -0.231642 -0.556504 0.464443 -0.425679 -0.714754 -0.162146 -0.173392 0.284302 -0.096599 0.570334 -0.013387 0.939802 0.595436 -0.781466 0.413090 0.921949 -0.405622 0.080164 0.088035 0.130252 0.271287 -0.319040 -0.351915 -0.950267 0.299124 0.004164 0.276352 -1.016202 0.021628
( 0.308528 0.941165 -0.514137 -0.511700 0.099760 -0.493607 -0.838718 -0.573825 0.002820 -0.768963 0.018234 0.067269 -0.285984 -0.232879 0.630916 -0.559909 -0.881577 -0.312722 -0.461273 -0.809638 1.017937 0.276655 0.210942 -1.378793 0.147184 -0.535977 0.622028 0.670490 0.384462 -0.545358 0.006081 -0.475927 0.350605 -0.762145 0.655114 -1.181046 0.823263 0.817732 0.189360 -0.676388 0.780080 -0.754460 0.343700 -0.201877 0.046894 0.595798 0.350287 -0.315718 0.301845 0.034461
u 0.526320 0.390993 0.181829 0.822758 -0.861954 -0.624737 0.295212 0.049890 -0.580008 0.280386 -0.292857 0.744247 0.096239 1.378336 0.395808 1.440966 0.714733 0.246457 -0.624466 -0.375018 -0.984367 0.822009 -0.386843 0.359560 0.027678 0.855508 -0.549786 -0.000503 0.808270 -0.055937 0.117755 1.216243 -0.405522 -0.335731 0.090640 0.373296 0.152677 -0.426167 0.429598 0.072960 -0.825806 0.211074 -0.442121 0.592467 -0.940869 -0.954988 -0.073049 -0.222574 0.441704 0.375037
ditroff -0.226269 -0.017180 1.232300 0.073217 0.224260 -0.720612 0.626491 0.243174 0.206948 0.126231 -0.429544 -0.114235 0.439123 0.930943 -0.581790 -0.294389 -0.298100 -0.742076 0.073724 0.024700 -0.842969 0.038650 0.352042 -0.337648 -0.420878 -0.913605 -0.472778 -1.507650 0.028702 -0.057305 -0.389772 0.349093 -1.122863 -0.192159 0.417754 -0.069846 0.766069 -0.233370 -0.236235 -0.360383 -0.138991 0.066143 0.611207 -0.335055 2.035640 0.245080 -0.323802 1.205185 -0.219223 0.977932
cleanup -0.089332 -0.146547 -0.110391 0.609991 0.451655 0.214241 -0.025371 -0.568779 -0.096358 0.926234 0.109818 -0.115927 0.228254 0.363650 -0.079297 -0.393243 0.236040 -0.213645 -0.696847 -0.630947 0.197826 0.257284 0.106885 -0.181052 -0.256498 -0.498585 0.582447 -1.030997 0.711159 0.619632 -0.160847 -0.410964 -0.680178 0.818864 1.214037 -0.067235 -0.584539 0.237322 -0.593595 0.528805 0.156590 -0.029391 0.284132 -0.116311 -0.388214 -0.028342 0.663396 -1.012657 0.079301 -0.043832
diff 0.399279 0.341446 -0.083265 0.333569 0.274213 0.904457 -0.064029 -0.855255 -0.436028 -0.148659 -0.301517 -0.438876 -0.053495 -0.360155 -0.398847 -0.916840 0.233034 -0.366190 -1.447831 -0.806421 -0.676289 0.918775 0.839243 -0.065445 -0.512202 0.516299 0.683658 0.158469 -0.269874 -1.055030 0.075551 -0.378827 1.005998 -0.066642 1.084680 -0.492707 -0.314150 0.744399 0.351815 -0.065631 0.278676 -0.428133 -0.314285 0.410538 0.757761 0.276891 1.053722 1.114438 0.018232 -0.681610
fgrep -0.195892 -0.739991 -0.437856 -0.761560 0.011949 0.352731 -1.378357 0.330801 -1.118463 -0.490273 0.747299 -0.041358 -0.235255 -1.204540 -0.131546 0.088952 -0.498638 -0.607943 -0.555009 -0.076264 0.953813 -0.386256 0.763607 -0.035380 -0.400290 0.087089 0.006445 -0.523153 -0.190703 -0.129391 0.616828 -0.750809 -0.432400 0.387841 0.923376 0.796398 0.605564 0.240519 -0.207339 -0.922520 0.203301 -0.764072 -0.220749 0.583742 -0.482503 -0.354120 -0.995601 0.415199 -0.177091 0.087099
talk 0.551732 -0.516792 -0.754944 0.890597 -0.645012 0.141138 -0.814479 -0.021587 0.223239 0.572251 -0.307606 1.041495 0.194153 -0.158804 0.514144 0.456661 -0.430251 0.072777 -0.071229 1.130455 0.581865 -0.664467 -0.246311 0.282130 -0.585318 0.323604 1.590388 -0.085052 -0.058785 0.431425 1.114584 -1.105941 -0.494348 -1.008108 -0.463266 0.160403 -0.074081 -0.110858 -0.056972 -0.217063 0.072210 -0.977566 0.702863 -0.621521 0.127554 -0.107704 -0.348796 -0.249643 -0.519869 0.636955
tbl 0.347904 0.027185 -0.063467 0.181222 0.900880 -0.082357 -0.694032 0.068976 -0.645275 0.848711 -0.529562 -0.094347 0.262829 0.169622 1.027786 -0.461160 -0.315767 -0.691527 0.277109 -0.038559 0.634284 0.566944 -0.263700 0.283687 -0.523842 -1.663723 -0.154625 0.416495 0.195049 0.382093 -0.061110 0.039875 -0.261909 0.382628 -0.220840 -0.487905 0.021974 -0.215940 0.293525 0.289791 1.159960 -0.054147 0.242891 0.120032 -0.592014 0.414791 -0.583821 -0.000128 -0.251541 0.277136
printenv 0.291656 -0.740671 -0.191102 0.826437 0.133265 0.307316 1.221455 0.213396 -0.351850 -0.681165 0.180942 0.150521 -0.302044 -0.254727 0.251084 -0.062435 -0.873387 0.809137 -0.220398 0.083864 0.864141 0.470394 0.246195 -0.197285 -0.918612 0.802808 0.066014 0.028001 0.568501 -0.874356 1.099523 -0.747279 0.123210 -0.763787 0.414761 0.430438 0.430653 0.789818 -0.517052 -0.512816 0.199514 -0.220863 -0.668805 -0.013230 -0.066401 -0.113734 0.712195 -0.206757 -0.228382 -0.012952
finger -0.034307 -0.560471 -0.991750 1.387255 -0.586697 0.041989 0.557647 0.087819 0.083651 0.514859 -0.337081 0.273227 -0.179461 -0.677250 0.926243 0.406165 -0.169579 0.878543 -0.390336 0.781947 -0.137900 0.334449 -1.203725 -0.357632 -0.612037 1.102227 1.397880 -0.464049 -0.017067 0.246442 0.905668 -1.003911 -0.663534 -1.504224 -0.426543 -0.193126 -0.124593 0.134525 -0.272535 0.288037 0.865099 -0.068416 0.234937 -0.165089 -0.564691 0.322482 0.272002 -0.665604 -0.001222 0.066055
getim -0.653228 0.501330 0.952277 -0.899866 0.075684 -0.083923 -0.710517 -0.321348 0.467108 -0.230412 -0.081399 -0.336607 0.121970 0.603614 -0.766879 -0.838469 0.529064 0.201568 -0.427451 -0.420303 -0.386690 0.043714 0.585408 -0.855577 0.784524 -0.222015 -0.353798 -0.389254 0.435054 -0.311079 -1.077407 0.314465 -0.317632 0.122818 0.647215 0.264977 0.078043 0.039412 -0.063458 0.122991 -0.079651 0.046334 0.213655 -0.402497 0.264570 0.365623 0.063191 0.167942 0.390238 0.274917
which -0.569270 -0.494964 -0.447473 0.491902 0.267895 -0.092289 0.314510 -0.161577 -0.298779 0.321249 0.745486 -0.351253 -0.562863 -1.098822 0.024377 -0.434402 -1.004565 0.358458 -0.992992 0.858020 -0.268624 -0.127381 0.180357 -0.160099 0.078580 0.516968 0.238111 0.065433 0.092175 -0.480847 0.312314 -1.069948 -0.125990 -0.431663 0.953934 0.694119 0.047163 0.758261 -0.048591 -0.241340 -0.303461 -0.195824 -0.396998 0.193464 0.067378 -0.096642 -0.438515 0.863843 -0.289264 0.385708
from 1.183063 -0.864429 0.594373 0.952923 -0.271644 0.248814 0.105555 0.214031 -0.433018 -0.020211 -1.285889 0.416476 -0.549108 0.960225 0.854056 -0.465793 0.300288 -0.790586 0.386020 0.041963 0.116841 0.576654 0.142946 0.198513 -0.694796 0.768335 0.279368 -0.386082 -0.092151 0.060086 0.261482 0.313466 -0.393652 -1.215413 -0.211559 0.096760 1.672508 0.577280 0.708590 0.224706 -0.177187 -1.210824 -0.448624 -0.395128 0.551869 0.218923 -0.726848 -0.019792 -0.871211 0.185284
dobis 0.334313 0.685581 -0.076025 0.163647 -0.368897 0.176714 -0.775259 -0.309301 0.283856 -0.463421 -0.143056 -0.351291 0.200205 -0.319518 0.784671 1.475158 -0.898316 -0.485811 -0.008092 0.321662 0.256270 0.793582 -0.513548 -0.752197 0.797464 -0.138341 0.114316 0.727031 -0.864527 -0.274027 -0.533354 0.108884 0.804392 -1.096097 -0.880280 -0.282976 -0.171088 -0.242287 0.851634 0.042888 0.652429 -0.448508 0.630819 -0.315619 0.214383 0.253209 -0.409940 0.105545 0.885769 -0.153023
lisp 0.513417 0.657120 0.434390 1.124074 1.279327 0.249191 -0.758887 0.738827 0.073220 0.045644 -0.191403 0.740618 0.286784 0.747719 0.466452 0.698262 -0.222950 0.797614 -0.471391 0.351549 0.359799 -0.116743 0.606385 -0.238673 0.980789 1.049855 -0.342576 0.619750 0.639076 0.533387 0.033606 -0.562969 -0.501454 -0.136204 -0.277092 0.219695 -0.876940 -0.079275 0.611880 -0.184255 0.041847 -0.366514 0.508454 -0.404938 -0.614708 -0.240943 0.281332 -0.139815 0.994338 0.668559
/user/others/freedman/bin/roff 0.361911 0.252751 -0.271213 -1.053152 0.292027 0.311720 -0.528439 -0.226125 -0.708367 1.031338 0.724669 -0.680219 -0.400846 0.528860 -0.113539 0.310613 -0.422280 0.169976 0.395095 0.473596 0.849415 -0.523533 0.093591 0.255037 0.366397 -1.060687 -0.227834 -0.309075 -0.340278 0.129901 0.189047 0.236087 -0.077960 0.400256 0.697843 0.151472 -0.494447 0.107418 0.229207 -0.377352 0.110369 0.045125 0.329092 -0.500389 1.198319 -0.340726 -0.275534 0.946550 0.000859 0.178962
~grant/bin/pdp60 -0.379715 0.405517 0.322031 -0.567587 0.467269 0.555994 0.068900 0.246795 -0.449122 0.162807 0.035306 -0.799372 0.099094 0.091525 0.344961 0.164176 0.400295 -0.254076 0.719568 0.856683 0.030310 0.090492 -0.593675 -0.092469 -0.004783 -0.724610 0.081832 0.287953 -0.521657 0.080612 0.041449 0.138368 0.790770 0.282522 -0.323077 0.173696 0.003132 -0.586154 0.468104 0.437794 0.505058 0.386458 -0.193168 0.163103 0.325440 0.145832 0.352823 0.353015 0.035372 -0.423991
~grant/bin/pdplk -0.447683 0.563896 0.451718 -0.487420 0.763907 0.598942 -0.066855 0.039854 -0.581826 0.164171 0.174455 -0.915626 0.266203 0.194400 0.522249 -0.206806 0.456358 -0.109782 0.630951 0.755858 0.226188 0.216823 -0.443165 -0.298272 0.278729 -0.829164 -0.038690 0.047547 -0.365201 0.133365 -0.176285 -0.064881 1.039820 0.250373 -0.254946 0.192120 -0.131440 -0.463426 0.585989 0.650756 0.577936 0.379773 -0.376725 0.147579 0.403430 0.365501 0.458590 0.444452 0.225276 -0.508046
head 0.299804 0.234978 -0.051495 -0.542776 -0.476038 0.309672 -0.400611 -0.690062 1.082764 -0.029580 -0.237576 -1.002299 -0.446778 -0.591162 -1.299803 -0.089496 -0.363647 0.331917 -0.128987 -0.645452 0.105453 -0.290594 1.260684 0.349008 -0.876599 0.123284 0.566121 -1.034736 0.637602 -0.954043 -0.056372 -0.909058 -0.264651 0.171016 0.737442 -0.358273 -0.105300 0.276467 -0.884421 -0.607919 0.692580 0.326555 0.461255 -0.391969 0.495688 0.331714 0.942115 -0.231392 -0.640588 0.118878
lookbib 0.303649 0.128204 0.218037 -0.287377 -0.209305 0.346709 -1.074917 0.549189 -0.813978 0.034552 0.877902 -0.350185 0.369333 -0.425984 -0.428726 0.790024 -0.071108 -0.390501 0.243411 0.020806 -0.192767 -0.500817 0.731185 0.216915 -1.051761 -0.569358 -0.485378 -0.076993 0.321030 0.286504 0.104047 0.371269 -0.274782 0.957142 0.100623 1.001450 0.576458 -0.971708 0.024439 -0.703614 0.252461 0.550596 -0.277922 0.849359 -1.320715 -0.121239 -0.544606 -0.234005 -0.340510 0.116150
df 0.271494 0.079892 -1.016781 -0.082482 -0.717263 0.107966 -1.072483 -0.180755 0.045200 0.683768 -1.101480 0.665896 -0.158051 0.318413 -0.307378 0.174395 -0.375529 -0.207253 -0.053503 -0.608204 -0.917123 0.356217 0.211365 0.136776 -0.173956 -0.162112 0.725252 -0.027833 0.783341 0.474909 0.387474 0.877771 -1.742612 0.002496 0.657640 -0.971978 -0.335158 0.342626 -0.538450 -0.472429 0.119052 -0.362459 0.074423 0.696576 -0.049955 -0.286243 -0.691909 -0.806586 0.091408 0.409260
mc 0.071028 0.287823 0.900910 -0.265780 -0.282869 0.301638 1.033004 0.037595 0.763681 0.025214 0.460135 -0.711164 0.332513 -0.680256 -0.411740 0.895512 -0.941174 0.792680 0.398304 -0.338522 -0.250737 -0.201450 0.633326 0.489877 -0.918812 0.057415 0.738499 0.146150 -0.221039 -0.497190 -0.174654 -1.114063 0.330527 0.407755 0.907161 -0.023896 0.024025 0.465991 -0.635883 0.182729 0.220767 0.048592 -0.021814 -0.164961 -0.282207 0.051645 0.628809 0.591312 0.067238 0.225672
stty 1.013297 -0.938411 -0.279079 0.685535 -0.160353 0.344006 -0.030793 -0.337915 0.400990 -0.686989 -0.461173 -0.018229 -0.679235 0.073915 0.570988 1.056764 -0.754585 0.688042 0.841407 0.284859 0.305432 0.352175 -0.026491 -0.400086 -0.069327 0.632440 -0.339108 0.707894 0.161188 -0.663167 0.981543 -0.593592 0.355206 -1.114476 -0.497924 0.463983 0.307895 0.676969 -0.300462 -0.377309 -0.046821 -0.221690 -0.173884 -0.157728 -0.061627 -0.494533 -0.136577 -0.003241 0.490038 0.713496
tseq -0.305272 -0.266317 0.019740 0.043907 0.361738 0.063433 0.196443 0.744469 0.094318 -0.037360 0.407762 -0.371724 0.027641 -0.597428 0.177749 -0.041142 0.150099 0.257742 0.563772 0.759903 0.509457 -0.646281 0.288273 0.790346 0.167555 -0.626777 -0.603079 -0.030792 0.275194 -0.117575 0.064907 -0.651163 0.433024 1.052872 -0.552166 0.605667 -0.707187 -0.182816 -0.086620 0.354687 0.359381 1.169632 -0.451826 1.355306 -0.959894 -0.531996 -0.188824 0.260190 -0.021944 0.264565
sun -0.113890 -0.483156 -0.477038 -0.382831 -0.756926 -0.044270 0.325439 0.270103 -0.219221 -0.897208 -0.363240 0.551644 -0.611184 0.597669 0.418390 0.163431 -0.533070 0.293765 -0.019928 0.942484 0.974271 -0.813935 0.487228 0.293395 -0.673200 -0.165008 0.457086 0.137748 -0.600330 0.366034 0.596851 0.508412 -0.543913 -0.186178 0.460616 -0.175246 0.179079 0.074807 0.290107 -0.843584 -0.698259 -0.742921 0.029127 0.543634 1.221442 -0.110198 -0.581926 0.865186 -0.478143 0.119299
basic 0.237634 -0.643140 -0.389932 -0.286506 -0.841905 -0.202063 0.024642 -0.343966 -0.216456 -0.144858 -0.801653 1.064700 -0.982777 0.673992 0.152220 1.242094 0.497165 0.409174 0.093866 1.031001 0.885269 -0.875538 0.060574 0.617058 0.293797 0.097288 0.866637 0.362746 0.060859 1.027760 -0.195341 0.167518 -0.732465 0.355641 -0.108792 -0.633831 -0.082393 0.549305 -0.519716 0.098990 -0.015202 -0.207441 -0.301388 0.622285 0.681425 -0.331769 -0.130550 0.042587 0.069662 0.349635
tar -0.176512 -0.298851 -0.693822 -0.931939 -0.527408 -0.125876 -0.771922 -0.458314 0.150123 0.166635 0.281778 -0.100933 -0.730868 -1.135802 -0.930161 -0.980596 -0.055931 -0.622277 -0.419442 -0.850020 -1.312304 -0.061783 0.424614 -0.173788 -0.100870 0.041084 0.034976 0.025916 0.238029 0.042059 0.033369 0.372728 -1.182130 0.867122 1.892572 0.118184 0.908963 0.536735 -0.456504 -0.815218 -0.530309 0.158611 0.430500 -0.337454 -0.337714 -0.268648 -0.538470 0.048474 -0.583391 0.367346
uptime 0.340578 0.308725 0.188296 0.567762 0.063921 0.075134 -0.555798 -0.002592 -0.057514 0.950156 -0.299280 1.544537 0.622451 -0.508365 -0.122513 -0.566506 0.270997 0.165174 -0.563062 -0.133674 0.101233 0.118679 -0.077995 -0.808637 0.530165 0.498228 0.942771 0.654619 0.518876 0.036374 0.366517 -0.489868 -0.182965 -0.226495 -0.361856 -0.350089 0.336703 0.611097 -0.351193 -0.423187 -0.145978 -1.034609 0.245098 0.573338 -0.504425 0.048386 -0.221971 -0.391632 -0.248591 0.146751
clean 0.170756 0.074536 0.096307 -0.626717 0.213758 0.994510 0.027737 -0.472208 -0.276310 -0.068019 0.272000 0.044901 -0.031119 0.236118 0.025704 -0.080251 0.295600 0.292932 -0.071527 -0.921826 0.880299 0.529746 0.417761 0.749162 -0.894112 -0.131054 0.494543 -0.186844 0.040287 -0.010631 0.272899 -0.440062 0.532726 0.319380 1.242761 0.114798 0.228537 -0.133442 -0.118558 0.380763 -0.511372 -0.516434 -0.486034 -0.581795 -0.135628 0.253494 0.796500 -0.288638 -0.560395 -0.567317
imq -0.315585 0.106988 -0.467397 0.918497 0.233116 -0.153173 0.094653 -0.522803 0.196934 1.033322 0.129186 0.035389 -0.405837 -0.202150 0.495490 -0.028694 -0.126769 -0.041627 -0.474897 0.205052 -0.792898 0.392982 -1.112996 0.328438 0.468489 0.255369 0.078181 -0.794778 -0.530413 0.877336 -0.333388 -0.177822 -0.161116 -0.369887 -0.204211 -0.314917 -0.618671 0.107407 0.012865 0.598674 0.272473 0.461398 0.128687 -0.775481 0.073015 0.635543 -0.274087 0.080051 0.241615 -0.178679
script 0.406004 0.452985 -0.142804 0.219421 1.080541 0.152681 0.096365 -0.225676 -0.177571 0.255536 -0.128777 -0.747580 -0.651303 0.080542 0.680654 -0.941217 0.614881 -0.392456 0.404784 -0.782377 0.484493 1.084450 -0.057012 -0.194684 0.344395 -0.878661 -0.304559 -0.864033 0.174828 -0.434303 -0.129916 -0.503161 0.534869 0.699924 0.885519 0.461873 -0.190727 0.122945 0.816910 0.427249 -0.369486 -0.314447 0.482166 -0.698946 -0.441851 -0.096873 0.118161 0.311042 0.254873 -0.041228
js -0.182015 1.111885 0.668202 0.695762 -0.371448 -0.149234 0.353078 -0.053232 0.526240 -0.316548 0.857196 -0.460298 0.359783 -0.353399 0.090372 0.920469 -0.852042 0.699954 -0.725991 0.939120 -0.381865 -0.635494 0.275118 -0.954785 0.153143 -0.246669 0.478288 -0.345828 -0.291369 0.639818 -1.113450 -0.639034 0.403578 -0.098986 -0.188863 -0.084267 -0.345344 0.287721 0.253915 0.090177 0.806358 0.442943 0.054492 0.528776 -0.482771 0.925848 0.173852 0.496357 0.919254 0.188997
'rm' -0.100293 0.178607 -0.262404 0.597961 -0.068093 0.442150 -0.058092 -0.515484 -0.198977 0.699710 0.400057 0.163193 0.309487 0.200543 -0.087813 -0.310910 0.390100 0.072009 -0.761055 -0.289866 -0.229260 0.092613 -0.576233 -0.660651 0.005832 -0.420448 0.742639 -0.900813 0.190732 1.155554 -0.186501 -0.078306 -0.323487 0.606087 0.636587 -0.424281 -0.233886 0.453882 -0.615312 0.344577 0.052777 0.154300 -0.106169 0.091911 -0.251772 0.573449 0.801685 -0.862721 0.098538 -0.354245
steam -0.400677 -0.095329 0.012699 -0.210353 -0.061622 0.380420 -0.300536 -0.317503 0.078267 0.320346 -0.545081 0.565452 0.824772 0.127176 -0.752929 0.021738 -0.109545 0.266530 -0.339911 -1.005597 -0.547269 0.631401 0.299333 0.066491 -0.283782 -0.404111 0.375890 -0.032494 0.683082 0.667829 -0.129502 0.399351 -0.874068 0.653389 0.754449 -0.664323 -1.064871 0.108329 -1.122503 0.046267 -0.151344 -0.265857 -0.476927 0.803432 -0.049563 -0.043631 -0.019828 -0.524774 0.314482 0.169346
life2 -0.401169 0.378070 -0.255467 -0.768158 -0.548275 0.324216 -0.116336 -0.277677 0.643887 0.149205 -0.970834 -0.296486 -0.240276 -0.414331 -0.238624 0.297402 -0.376515 0.053743 0.408607 -0.207543 -0.176217 0.764265 -0.063720 -0.335594 -0.013099 -1.231222 0.246346 -0.042500 0.225950 0.579766 -1.253651 0.819315 -0.409666 0.651943 0.224382 -0.917438 -0.767687 -0.079027 -0.437047 -0.230250 -0.163175 0.152304 -0.205057 1.199573 0.288178 0.430857 -0.194874 -0.470039 0.342705 -0.130541
people 0.112545 -0.325913 -0.525571 -0.182036 -1.053950 0.885387 -0.752844 -0.183183 -0.039531 1.210447 0.821752 0.067670 -0.019074 -0.153271 -0.052512 1.318605 -0.030711 0.656061 0.645480 0.575547 -0.235342 -0.529384 -0.717257 0.286657 -0.523563 -0.731466 0.252470 -0.874048 -0.343926 1.200864 -0.085423 -0.173431 -0.273370 0.492385 0.314559 1.059993 -0.416400 -0.357483 -0.508775 0.138186 -0.899338 0.444183 0.073217 -0.527617 -0.282494 -0.062725 -0.698831 0.578578 -0.444548 0.312691
sort -0.438354 0.214469 0.404012 0.057225 1.571931 0.789495 -0.419162 -0.348590 -0.261574 1.034524 -0.019045 -0.717537 -0.401512 -0.483813 0.327638 -0.484259 1.111350 -0.805262 -0.156945 0.092601 -0.902866 0.423558 0.124747 0.157176 0.474804 0.688520 0.472740 0.090161 0.186816 -0.375351 0.012163 -1.187515 0.338726 0.425913 0.617363 0.350228 0.196603 0.224033 0.114416 1.271212 1.087589 0.662850 -0.006251 -0.421693 -0.098057 0.433942 0.891730 0.558349 0.176000 -0.376895
psroff -0.338752 0.181451 0.014858 -0.439832 1.077755 0.438623 -1.007440 0.266748 -0.322532 0.792126 0.034836 -0.388583 0.220287 0.163612 0.057611 -0.513485 -0.137047 -0.791316 0.438059 -0.117227 -0.160322 0.049465 0.340788 -0.075596 -0.092845 -0.656581 -0.511896 -0.532225 0.423760 0.040927 0.199845 0.250455 -0.861525 0.390305 0.469519 0.056176 0.336368 -0.217867 0.262209 0.171423 0.961215 0.426925 -0.147593 -0.146489 0.468517 0.665762 -0.294790 -0.374390 -0.443279 0.193549
r.out -0.505940 0.406168 0.388969 -0.627535 -0.646146 -0.037289 0.113345 0.113073 0.643170 0.029251 -0.556895 -0.194594 0.546349 -0.460528 -0.822076 -0.306461 -0.537687 0.456009 -0.074757 -0.060210 0.074147 0.084744 0.597512 -0.349941 -0.082828 -1.028961 0.623372 0.122084 0.637738 -0.426397 -0.916693 -0.086657 -0.265549 0.125795 0.081492 -0.688072 -0.495439 0.108376 -0.688870 -0.171747 0.538706 -0.101658 0.008260 1.208304 -0.205291 0.139168 -0.099880 -0.449163 0.283674 0.527293
/usera/others/freedman/bin/u -0.057171 -0.059825 -0.137881 0.078240 -0.209668 -0.019862 -0.344235 -0.024096 -0.656266 -0.509662 -0.039844 0.912116 0.388570 0.283028 0.610348 -0.709143 -0.128118 -0.316169 -0.686459 0.125213 1.030071 0.122563 -0.141124 -1.128841 0.371048 -0.314837 0.609011 0.083794 0.038535 0.188033 -0.024686 -0.019883 0.217962 -0.674947 0.034953 -0.110642 0.892036 0.703957 0.120877 0.011389 0.024902 -1.214642 -0.106406 0.399298 0.365116 0.357455 -0.191399 -0.561663 -0.065911 -0.398883
latex -0.228447 0.082878 -0.326640 0.184549 0.320037 0.261103 0.320094 -0.446395 -0.812131 0.029126 0.078408 -0.324537 0.530276 0.134595 1.095647 0.161955 -0.453929 0.042952 -0.233725 0.856125 0.973909 0.100472 -0.225481 0.466284 -0.526142 -1.117452 0.105154 0.087793 -0.395099 0.466270 -0.263453 0.008119 0.773605 0.200393 -0.359378 -0.171293 -1.340383 -0.478924 0.513600 0.201277 0.652227 0.189444 -0.467847 1.201940 0.347116 0.186507 -0.086343 0.881152 0.399511 -0.458529
vt 0.171684 0.089397 -0.081010 0.289277 -0.393536 0.141044 0.107010 -0.051191 -0.177636 -0.838380 -0.308200 0.789289 0.001919 0.175576 0.859472 -0.548810 0.344834 0.009987 -0.338011 0.295892 1.204472 0.500437 -0.543904 -1.216891 0.313564 -0.345542 0.666044 -0.062937 0.139178 -0.120543 -0.083921 -0.063090 0.499727 -0.975538 -0.298953 0.057118 0.817022 0.575280 0.320390 0.030963 -0.256367 -1.001488 -0.133919 0.330149 0.037940 0.440580 0.241404 -0.671003 -0.097857 -0.438870
ed 0.571570 -0.170978 -0.468896 -0.578688 -0.089383 -0.109322 -0.474682 -0.604592 0.366775 0.278122 -0.165519 -0.690341 -0.785669 -0.137434 -0.109595 0.361554 0.736875 -0.028294 0.446947 -0.241837 0.629871 -0.641323 0.577825 0.519276 -0.782681 0.309904 0.669072 -0.616890 0.482955 -0.274325 -0.409226 -0.160667 -0.303154 -0.016203 -0.336524 0.100488 -0.344919 0.015766 -0.100293 0.267056 0.467879 -0.216636 0.427700 -0.213057 0.399069 -0.455265 0.388087 -0.207254 0.222194 -0.343639
test -0.650806 -0.881776 -0.936906 -0.336425 -0.457581 0.179934 -0.549116 0.296445 -0.540660 0.021393 0.067729 0.268838 0.160296 -0.672164 -0.136039 0.381936 0.273760 -0.409056 0.400145 0.620959 0.166696 -0.121821 -0.705443 0.095249 0.033103 -0.859740 -0.043361 -0.129518 0.195431 0.489323 -0.413827 0.491738 -0.232530 0.630773 -0.726708 0.847340 -1.164501 -0.303206 -0.223813 0.184298 -0.336328 0.669597 -0.087095 1.220906 -0.172670 -0.480634 -0.738494 0.235839 -0.029383 -0.430560
actc 0.470193 0.199570 -0.004904 1.111740 -0.045326 -0.409270 0.614398 0.350875 -0.477916 -0.085884 -0.728746 0.784899 -0.237897 1.919453 0.689582 0.277616 1.118434 0.226949 -0.005667 -0.054612 -0.320164 0.563254 -0.344186 0.021673 -0.228883 0.922037 -0.020346 -0.601857 0.883272 0.497346 0.342213 1.151118 -0.733377 -0.648571 -0.363861 -0.118476 0.337765 -0.555040 0.488638 0.249129 -0.240651 -0.167868 -0.207527 0.036475 -0.463946 0.016290 0.730653 -1.525336 0.053269 -0.316112
Run -0.203812 0.589931 0.303817 0.201978 0.189638 0.208079 0.219668 -0.649718 0.941717 0.346088 -0.029351 -0.430694 0.154851 -0.201883 -0.123926 0.311877 0.144110 0.543523 -0.303889 -0.719705 -0.599237 0.591771 -0.444275 -0.226380 -0.056175 -0.154787 0.380011 -0.896272 -0.081510 -0.140209 -0.034267 -0.840509 -0.134359 -0.043185 0.972269 -0.304083 -0.703227 -0.008542 -0.487185 0.003643 -0.334370 0.180709 0.455705 -0.673094 0.065447 0.247518 0.702580 0.884563 0.717970 0.674353
fref 0.021631 0.097603 -0.225010 -0.250448 -0.601601 0.505334 -0.188045 -0.539490 0.344006 -0.373547 -0.608587 -0.057137 -0.072322 0.102307 0.705175 0.272174 0.227508 0.557850 -0.091803 -0.288543 -0.052315 0.935739 -0.911551 -0.235787 0.151674 -0.244333 0.245783 -0.092528 -0.035875 0.291491 0.068572 -0.006022 0.643102 -0.015029 0.248504 0.308481 -0.550410 0.554239 -0.332913 0.577751 -0.330685 -0.225989 -0.997436 0.237528 -0.339420 -0.077538 -0.044736 0.448506 0.621548 -0.159901
checkeanmail 0.273437 -0.223800 -1.019635 0.419163 -1.043964 0.115567 -0.235292 0.026236 -0.519201 0.438267 -0.009449 0.906801 0.586501 0.184997 0.470662 -0.048018 -0.714860 0.616985 -0.426592 0.258236 1.317324 0.058121 -0.669933 0.829439 -0.322670 -0.630830 -0.122325 -0.873654 -0.314825 0.565488 0.525611 -0.135766 -0.122000 -0.627911 -0.414258 0.326936 -0.360207 0.040766 0.435484 -0.122594 -0.487036 -0.823251 -0.475135 -0.142485 -0.180797 -0.095676 -1.069997 0.131316 -0.632734 -0.064939
whereis -0.273402 -0.725712 -0.463275 1.164548 0.935210 -0.079413 0.520043 0.252411 -0.348982 0.313520 0.436699 -0.145997 -0.378083 -0.436210 0.565604 -0.098030 -0.305691 -0.328752 -0.023797 0.578925 -0.646668 0.072344 0.021162 0.060429 -0.806420 0.756892 0.461574 0.131041 0.234714 -0.087351 0.845127 -0.812090 -0.479902 -0.529764 0.263420 0.394231 0.695530 -0.178788 0.008208 0.061517 0.459564 0.374310 0.367928 -0.492516 0.050820 0.488493 0.437221 -0.098348 -0.635480 -0.048716
~grant/bin/dump -0.525533 0.451545 0.089894 -0.673592 -0.089416 0.268467 0.250840 0.204838 0.042842 -0.462961 0.149160 -0.596451 0.099923 -0.270877 0.143302 0.580142 0.285190 0.307885 0.594216 0.873091 0.376773 -0.132347 -0.574098 -0.231602 0.214698 -0.550299 -0.045880 0.386445 -0.435696 -0.091274 -0.079859 0.093963 0.765868 0.330264 -0.497724 0.262527 -0.451702 -0.486231 0.254752 0.102609 0.111242 0.459611 -0.103016 0.560822 -0.038990 -0.086407 0.354083 0.242178 0.361091 -0.379983
"rm" 0.330108 -0.245292 -0.162676 -0.427141 -0.504030 0.500345 -0.717355 -0.583033 -0.614615 1.590590 0.539368 0.314906 0.463367 -0.068452 -1.114110 -0.129407 0.732497 -0.046036 -0.317109 0.261991 0.106694 -0.621173 -0.632581 0.153977 0.268795 -0.764872 0.011934 -0.291891 0.266795 0.327812 0.003803 0.169679 -0.130853 0.735033 -0.486926 -0.092563 0.187384 0.208322 -1.023732 -0.113745 -0.111971 -0.031926 -0.256579 0.237959 0.071845 -0.591917 -0.107275 -0.014161 -0.188696 0.426616
awk -0.174380 0.144102 0.017846 -0.068153 -0.226843 0.837462 -0.746321 -0.617057 -0.131034 0.646668 -0.294969 0.112617 0.235773 0.534782 -0.561211 -0.183840 0.588029 0.168372 -0.068339 -0.376694 -0.949383 0.349192 -0.469615 -0.115449 0.586740 0.550319 -0.288157 -0.247798 -0.175397 0.834054 -0.596669 0.622357 -0.058916 0.126876 0.038100 -0.301860 0.386853 0.244596 0.083526 0.622380 -0.176829 -0.091955 -0.580407 -0.725031 0.438174 0.589151 -0.035487 -0.362205 -0.086267 -0.351136
dl 0.273481 -0.147969 -0.101582 -0.283060 -0.651910 0.063654 -0.319668 -0.613185 -0.143722 -0.458454 -0.350895 -0.160397 -0.618478 0.032661 -0.382936 -0.149803 0.234825 -0.764557 -0.346641 -0.626377 -0.352897 0.493134 -0.227917 0.295693 -0.040651 -0.151994 -0.703526 -0.299018 -0.222543 -0.120740 -0.280687 0.747796 0.019696 0.486029 0.359625 0.006893 0.691260 0.443349 0.371064 -0.041375 0.015320 0.222347 -0.694946 -0.077938 -0.189670 0.008437 -0.372835 0.128807 -0.394767 -0.092164
f77 0.433417 0.225921 -0.084475 -0.421585 0.387391 0.440750 0.148110 -0.661311 0.046790 0.065645 0.299629 -0.629312 -0.043854 -0.460317 0.267755 0.387770 0.353954 -0.267244 0.492008 0.269273 0.839798 0.109526 -0.817660 -0.421819 0.804509 -0.509224 -0.106613 0.781032 -0.464152 -0.302973 0.135749 -0.422431 1.368223 0.682307 -0.266324 0.250305 -0.345325 0.095527 0.085215 0.253997 -0.233391 -0.017103 0.037015 0.202108 -0.156569 -0.785352 0.490622 0.224900 0.635751 -0.250467
memo 0.543763 0.298938 0.003942 0.736446 -0.478812 -0.302243 0.705395 -0.147290 -0.336763 0.562332 -0.185748 0.612899 -0.533996 1.558616 0.474778 0.865918 0.766578 1.179458 -0.313642 0.054078 -0.301244 0.004349 0.070718 0.577121 -0.426681 1.038194 0.314389 -0.048463 0.803858 0.184757 -0.081004 0.525348 -0.277896 -0.707003 -0.261238 -0.203384 -0.020126 -0.525884 0.145010 0.143138 -0.721552 -0.040880 -0.164537 0.177134 -0.486167 -0.087068 0.736144 -0.656008 -0.077868 0.033825
lines -0.067910 0.208073 0.222350 0.110730 1.376662 0.400852 -0.292536 0.049146 -1.065031 0.748706 0.163629 -0.336423 0.614067 0.408616 -0.036371 -0.978891 0.520638 -0.918665 -0.225370 0.358638 0.318061 -0.254253 0.628260 0.279494 -0.107180 -0.369504 -0.096123 0.194737 0.382656 0.134069 -0.089947 0.098255 -0.044466 0.606013 -0.118323 -0.141113 -0.160562 -0.485512 0.343375 0.402798 1.008278 -0.118341 0.253781 0.215523 0.252664 0.215652 0.155117 -0.127235 -0.167508 -0.534607
shell46 0.118324 0.973456 0.602048 -0.292191 0.231870 0.019063 -0.242579 0.258071 -0.401772 0.116878 -0.151817 -0.509729 0.098107 0.213112 0.138127 -0.429866 0.572788 -0.007084 0.334670 0.229894 0.085649 -0.544675 0.309799 0.553636 -0.460059 -0.697269 0.258756 -0.087720 0.043967 0.194906 -0.230737 0.056970 0.635632 0.716423 -0.419058 -0.289584 0.079059 -0.504128 0.415704 0.023059 0.730242 0.368640 -0.083361 0.181705 -0.641400 0.738449 0.216148 0.128592 -0.551332 -0.277290
chrecc 0.221724 0.123141 0.037353 -0.070417 0.424678 0.285033 0.321727 -0.147737 -0.241409 0.519035 0.115864 -0.210942 -0.203604 0.175804 0.022688 0.866718 -0.138542 -0.473163 0.756330 -0.431244 -0.094952 0.907146 -0.957207 -0.557421 0.712223 -0.846087 -0.614782 0.008332 -0.543919 0.335964 -0.413759 0.485915 0.375560 0.238393 -0.082864 0.083895 0.074760 -0.209840 0.287791 0.255037 -0.838030 -0.152404 0.426516 -0.896590 0.623460 -0.272789 -0.183188 0.087959 0.373254 -0.159953
clock 0.072903 -0.124835 0.179343 -0.333573 -0.956579 0.708436 0.336086 0.683743 0.184963 -1.230877 -0.279265 -0.098605 -0.026721 -0.391644 -0.164569 1.620307 -0.913645 0.361763 0.893395 -0.106908 0.215124 0.464264 0.712487 0.441983 -0.905447 0.322068 0.008559 0.036697 -0.944353 0.372594 0.080683 -0.192108 0.034152 0.331461 0.437156 -0.178980 0.725888 -0.156711 0.192313 0.142991 0.014947 -0.172881 -0.520469 0.317117 -0.131986 0.099433 0.006384 -0.474987 0.036158 -0.356899
ht -0.014071 -0.082561 0.083167 -0.779998 0.124161 0.471194 -0.044634 -0.334721 0.028489 -0.452579 -0.386206 -0.224502 0.317670 -0.234877 -0.452275 -0.722274 0.101387 -0.598484 0.193125 -0.847128 0.048659 0.756437 -0.024669 0.199038 -0.558099 -0.536760 -0.365699 0.180494 -0.019425 -0.211999 0.110959 0.268372 0.116232 0.536565 0.498088 -0.228713 0.325221 -0.276733 -0.270927 -0.119156 -0.273540 -0.269525 -0.376468 0.134016 0.007473 0.135164 -0.050420 -0.488974 -0.618041 -0.275853
emacs_old 0.073634 0.266362 -0.132338 -0.751404 -0.114650 -0.476160 -0.140693 -0.250355 -0.744774 -0.069284 0.762181 -0.066414 -0.364834 0.418730 -0.197102 0.386155 0.209863 0.557893 -0.103878 0.194258 0.221708 -0.232629 -0.397607 -0.118345 -0.126271 0.540553 -0.692631 0.304707 0.739267 -0.374614 1.064279 0.346080 0.056378 0.127735 0.184354 0.599668 0.196766 -0.177674 -0.425229 -0.894719 -0.263974 0.500075 -0.491091 -0.319842 -0.532521 -0.480941 0.309029 -0.002174 -0.318933 0.287606
last -0.016022 -0.383181 -0.919019 0.833163 -0.973299 -0.339283 0.038818 -0.348055 -0.552117 -0.258491 0.130773 0.816264 0.429403 0.086829 0.308707 0.258178 -0.388875 0.119605 -1.091018 0.402479 0.703086 0.151801 -0.768977 -0.608094 -0.084919 -0.000723 0.458319 -0.032038 -0.045753 -0.018042 0.045975 0.023285 -0.080798 -1.168350 -0.700078 0.028097 0.293217 0.181515 -0.083637 -0.116125 -0.024661 -0.783334 -0.019631 0.244244 0.266535 -0.054184 -0.281733 -0.770770 -0.076490 -0.200657
ln 0.154064 -0.292416 -0.311858 -0.578830 0.632123 0.714065 -0.952648 -1.150256 -0.025582 0.882157 -0.303286 -0.550966 -0.655900 -0.475422 -0.896285 -0.410069 0.299764 -0.896269 0.026957 -1.039146 -1.077937 0.421751 -0.000503 -0.313080 0.280908 -0.564482 -0.002660 0.157699 -0.280416 0.381926 -0.118172 0.163679 -0.088462 1.198906 1.021966 -0.313878 -0.070280 0.359522 -0.219867 0.188912 -0.042762 0.025257 0.339458 -0.710978 0.530940 0.056557 -0.228370 0.275941 0.067450 -0.003410
refer 0.301463 0.406276 1.012815 -0.555278 0.792881 0.037970 -0.421543 0.029319 -0.125873 0.471366 0.509524 -0.719124 0.365944 0.055313 -0.176776 -0.208186 0.173805 0.212455 0.513109 0.008202 0.150602 -0.574540 -0.033848 -0.079619 0.308356 0.202672 -0.163677 0.739791 0.066779 -0.376786 0.369887 -0.820953 0.796445 -0.172518 -0.313305 0.002519 -0.051088 0.139112 -0.034349 0.608995 1.078418 0.326466 -0.000788 -0.706162 -0.493891 -0.033324 0.376426 0.375468 0.358778 0.242917
CC -0.095429 -0.224068 -0.090169 -0.096860 0.716401 0.058054 0.298588 -0.347283 -0.326491 0.634506 -0.123473 -0.542248 -0.234544 0.149794 0.548693 -0.133527 -0.063981 -0.276456 0.579788 0.825997 0.757220 0.272996 -0.605659 -0.244581 0.709507 -0.855197 -0.793360 -0.049179 0.171511 -0.050768 -0.173218 0.155665 0.436573 0.483401 -0.037467 0.539500 -0.393032 0.006862 0.482195 0.173655 -0.280043 0.267419 -0.185896 0.264702 0.270471 -0.219509 0.009262 0.264100 0.053408 0.083925
iris -0.170571 -0.107320 -0.405551 -0.454886 -0.620227 -0.024543 0.246663 0.313266 0.349324 -0.720062 -0.479631 0.140403 -0.481875 0.286761 0.248241 0.294358 -0.609492 -0.180657 0.079774 0.722596 0.766937 -0.570558 0.537491 0.275766 -0.622051 -0.380821 0.623654 -0.086863 -0.670307 0.203353 -0.059416 0.522891 -0.565378 -0.035461 0.154429 -0.365866 -0.261965 -0.346975 0.286893 -0.731803 -0.391457 -0.554359 0.526468 0.376395 1.229675 -0.000803 -0.401643 0.397164 -0.302784 -0.077252
sc -0.220755 0.028150 -0.192422 -0.334500 0.562856 -0.059115 0.367634 -0.166764 0.410247 -0.562554 0.024811 -0.814662 -0.653120 -0.584619 0.193091 -0.273867 0.288241 -0.784063 0.731845 -0.434941 -0.242431 0.625161 -0.561519 -0.483352 0.141179 -0.686285 -0.559887 -0.244139 -0.456035 -0.298785 -0.327898 0.199332 0.254940 0.460094 0.459648 0.322704 0.479910 -0.326496 0.578530 0.013564 -0.771633 0.221679 0.583181 -0.807351 0.005043 0.232433 0.243619 -0.138123 -0.085376 -0.175941
addbib -0.518179 0.352297 0.391175 -0.463785 0.503695 0.013119 -0.034766 -0.094923 -0.185921 0.049499 0.341152 -0.549833 0.377422 0.091315 0.157424 -0.151673 -0.180475 0.135082 0.143470 -0.306500 -0.692375 0.219326 -0.568188 0.035426 -0.083845 0.162813 0.001997 0.333030 -0.324525 0.117371 0.314940 -0.293736 0.272072 -0.243711 0.518440 -0.280962 0.055771 0.075847 -0.162289 0.715701 0.799205 0.344940 -0.130400 -1.054749 -0.090440 0.539224 0.313089 0.492939 0.147072 -0.170787
touch -0.320786 -0.635089 -0.096702 0.136881 0.127703 0.470581 0.464607 0.358183 -0.209401 0.224699 0.734993 -0.361337 -0.064608 -0.696430 -0.551530 0.748996 -0.124611 0.067215 0.335864 0.403739 -0.605649 -0.666298 0.796594 0.215140 -0.993234 -0.303919 0.390758 0.229170 -0.005057 0.433187 -0.122386 -0.711103 0.086194 0.989877 0.720663 0.302377 0.257635 -0.149828 -0.329533 0.527398 0.031729 0.569452 0.125916 0.694839 -0.354535 -0.243281 0.289433 0.066601 0.178617 0.013703
~grant/bin/nm11 -0.257681 0.414921 0.037983 -0.253155 0.117083 0.235236 0.110399 0.210442 -0.340862 -0.197806 0.256738 -0.291353 0.071853 0.095700 0.417402 0.186017 0.295363 0.262693 0.563322 0.696205 0.351543 -0.156826 -0.512579 -0.002721 0.071803 -0.326470 -0.048694 0.137663 -0.394978 0.319963 0.057200 0.132744 0.590697 0.062305 -0.478186 0.188391 -0.037151 -0.365356 0.405138 0.239941 0.167167 0.231397 -0.186404 -0.003191 -0.066006 0.223864 0.146079 0.250854 0.044808 -0.472044
cal -0.147720 0.424248 -0.342854 -0.744768 -0.269916 -0.503472 -0.734595 -0.273594 -0.266982 -0.410636 0.107473 0.105303 0.453408 -0.100349 0.460117 -0.325749 -0.806203 -0.639353 -0.235068 0.337212 0.865736 -0.116396 0.103320 0.356242 -0.382878 -0.385845 -0.445993 0.223480 -0.219590 -0.373600 -0.072096 1.021929 -0.050606 -0.576436 -0.891213 0.106128 -0.141359 -0.817510 0.412186 -1.161793 -0.023406 -0.504093 -0.226571 0.048152 0.389267 0.413089 -1.020494 -0.129444 -0.971372 -0.280119
compact -0.421691 0.072774 -0.109514 -0.883472 -0.613050 0.441936 -0.772580 -0.273959 0.584498 -0.228358 -0.130247 -0.213726 -0.137826 -0.579043 -1.001447 0.180213 0.216772 -0.031401 0.270312 -0.652872 -1.339415 0.399447 -0.426615 0.019048 -0.376022 -0.631531 -0.066606 -0.070046 0.164968 0.280011 -0.109377 0.321241 -0.559989 0.793140 0.627404 -0.399335 0.116200 -0.070440 -1.303456 -0.352950 -0.556853 0.757079 -0.471618 0.068833 -0.477067 0.514715 -0.020533 -0.116184 -0.443606 0.510593
krill -0.480547 0.483615 0.555685 0.192981 -0.056163 -0.089257 0.231974 0.068020 0.075501 -0.728313 0.346846 -0.436567 0.461243 -0.053581 0.043918 0.594443 -0.454731 0.325624 -0.262620 0.430192 -0.187338 -0.188002 0.388396 -0.574605 -0.077570 -0.286521 0.174715 -0.075771 -0.098911 0.233044 -0.716622 -0.255306 0.455010 0.016780 -0.091210 0.032374 -0.373075 -0.073778 0.140113 0.431398 0.744841 0.470884 -0.102270 0.584972 -0.263092 0.657569 0.309560 0.158662 0.698830 -0.094794
lex -0.218378 0.269367 -0.134217 -0.546246 0.022166 -0.043470 0.375272 -0.034856 0.279461 -0.894744 -0.128723 -0.720789 -0.444863 -0.648834 0.073145 0.114549 0.773714 -0.686688 0.765414 0.413266 0.012217 0.204380 -0.685301 -0.482701 0.148571 -0.373436 -0.330302 0.259613 -0.347297 -0.323386 -0.245566 0.513830 0.706104 0.492515 -0.579038 0.314924 0.183447 -0.613632 0.255111 -0.053097 -0.036598 0.578307 0.155415 0.315252 0.012651 0.048167 0.460451 -0.415669 0.046699 -0.687780
error_count 0.010217 0.251170 -0.171384 0.184782 0.417844 0.230259 0.170755 -0.840766 0.279113 -0.420166 0.073401 -0.354536 -0.505264 -0.703620 0.116669 0.144597 0.136361 -0.529941 -0.129121 0.005568 -0.204943 0.281818 -0.044853 -0.274634 0.112198 -0.418580 -0.079026 0.457048 -0.227984 0.613968 -0.764810 0.123610 0.840557 1.311451 0.050103 -0.254248 -0.203835 0.165724 -0.274441 -0.096206 -0.040708 0.567843 -0.236178 0.549608 0.082057 0.287240 0.297751 0.060770 0.085273 -0.688504
dirs 0.049112 -0.086074 0.005878 -0.028634 -0.359750 -0.152767 0.111359 -0.342056 -0.540547 0.345922 0.838534 0.699163 0.359817 -0.263067 -0.187859 -0.353752 0.093446 0.128694 -1.131583 -0.083413 -0.107834 -0.442151 -0.297743 -0.485576 0.353317 -0.372836 0.557891 0.148185 -0.118356 0.297668 -0.149026 -0.192060 0.464305 0.095526 0.689709 -0.054817 0.418044 1.049903 -0.417184 0.029895 -0.458432 -0.383060 0.183506 -0.219952 0.297293 -0.017233 0.420616 0.312637 0.034405 -0.077338
postnews 0.002899 -0.872056 -1.001766 0.327969 -0.910825 0.253020 0.445644 -0.243509 0.308547 -0.154937 -0.587016 0.392027 -0.017357 0.102638 0.138332 -0.755421 -0.148050 0.448632 -0.224254 -0.327836 0.024791 0.528702 -0.431871 1.042444 -0.548799 0.105221 -0.158485 -0.914943 -0.082243 0.103844 0.305364 0.162252 -0.516330 -0.510894 0.013447 0.507472 -0.682652 0.250140 -0.176068 0.171480 -0.576113 -0.406957 -0.944351 0.324514 0.244154 -0.299926 -0.591574 0.274679 -0.477338 -0.141957
verbose 0.086286 0.193501 -0.297313 0.040547 -0.196134 0.314843 0.297506 -0.642645 0.057525 -0.560603 0.337841 -0.448505 -0.251885 -1.092273 -0.143087 0.187055 -0.470599 -0.617636 -0.291939 -0.119134 -0.132052 0.212965 0.232361 0.200320 -0.407104 0.065098 0.371494 0.536501 -0.489774 0.284189 -0.683125 -0.080502 0.802608 0.979851 0.268212 -0.617340 0.260160 0.551501 -0.458812 -0.072974 0.116576 0.259980 -0.698440 0.820360 0.050637 0.224846 0.273328 -0.051227 -0.158089 -0.874957
$NEWSREADER -0.185858 0.453354 0.083738 -0.112627 0.028499 0.422631 -0.074409 -0.301319 -0.398178 -0.235906 0.319143 0.191560 0.459569 -0.014634 0.347194 -0.554677 -0.206504 0.019933 -0.417840 0.053536 0.869546 0.359486 -0.273929 -1.065827 0.589424 -0.375898 0.298097 0.202033 -0.012158 -0.050507 -0.170543 -0.254221 0.924351 -0.028268 0.105792 -0.092418 0.342118 0.774601 -0.035893 0.234161 0.135649 -0.466553 -0.553939 0.431765 0.182666 0.323970 0.303629 -0.259700 0.101980 -0.565561
dpq -0.289019 0.198386 0.116268 0.714674 0.542551 -0.088750 -0.310083 -0.519022 -0.160428 0.974751 0.229988 0.147441 0.171517 0.367118 0.333728 -0.022446 -0.208134 -0.063669 -0.460745 0.042181 -0.874069 0.326551 -0.587026 -0.091499 0.331987 -0.221747 -0.227133 -0.337248 0.016244 0.742929 -0.172576 0.116474 -0.164167 -0.128462 -0.034831 -0.084356 -0.279987 -0.225861 -0.261093 0.380044 0.119956 0.304031 -0.002249 -0.594224 -0.057195 0.730006 -0.302104 0.100126 -0.009330 0.267709
examples_vax 0.340952 -0.350606 -0.828876 -0.170731 -0.494270 -0.472625 -0.110250 0.008454 -0.446797 -0.065246 0.545585 0.406574 -0.441355 -0.652031 -0.278361 -0.601387 0.172471 -0.227101 -0.169480 -0.172240 -0.225204 -0.664871 -0.112465 0.484075 -0.464863 0.239744 -0.295052 0.182127 0.116066 0.321089 0.935196 0.337047 -0.421497 0.487472 0.376022 0.084415 0.939377 0.243420 -0.290341 -0.796368 -0.190537 0.310608 -0.159253 -0.059654 -0.689815 -0.274584 -0.336153 -0.177225 -0.910696 -0.103129
test_comm1 -0.729119 -0.150330 0.004408 -0.532459 -0.272146 0.177070 -0.264559 0.125618 0.483365 -0.625989 -0.200122 -0.459666 0.119678 -0.572707 -0.415658 0.169364 -0.459004 -0.339507 0.338632 0.293013 -0.276956 0.049252 0.350368 -0.167672 -0.108068 -0.490859 -0.265871 -0.127044 -0.045396 -0.276854 -1.053861 0.183943 -0.102001 0.274524 -0.141375 0.170346 -0.208877 -0.302198 -0.093674 -0.020336 -0.110674 0.725254 -0.066516 0.614268 0.266197 0.514349 -0.200214 -0.281834 -0.181299 -0.052108
vista -0.425119 -0.440097 0.182269 -0.426670 0.070678 0.481268 0.225120 0.594991 -0.064085 -0.037950 0.348434 -0.193306 0.253781 -0.076407 -0.912446 0.610753 0.430466 0.083863 0.597695 0.071676 -0.185614 -0.358010 0.564786 -0.092397 -0.724134 -0.927178 -0.067889 -0.344243 0.394240 0.183367 -0.579346 0.089449 -0.121988 1.297342 0.324550 0.806559 -0.347440 -0.676051 -0.320672 0.378785 -0.584134 0.561985 0.302833 0.743955 -0.248125 -0.278715 0.246976 -0.182490 0.025736 -0.067071
c 0.215826 0.276263 0.090565 0.447211 -0.248987 -0.130600 -0.097440 -0.565700 -0.066701 -0.187521 -0.049060 0.295288 -0.089395 0.135186 0.115645 -0.042594 0.567400 -0.319749 -0.756490 -0.321537 -0.079888 0.402684 -0.407536 -0.877286 0.434576 0.259179 0.292052 -0.276479 0.374069 -0.120440 -0.078469 -0.000333 0.257625 -0.370630 0.162293 -0.250312 0.760245 0.310202 -0.045793 0.103679 0.007299 -0.066058 0.059765 -0.230354 -0.398095 0.317488 0.893188 -0.846734 0.047079 -0.045227
eqn -0.362218 0.055311 -0.016052 -0.022064 0.939216 -0.273995 0.050696 0.009998 -0.382906 0.205410 0.148835 -0.313356 -0.107257 0.236814 -0.157900 -0.451468 0.709970 -0.775321 0.178534 -0.075430 -0.286507 0.244292 -0.263803 -0.408455 -0.111442 -0.311172 -0.757805 -0.516202 0.383485 -0.183588 -0.045480 0.686583 -0.432501 0.225763 -0.161342 0.223843 0.553287 -0.802053 0.307968 -0.165342 0.093805 0.539039 0.195904 -0.341547 0.470596 0.584165 0.563990 -0.735955 -0.491341 -0.255162
sh 0.512325 -0.030839 0.165027 0.174218 0.186542 0.795576 0.106662 -0.476592 -0.320369 -0.631552 0.090217 -0.486082 0.079455 -0.298117 -0.119846 -0.771001 0.192243 0.107900 -0.154409 -0.551061 0.239480 0.375503 0.334159 -0.276519 -0.285115 0.392779 -0.225245 0.181255 -0.107551 -0.450522 0.802308 -0.537969 0.773060 0.509663 0.855771 -0.113873 0.513621 0.876850 0.008599 -0.198139 0.048853 -0.311910 -1.048150 0.744598 -0.372455 -0.153517 0.679794 0.434313 0.075752 -0.230605
sfn 0.296577 -0.071499 -0.349102 0.124543 -0.569778 -0.222631 -0.375216 -0.043978 -0.032884 0.264783 0.068353 0.581820 0.006585 0.136684 -0.323177 0.565322 -0.108533 0.132805 0.232915 -0.167771 -0.236836 -0.102276 -0.614206 0.571088 0.582273 0.648457 -0.485599 0.479575 -0.313394 0.846105 0.028732 0.721966 0.023803 -0.073612 -1.168487 -0.470844 0.210446 -0.015392 -0.296213 -0.156805 -0.128192 0.373503 -0.567248 -0.280248 -0.374403 0.046323 -0.424741 -0.525553 -0.198363 -0.215394
write 0.637203 -0.041721 -0.735068 -0.142866 -1.355337 -0.215058 -0.870473 -0.313813 0.279613 -0.460008 -0.705720 -0.028197 -0.307370 0.081751 0.051583 0.390426 -0.010992 -0.150449 -0.023247 0.043034 0.653750 -0.256306 0.213007 0.814511 -0.601680 0.490272 0.509079 -0.572574 0.124522 -0.474632 -0.287397 0.076554 -0.423359 -0.894425 -1.040189 -0.226533 -0.134046 -0.244121 0.143478 -0.207581 0.417748 -0.482023 -0.094290 -0.106252 0.080999 -0.141699 -0.590060 -0.183296 -0.417745 -0.056987
fonted 0.500518 0.277630 -0.112561 -0.232517 -0.984554 -0.210701 -0.273650 -0.069326 -0.081124 -0.574286 -0.079767 0.547466 0.255033 -0.386353 0.069130 0.368842 -0.475309 0.213535 -0.294104 0.048054 0.239017 0.311416 -0.523992 -0.282988 0.084796 -0.066728 -0.259528 0.624938 -0.332698 -0.371707 0.184232 0.572823 0.221535 -0.772081 -0.570587 0.133269 0.446832 0.070793 0.235028 -1.041254 -0.533873 -0.580464 -0.111051 0.154646 -0.158315 -0.075825 -0.781587 0.381945 -0.232981 0.178308
sortbib -0.274929 0.191660 0.081437 -0.116372 0.495123 0.653278 0.308290 -0.023321 -0.101039 0.141470 0.555681 -0.531278 0.039177 -0.475673 0.078126 -0.165286 0.835481 0.066716 0.474982 -0.432587 -0.795138 0.724511 -0.957132 0.089150 -0.212097 0.296447 -0.130093 -0.183946 -0.412601 0.031116 0.332170 -0.477450 0.488015 0.288386 0.578205 0.575593 0.445618 -0.063081 -0.061145 0.732058 -0.366282 0.372291 -0.219456 -0.858382 -0.474968 0.175260 0.475519 0.575813 0.014392 -0.521159
users 0.397673 0.433757 0.091444 0.025292 -0.032297 0.122248 0.328112 0.198141 -0.544063 -0.845054 0.211068 0.749754 0.506553 0.088047 0.497118 -0.877959 0.658088 0.804449 0.110739 -0.489732 1.117925 0.540249 -0.149993 0.570443 -0.286529 -0.617434 -0.496763 -0.073868 0.464624 -0.092547 0.423669 -0.252206 0.731286 -0.146775 -0.267779 0.365585 0.331147 -0.065852 0.354090 -0.064074 -0.531213 -0.308183 -0.892719 0.509530 -1.598214 0.242953 -0.230507 0.211829 -0.460201 -0.107121
test_pause -0.638991 0.655469 0.971793 -1.095055 -0.344131 -0.121772 -0.290836 0.144716 0.845626 -0.871721 0.037458 -0.229915 0.325096 0.269011 -0.583180 -0.160649 -0.381579 0.684787 -0.061813 -0.114305 -0.209462 -0.410874 0.487149 -0.538592 0.564711 -0.231009 -0.462751 0.358037 -0.263578 -0.588862 -0.562393 -0.034318 0.149464 -0.144201 0.220642 -0.226859 0.096450 0.104347 -0.070994 -0.211302 -0.138110 0.094456 0.040668 -0.224430 0.253332 0.638686 0.037073 0.472847 0.102719 0.590106
time 0.020224 0.023752 -0.091778 0.317428 -0.948177 -0.678146 -0.048128 -0.528824 0.295556 -0.553454 -0.446702 -0.295475 -0.400682 -0.025040 0.565218 -0.038203 -0.220412 0.689761 -0.192424 0.035428 -0.551607 -0.298011 -0.000036 0.388780 -0.530437 0.487685 0.500923 0.350694 -0.111152 0.151369 -0.469520 -0.113710 0.273867 -1.099242 -0.872764 -1.032351 -0.205629 -0.200885 -0.479657 -0.113164 0.868045 0.284646 -0.033942 -0.095940 -0.638807 1.031896 -0.159876 -0.521539 -0.548924 0.123640
cwc 0.021978 -0.202008 0.047979 -0.017698 0.633966 0.065403 0.618892 -0.069300 -0.289627 0.426811 0.890833 -0.324554 0.065612 -0.390156 -0.469234 -0.757735 0.848514 0.000509 -0.308110 -0.373003 -0.205542 -0.618166 -0.155786 0.359064 -0.279177 0.708430 0.154777 -0.350663 -0.369970 -0.172186 0.743321 -0.532259 0.332395 0.434044 0.504493 0.278137 0.047774 0.142577 -0.116189 0.108142 -0.187011 0.146932 0.181246 -0.816237 0.284524 -0.382157 1.039091 0.636866 -0.069400 -0.551391
lint 0.111187 0.277672 0.162492 -0.507962 0.214867 0.369188 -0.189379 -0.146573 -0.176710 -0.227906 -0.029612 -0.922630 -0.284662 -0.475768 -0.048429 0.509209 0.548494 -0.702875 0.777257 0.295598 -0.187822 0.351850 -0.531543 -0.281424 0.315482 -0.457080 -0.287602 0.282441 -0.513733 -0.197012 -0.296431 0.182002 0.997842 0.617171 -0.458243 0.506318 0.017614 -0.398389 0.392005 0.223481 -0.084960 0.421355 0.102085 0.019005 0.112626 -0.267975 -0.045953 0.459804 0.152312 -0.397228
del -0.208305 -0.005720 0.381051 0.080032 0.225440 -0.247701 0.427707 -0.289428 0.438374 0.173855 0.371927 -0.344458 -0.022412 -0.674859 -0.581249 -0.069302 0.550296 -0.395155 0.117502 -0.139291 -1.311466 0.107854 -0.223824 -0.507783 0.014418 0.602214 0.039504 -0.257423 0.007411 0.068405 -0.347985 -0.444256 -0.378266 0.494464 0.454995 0.300047 0.640148 0.318349 -0.388169 0.430254 0.313496 0.599329 0.308473 -0.280464 0.285345 -0.120794 0.413185 0.231824 0.225905 -0.070340
email 0.394436 0.000754 -0.532006 0.527569 0.136287 -0.344749 -0.289175 0.061524 -0.558307 0.243424 0.066374 0.459486 -0.133123 0.260283 0.507835 -0.241598 -0.178105 -0.101742 -0.168336 0.024186 0.521027 -0.013923 -0.340290 0.536115 -0.001115 -0.002307 -0.450728 -0.258314 0.001856 0.672746 0.290849 0.418890 -0.178638 -0.154031 -0.624215 -0.462323 0.000264 -0.131915 0.273310 -0.374430 0.302351 0.008695 -0.275501 -0.147157 -0.297474 0.370279 -0.339844 -0.425686 -0.298404 -0.170405
gprof -0.237590 0.312919 -0.180986 0.560331 0.414905 0.047237 -0.041902 -0.896193 0.072037 -0.222270 0.192359 -0.582560 -0.317532 -0.412379 0.362654 0.002018 0.137584 0.193828 -0.205165 -0.171373 -0.614895 0.211882 -0.401058 -0.788142 0.266309 -0.109181 0.298448 -0.167713 -0.393895 0.808439 -0.575753 -0.611133 0.665386 0.236402 0.423482 -0.405138 -0.255272 0.286058 0.071204 0.533754 0.339592 0.323479 0.012330 -0.353350 -0.205714 0.707908 0.477505 0.205894 0.828564 -0.303343
gr 0.436430 -0.363453 0.159459 0.118059 -0.084106 -0.240738 -0.280580 -0.018820 -0.376601 -0.594745 -0.907092 0.192103 -0.392802 0.551582 0.446984 -0.531457 0.407327 -0.815427 0.059350 0.127677 -0.000070 0.328317 -0.001834 0.055553 0.085090 0.532662 -0.080412 0.132500 -0.105376 0.020040 0.165133 0.678703 -0.047863 -0.501438 -0.349381 -0.024794 0.841270 0.449579 0.593075 0.167858 0.548835 -0.361477 -0.590275 0.206818 0.468463 0.041512 -0.465715 0.052649 -0.274960 -0.424797
yacc -0.122198 0.225011 0.144513 -0.601298 0.254292 -0.070318 0.297316 -0.165384 0.435114 -0.309442 -0.175166 -0.738118 -0.190146 -0.400549 -0.093194 0.246595 0.337451 -0.569769 0.802960 0.314908 0.181902 0.114617 -0.625588 -0.592929 0.521594 -0.621825 -0.271370 0.426747 -0.491975 -0.316012 -0.415724 0.219774 0.780037 0.404600 -0.571028 0.129156 0.004020 -0.479443 0.274864 -0.024040 -0.216723 0.170188 0.676157 -0.278923 0.357851 -0.188939 0.240514 -0.086417 0.319940 -0.229978
control -0.201847 0.481941 0.778397 0.133442 0.124186 0.422731 0.016020 0.040162 0.607711 -0.251905 0.064041 -0.201638 0.534244 -0.221313 0.142128 0.704021 0.012424 0.308138 0.181076 0.116366 -0.921725 0.424768 -0.211499 -0.724684 0.067968 0.165911 0.099493 0.250775 -0.422925 0.011735 -0.608064 -0.270480 0.443065 -0.263610 -0.118509 0.374695 0.100859 -0.172587 -0.027178 0.371905 -0.046606 0.164508 0.206992 -0.254584 0.213409 0.478015 0.111005 0.660453 0.455110 -0.057350
tty -0.080461 -0.524132 -0.753085 0.584414 0.131344 0.043255 -0.334122 -0.056704 0.712489 -0.205970 0.221944 0.142351 -0.769104 -0.921457 0.195301 0.657459 -0.645547 0.319795 0.073689 0.961883 0.443656 -0.239684 0.196220 -0.360371 0.959072 0.828674 -0.129758 0.071565 0.168356 -0.577526 -0.046364 -0.891501 -0.096478 -0.430609 -0.724178 0.833497 -0.371625 0.367195 -0.008235 -0.343854 -0.216282 0.330041 0.208893 0.004988 0.103347 -0.347553 -0.120618 -0.135163 0.321872 0.377619
indxbib 0.106017 0.178958 0.106904 -0.342495 0.325633 0.322362 -0.064747 -0.002185 -0.177923 -0.007165 0.621486 -0.639962 0.058624 -0.406279 -0.185315 0.099650 0.335405 -0.086950 0.310887 -0.496163 -0.429383 0.116571 -0.303752 0.527728 -0.385052 0.065740 -0.455241 0.244200 -0.290708 -0.190816 0.475379 -0.301570 0.467168 0.501531 0.365131 0.242688 0.101992 -0.266540 -0.034144 0.193874 -0.020428 0.476474 -0.234214 -0.336065 -0.772392 -0.292102 0.107583 0.664296 0.035643 -0.127442
while 0.022289 0.616705 0.337010 -0.269430 -0.194060 -0.953922 0.134794 -0.187699 0.663648 -0.393111 -0.307131 -0.469004 -0.098234 0.181078 0.111360 0.392237 -0.338744 0.137586 0.029611 0.244189 0.406671 -0.511320 0.691064 0.096128 0.033086 0.373509 0.701228 0.634868 0.093900 -1.080244 -0.366986 -0.544965 0.477159 -0.890641 -0.618719 -0.489861 -0.472225 -0.532007 0.195836 -0.004428 0.793450 -0.218029 0.936147 -0.460711 0.046751 -0.064421 0.182513 -0.240331 0.269333 0.234534
em 0.316593 -0.462971 -0.718618 -0.076726 -0.298956 0.228858 -0.181193 0.248688 -0.316420 0.679558 0.474748 0.124164 -0.280504 -0.005476 0.264811 0.182700 -0.243025 0.287197 0.252322 0.384934 0.445032 -0.696680 -0.286605 0.672204 -0.509793 -0.022452 0.012473 -0.325283 -0.423608 0.571670 0.489963 0.196321 -0.472516 -0.090270 -0.204744 0.213631 -0.271034 -0.332147 0.035080 -0.370533 -0.136650 0.000928 0.213661 -0.484568 0.198827 -0.109097 -0.486662 0.182015 -0.697655 -0.152728
find -0.034394 -0.144282 -0.112847 0.154150 0.214955 -0.051485 -0.270259 -0.235959 -0.266507 0.245614 0.130140 -0.060824 -0.685728 -0.735771 -0.349623 0.033501 0.600542 -0.730366 0.029134 0.062519 -1.379219 0.280859 -0.550327 -0.262985 0.151663 0.145149 -0.627807 0.205639 0.209756 0.144296 -0.030835 0.581819 0.066583 0.582631 -0.037367 0.189960 0.921251 -0.016621 -0.245940 -0.264479 -0.279721 1.098146 -0.441189 0.107676 -0.645675 0.326757 0.210252 -0.097082 -0.299704 0.018270
hello 0.640002 -0.319686 -0.857261 0.410313 -0.964553 -0.184346 0.019949 0.138429 0.280829 -0.593983 -0.586773 0.334885 -0.480782 0.511700 0.629788 -0.401200 0.430150 0.003780 -0.435750 -0.050672 0.984841 -0.180606 -0.483560 0.547317 -0.229329 0.320971 0.213989 -0.994704 -0.203430 0.031729 0.458547 0.254088 -0.489039 -0.637448 -0.487051 -0.079380 -0.358507 0.061892 0.582384 -0.066827 0.363563 -0.489987 -0.096498 -0.033272 -0.413944 -0.204071 -0.092227 -0.818218 -0.250834 -0.262937
"pr" -0.052342 -0.135303 -0.116746 0.182545 0.258319 -0.244393 -0.290097 -0.238854 -0.447484 -0.056202 -0.260740 -0.104512 0.668335 0.452200 0.109393 -0.434237 -0.300354 -0.704995 -0.538881 -0.154003 0.224338 0.145056 0.581909 0.552472 -0.390182 -0.205098 -0.104976 -0.155489 0.295269 -0.075584 -0.484882 0.551974 -0.217157 -0.098415 -0.322243 -0.186517 -0.788737 -0.407501 0.081236 0.138742 0.551050 -0.090732 -0.184873 0.695894 0.565445 0.034644 -0.444036 0.039813 -0.075037 -0.383900
ld 0.313912 0.014251 0.407161 0.462835 0.186502 -0.040705 0.211286 -0.064953 0.402639 0.108287 0.210285 0.226756 -0.072667 -0.359663 -0.090096 0.562128 0.082755 0.076695 0.039635 -0.218910 -0.502322 -0.005352 0.087926 -0.051203 -0.199971 0.506218 -0.002593 0.199656 0.206261 -0.114997 0.079040 -0.570386 0.252172 0.152021 0.142158 0.372891 0.386119 0.143453 -0.423893 0.054040 -0.136941 0.208703 0.256535 -0.532707 -0.366174 -0.111462 0.141449 0.268568 0.005600 0.165482
tidy 0.225829 0.061663 0.231114 -0.385256 0.652500 -0.328211 -0.609425 -0.411143 -0.096774 -0.048288 0.194348 -0.594886 -0.016576 0.144894 -0.302015 -1.296136 0.417059 -0.252726 -0.233915 -1.129128 -0.136521 0.171780 0.239449 0.330506 0.091257 -0.065826 -1.103537 -0.474817 0.369602 -0.441474 0.328053 0.126581 -0.246288 0.552137 0.679738 0.484591 -0.062887 -0.158591 0.127450 -0.181790 0.163084 0.220184 -0.383393 -0.383303 -0.646032 -0.085581 -0.381050 0.142793 -0.455631 0.208545
trace 0.243289 -0.222674 -0.092910 -0.550511 -0.468636 -0.126693 0.021924 -0.270796 0.499464 -0.500869 -0.295583 0.204816 -0.446223 -0.009926 -0.424915 -0.348083 0.984497 0.043288 0.095488 -0.189935 0.486106 -0.418657 -0.046288 0.144560 0.061525 0.222575 -0.393970 -0.219289 0.365289 0.224044 0.193770 0.344471 -0.324679 1.037419 0.183340 0.206515 0.298100 0.130472 -0.524290 -0.311148 -0.190462 0.370060 -0.338812 0.446753 -0.743770 -0.445773 0.466466 -1.104100 -0.341721 -0.277011
od -0.019176 0.112247 -0.138222 -0.112743 -0.237292 0.084702 -0.711736 -0.451857 -0.315144 0.076576 0.212541 0.101711 -0.352869 0.066064 -0.092933 -0.344033 0.674960 -0.047645 -0.275630 0.062391 -0.341562 0.094541 -0.903283 -0.139633 0.177332 0.320738 -0.524093 -0.222508 0.195154 0.108811 0.121064 0.503418 -0.038546 -0.030816 0.146430 0.332100 0.538531 0.361873 -0.098357 -0.055038 0.006907 0.548078 -0.633520 -0.377751 -0.202976 0.278691 0.243434 -0.013325 -0.298438 -0.005136
prune -0.165873 -0.080316 -0.320128 -0.181737 -0.408845 -0.221965 0.417838 -0.037473 -0.151676 0.031507 -0.113934 0.351158 -0.293345 0.297480 -0.521157 0.663152 0.160932 0.040321 -0.188014 0.195998 -0.099892 -0.092452 -0.433946 -0.007573 0.269227 -0.715507 -0.097321 0.264357 0.156047 0.262258 -0.255446 0.814983 -0.143875 0.579100 -0.212928 -0.575646 -0.256403 -0.221604 -0.443122 -0.374072 -0.467050 0.193207 0.204424 0.512856 0.098582 -0.439210 0.260376 -0.208037 0.456513 0.290564
rehash -0.180475 -0.332191 -0.323706 -0.292455 0.339691 0.045369 0.206675 -0.092844 -0.204716 -0.503978 0.270701 -0.204780 -0.697683 -0.062293 -0.153691 -0.526341 0.215326 0.103416 0.088497 0.003352 0.323961 -0.472197 0.186134 0.017880 -0.316609 0.146877 -0.161144 0.115551 -0.117857 -0.021753 0.652531 -0.036455 0.083683 0.478073 0.702531 0.107556 0.348985 0.158696 0.016394 -0.442125 -0.290847 0.205328 -0.149329 -0.293688 0.123489 0.136634 0.412496 0.089040 -0.473836 -0.228041
